FANN_FLO_2.1
num_layers=3
learning_rate=0.700000
connection_rate=1.000000
network_type=0
learning_momentum=0.000000
training_algorithm=2
train_error_function=1
train_stop_function=0
cascade_output_change_fraction=0.010000
quickprop_decay=-0.000100
quickprop_mu=1.750000
rprop_increase_factor=1.200000
rprop_decrease_factor=0.500000
rprop_delta_min=0.000000
rprop_delta_max=50.000000
rprop_delta_zero=0.100000
cascade_output_stagnation_epochs=12
cascade_candidate_change_fraction=0.010000
cascade_candidate_stagnation_epochs=12
cascade_max_out_epochs=150
cascade_max_cand_epochs=150
cascade_num_candidate_groups=2
bit_fail_limit=3.49999994039535522461e-01
cascade_candidate_limit=1.00000000000000000000e+03
cascade_weight_multiplier=4.00000005960464477539e-01
cascade_activation_functions_count=10
cascade_activation_functions=3 5 7 8 10 11 14 15 16 17 
cascade_activation_steepnesses_count=4
cascade_activation_steepnesses=2.50000000000000000000e-01 5.00000000000000000000e-01 7.50000000000000000000e-01 1.00000000000000000000e+00 
layer_sizes=38 19 2 
scale_included=0
neurons (num_inputs, activation_function, activation_steepness)=(0, 0, 0.00000000000000000000e+00) (0, 0, 0.00000000000000000000e+00) (0, 0, 0.00000000000000000000e+00) (0, 0, 0.00000000000000000000e+00) (0, 0, 0.00000000000000000000e+00) (0, 0, 0.00000000000000000000e+00) (0, 0, 0.00000000000000000000e+00) (0, 0, 0.00000000000000000000e+00) (0, 0, 0.00000000000000000000e+00) (0, 0, 0.00000000000000000000e+00) (0, 0, 0.00000000000000000000e+00) (0, 0, 0.00000000000000000000e+00) (0, 0, 0.00000000000000000000e+00) (0, 0, 0.00000000000000000000e+00) (0, 0, 0.00000000000000000000e+00) (0, 0, 0.00000000000000000000e+00) (0, 0, 0.00000000000000000000e+00) (0, 0, 0.00000000000000000000e+00) (0, 0, 0.00000000000000000000e+00) (0, 0, 0.00000000000000000000e+00) (0, 0, 0.00000000000000000000e+00) (0, 0, 0.00000000000000000000e+00) (0, 0, 0.00000000000000000000e+00) (0, 0, 0.00000000000000000000e+00) (0, 0, 0.00000000000000000000e+00) (0, 0, 0.00000000000000000000e+00) (0, 0, 0.00000000000000000000e+00) (0, 0, 0.00000000000000000000e+00) (0, 0, 0.00000000000000000000e+00) (0, 0, 0.00000000000000000000e+00) (0, 0, 0.00000000000000000000e+00) (0, 0, 0.00000000000000000000e+00) (0, 0, 0.00000000000000000000e+00) (0, 0, 0.00000000000000000000e+00) (0, 0, 0.00000000000000000000e+00) (0, 0, 0.00000000000000000000e+00) (0, 0, 0.00000000000000000000e+00) (0, 0, 0.00000000000000000000e+00) (38, 5, 5.00000000000000000000e-01) (38, 5, 5.00000000000000000000e-01) (38, 5, 5.00000000000000000000e-01) (38, 5, 5.00000000000000000000e-01) (38, 5, 5.00000000000000000000e-01) (38, 5, 5.00000000000000000000e-01) (38, 5, 5.00000000000000000000e-01) (38, 5, 5.00000000000000000000e-01) (38, 5, 5.00000000000000000000e-01) (38, 5, 5.00000000000000000000e-01) (38, 5, 5.00000000000000000000e-01) (38, 5, 5.00000000000000000000e-01) (38, 5, 5.00000000000000000000e-01) (38, 5, 5.00000000000000000000e-01) (38, 5, 5.00000000000000000000e-01) (38, 5, 5.00000000000000000000e-01) (38, 5, 5.00000000000000000000e-01) (38, 5, 5.00000000000000000000e-01) (0, 5, 0.00000000000000000000e+00) (19, 13, 5.00000000000000000000e-01) (0, 13, 0.00000000000000000000e+00) 
connections (connected_to_neuron, weight)=(0, 1.39691209793090820312e+01) (1, -3.94718360900878906250e+01) (2, -3.28555822372436523438e+00) (3, 2.96162128448486328125e+00) (4, 3.67236399650573730469e+00) (5, 1.85983753204345703125e+00) (6, 1.15643568038940429688e+01) (7, 3.57014346122741699219e+00) (8, 8.81439781188964843750e+00) (9, -1.50000000000000000000e+03) (10, 1.63882949829101562500e+02) (11, 1.26625830078125000000e+03) (12, -1.50174514770507812500e+02) (13, -1.49641372680664062500e+02) (14, -7.81896438598632812500e+01) (15, 7.73050785064697265625e+00) (16, 2.27062463760375976562e-01) (17, -1.86646842956542968750e+00) (18, -8.50016117095947265625e+00) (19, 1.50000000000000000000e+03) (20, 3.02642375230789184570e-01) (21, -3.05901145935058593750e+00) (22, -1.52815036773681640625e+01) (23, -1.65789299011230468750e+01) (24, 1.50000000000000000000e+03) (25, 1.50000000000000000000e+03) (26, 1.90053069591522216797e+00) (27, -1.06404752731323242188e+01) (28, -2.09194436669349670410e-01) (29, 3.85500478744506835938e+00) (30, 1.54846658706665039062e+01) (31, -1.91435360908508300781e+00) (32, -3.72047972679138183594e+00) (33, -1.53511178493499755859e+00) (34, 4.31855010986328125000e+00) (35, -2.03624773025512695312e+00) (36, -3.97540402412414550781e+00) (37, 1.13312375545501708984e+00) (0, 1.81986961364746093750e+01) (1, -2.67755222320556640625e+01) (2, -2.04749059677124023438e+00) (3, 1.92946183681488037109e+00) (4, 2.93040442466735839844e+00) (5, -3.51169657707214355469e+00) (6, -1.71219959259033203125e+01) (7, 3.88768172264099121094e+00) (8, 2.57695236206054687500e+01) (9, -3.76370147705078125000e+02) (10, -3.50320816040039062500e+01) (11, -7.76110351562500000000e+02) (12, -1.50219985961914062500e+02) (13, -2.78812469482421875000e+02) (14, 2.27535057067871093750e+01) (15, -6.66160631179809570312e+00) (16, 1.14012873172760009766e+00) (17, 6.18371057510375976562e+00) (18, 2.34732508659362792969e+00) (19, 1.50000000000000000000e+03) (20, 2.01796293258666992188e+00) (21, 5.62836885452270507812e-01) (22, 6.29857444763183593750e+00) (23, -3.12273049354553222656e+00) (24, 1.50000000000000000000e+03) (25, 1.50000000000000000000e+03) (26, 1.52863633632659912109e+00) (27, 3.10147213935852050781e+00) (28, -8.91509246826171875000e+00) (29, 3.98214912414550781250e+00) (30, 2.05266761779785156250e+00) (31, -2.90154123306274414062e+00) (32, 3.40671005249023437500e+01) (33, -2.31954956054687500000e+00) (34, -4.93407773971557617188e+00) (35, -2.77699160575866699219e+00) (36, -1.06458110809326171875e+01) (37, 2.03057825565338134766e-01) (0, -6.13477408885955810547e-01) (1, 1.04324371337890625000e+02) (2, 1.09187802299857139587e-02) (3, -1.35194897651672363281e-01) (4, 5.95595502853393554688e+00) (5, -3.31853103637695312500e+00) (6, 2.52068352699279785156e+00) (7, 1.15266227722167968750e+00) (8, 3.75832152366638183594e+00) (9, -2.19827362060546875000e+02) (10, 1.50000000000000000000e+03) (11, 7.25079727172851562500e+01) (12, -1.50229110717773437500e+02) (13, -2.47533149719238281250e+01) (14, 3.81991195678710937500e+00) (15, -1.15463817119598388672e+00) (16, -4.44501861929893493652e-02) (17, -5.79814076423645019531e-01) (18, -1.15204060077667236328e+00) (19, 1.50000000000000000000e+03) (20, 8.74152183532714843750e-02) (21, 2.43125990033149719238e-01) (22, 1.56293559074401855469e+00) (23, -2.12417662143707275391e-01) (24, 1.50000000000000000000e+03) (25, 1.50000000000000000000e+03) (26, 5.31839072704315185547e-01) (27, 1.50000000000000000000e+03) (28, 2.82104563713073730469e+00) (29, -2.62582945823669433594e+00) (30, 2.65399098396301269531e-01) (31, 1.46473824977874755859e+00) (32, 2.90813565254211425781e+00) (33, -1.34343624114990234375e+00) (34, 1.62294709682464599609e+00) (35, 7.30595767498016357422e-01) (36, 7.31892585754394531250e-01) (37, -2.39885106682777404785e-01) (0, -7.89938449859619140625e+00) (1, 1.39368124008178710938e+01) (2, 4.76851880550384521484e-01) (3, 4.45408791303634643555e-01) (4, -1.77855911254882812500e+01) (5, 1.03146762847900390625e+01) (6, -1.17541418075561523438e+01) (7, -2.20721030235290527344e+00) (8, -2.46160907745361328125e+01) (9, -1.50000000000000000000e+03) (10, 3.87419509887695312500e+01) (11, -1.45500473022460937500e+02) (12, -1.50213455200195312500e+02) (13, 1.11580886840820312500e+02) (14, 3.52118568420410156250e+01) (15, 2.76587128639221191406e+00) (16, 8.68693172931671142578e-01) (17, 2.06231638789176940918e-01) (18, 7.50107192993164062500e+00) (19, 1.50000000000000000000e+03) (20, -1.16339457035064697266e+00) (21, -2.48416733741760253906e+00) (22, -5.34963417053222656250e+00) (23, -2.97310888767242431641e-01) (24, 1.50000000000000000000e+03) (25, 1.50000000000000000000e+03) (26, 7.73419797420501708984e-01) (27, -5.50428104400634765625e+00) (28, 2.40347683429718017578e-01) (29, -6.87673568725585937500e+00) (30, -6.65211439132690429688e-01) (31, 5.79381275177001953125e+00) (32, 1.19931564331054687500e+01) (33, -1.03226423263549804688e+00) (34, 1.93612134456634521484e+00) (35, -3.27407693862915039062e+00) (36, -3.78512549400329589844e+00) (37, 3.36696833372116088867e-01) (0, 2.12970458984375000000e+02) (1, -1.50000000000000000000e+03) (2, -1.41663599014282226562e+01) (3, 5.21749258041381835938e-01) (4, -4.22257652282714843750e+01) (5, 4.45112323760986328125e+00) (6, -9.91801548004150390625e+00) (7, 6.80494785308837890625e-01) (8, 2.98152332305908203125e+01) (9, -1.35849816894531250000e+03) (10, 1.50000000000000000000e+03) (11, -2.00562622070312500000e+02) (12, -1.50224746704101562500e+02) (13, -1.25030242919921875000e+02) (14, -5.21761322021484375000e+01) (15, 1.30746679306030273438e+01) (16, 1.46805553436279296875e+01) (17, 5.28548545837402343750e+01) (18, 1.43087644577026367188e+01) (19, 1.50000000000000000000e+03) (20, 8.08734226226806640625e+00) (21, 4.43896614015102386475e-02) (22, -4.37878532409667968750e+01) (23, -7.68096685409545898438e+00) (24, 1.50000000000000000000e+03) (25, 1.50000000000000000000e+03) (26, -8.86757564544677734375e+00) (27, 1.27488868713378906250e+02) (28, -9.99570846557617187500e+01) (29, -3.87679159641265869141e-01) (30, 5.54256153106689453125e+00) (31, 8.86392211914062500000e+00) (32, 1.86307029724121093750e+01) (33, -1.55356922149658203125e+01) (34, 1.20233135223388671875e+01) (35, 1.65672760009765625000e+01) (36, 1.18901891708374023438e+01) (37, -4.90212231874465942383e-01) (0, 1.42037975788116455078e+00) (1, -3.77801284790039062500e+01) (2, 3.35711866617202758789e-01) (3, -5.39915487170219421387e-02) (4, 3.58867669105529785156e+00) (5, 3.53572916984558105469e+00) (6, -1.05464792251586914062e+00) (7, -1.79059672355651855469e+00) (8, -9.55354690551757812500e+00) (9, -1.50000000000000000000e+03) (10, 1.28243923187255859375e+01) (11, 1.26073638916015625000e+02) (12, -1.50234481811523437500e+02) (13, -2.00169205665588378906e+00) (14, 2.85260033607482910156e+00) (15, 2.17713737487792968750e+00) (16, -3.91695588827133178711e-01) (17, -1.70081770420074462891e+00) (18, -6.65430486202239990234e-01) (19, 1.50000000000000000000e+03) (20, 1.03134416043758392334e-01) (21, -1.55172920227050781250e+00) (22, -2.29528021812438964844e+00) (23, 2.27979922294616699219e+00) (24, 1.50000000000000000000e+03) (25, 1.50000000000000000000e+03) (26, -1.19266939163208007812e+00) (27, -3.37746500968933105469e+00) (28, -1.52553033828735351562e+00) (29, -1.50000000000000000000e+03) (30, 1.65941679477691650391e+00) (31, 3.11856722831726074219e+00) (32, -2.82184147834777832031e+00) (33, -6.71230137348175048828e-01) (34, -5.59306859970092773438e+00) (35, -1.20433144271373748779e-01) (36, 9.20153379440307617188e-01) (37, 5.33089220523834228516e-01) (0, -8.37958240509033203125e+00) (1, 4.39719963073730468750e+01) (2, 1.92867368459701538086e-01) (3, -6.33556842803955078125e-01) (4, -5.07624483108520507812e+00) (5, 1.17572240829467773438e+01) (6, -1.06909358501434326172e+00) (7, -4.01244449615478515625e+00) (8, -2.31304454803466796875e+00) (9, 1.79050582885742187500e+02) (10, -2.68444885253906250000e+02) (11, -1.38296630859375000000e+02) (12, -1.50275405883789062500e+02) (13, 2.55909252166748046875e+01) (14, 1.12072334289550781250e+01) (15, -2.78275942802429199219e+00) (16, -4.08080458641052246094e-01) (17, 7.09094476699829101562e+00) (18, 4.71257495880126953125e+00) (19, 1.50000000000000000000e+03) (20, 2.22404503822326660156e+00) (21, -7.02286529541015625000e+00) (22, 1.50000000000000000000e+03) (23, -5.09209918975830078125e+00) (24, 1.50000000000000000000e+03) (25, 1.50000000000000000000e+03) (26, -1.04314815998077392578e+00) (27, 9.34072494506835937500e+00) (28, 2.79107532501220703125e+01) (29, 8.80399894714355468750e+00) (30, -1.39940094947814941406e+00) (31, -1.72138023376464843750e+00) (32, -2.93013840913772583008e-01) (33, 4.57696104049682617188e+00) (34, -2.11658840179443359375e+01) (35, 1.25175416469573974609e+00) (36, 7.06292152404785156250e-01) (37, -1.41973033547401428223e-01) (0, -1.32360315322875976562e+01) (1, 1.32028408050537109375e+01) (2, 3.45133042335510253906e+00) (3, -1.03420829772949218750e+00) (4, -7.87268543243408203125e+00) (5, -2.03966927528381347656e+00) (6, 3.38511133193969726562e+00) (7, -3.65190005302429199219e+00) (8, -9.38447380065917968750e+00) (9, 2.01895904541015625000e+02) (10, 1.30807470703125000000e+03) (11, -3.45020828247070312500e+01) (12, -1.50151473999023437500e+02) (13, -1.11721878051757812500e+02) (14, -1.28558244705200195312e+01) (15, 7.67716693878173828125e+00) (16, 5.61612665653228759766e-01) (17, -1.85276067256927490234e+00) (18, 4.20457935333251953125e+00) (19, 1.50000000000000000000e+03) (20, -1.92058309912681579590e-01) (21, 7.71332740783691406250e+00) (22, 6.45345115661621093750e+00) (23, 3.90674328804016113281e+00) (24, 1.50000000000000000000e+03) (25, 1.50000000000000000000e+03) (26, -1.13391137123107910156e+00) (27, -2.33263134956359863281e+00) (28, 1.52720093727111816406e-01) (29, -2.04335927963256835938e+00) (30, -2.05849194526672363281e+00) (31, -2.02730870246887207031e+00) (32, -1.50000000000000000000e+03) (33, -5.98751187324523925781e-01) (34, -3.16794705390930175781e+00) (35, 3.57658481597900390625e+00) (36, -1.06063330173492431641e+00) (37, -1.18420255184173583984e+00) (0, -1.52055959701538085938e+01) (1, -9.86707229614257812500e+01) (2, 5.63577127456665039062e+00) (3, -4.99769163131713867188e+00) (4, -5.14019441604614257812e+00) (5, -9.03462123870849609375e+00) (6, -7.36947202682495117188e+00) (7, -9.17338490486145019531e-01) (8, 7.63665103912353515625e+00) (9, -1.50000000000000000000e+03) (10, 1.30969177246093750000e+03) (11, 1.20877777099609375000e+02) (12, -1.50259933471679687500e+02) (13, -3.73854560852050781250e+01) (14, -5.41764717102050781250e+01) (15, -2.51979994773864746094e+00) (16, -1.39265167713165283203e+00) (17, -8.70683574676513671875e+00) (18, -2.43445485830307006836e-01) (19, 1.50000000000000000000e+03) (20, -5.92945992946624755859e-01) (21, -7.80127584934234619141e-01) (22, 6.94988632202148437500e+00) (23, -2.58985948562622070312e+00) (24, 1.50000000000000000000e+03) (25, 1.50000000000000000000e+03) (26, -1.55627202987670898438e+00) (27, -8.46409797668457031250e+00) (28, -1.50000000000000000000e+03) (29, 1.24011211395263671875e+01) (30, -3.40725822448730468750e+01) (31, 1.07580888271331787109e+00) (32, 2.82521438598632812500e+01) (33, 8.15218257904052734375e+00) (34, 6.00652351379394531250e+01) (35, 1.44710409641265869141e+00) (36, 5.10826539993286132812e+00) (37, -2.09224700927734375000e+00) (0, 7.28161697387695312500e+01) (1, 2.47426528930664062500e+01) (2, 6.67883634567260742188e+00) (3, 3.27642107009887695312e+00) (4, -1.84361286163330078125e+01) (5, -1.82022457122802734375e+01) (6, 1.74712314605712890625e+01) (7, 8.64397811889648437500e+00) (8, 8.93302536010742187500e+00) (9, -1.50000000000000000000e+03) (10, 1.50000000000000000000e+03) (11, -2.44392578125000000000e+02) (12, -1.50172195434570312500e+02) (13, 1.50000000000000000000e+03) (14, 1.50887644290924072266e+00) (15, 8.15983340144157409668e-02) (16, 2.12130999565124511719e+00) (17, -1.43199014663696289062e+01) (18, -6.62022933959960937500e+01) (19, 1.50000000000000000000e+03) (20, 1.37882785797119140625e+01) (21, 1.50000000000000000000e+03) (22, 4.89987449645996093750e+01) (23, 2.16271648406982421875e+01) (24, 1.50000000000000000000e+03) (25, 1.50000000000000000000e+03) (26, 1.83464889526367187500e+01) (27, 1.65333786010742187500e+01) (28, 6.58643674850463867188e+00) (29, -7.04578475952148437500e+01) (30, -1.20392999649047851562e+01) (31, 9.87876415252685546875e+00) (32, -2.24598808288574218750e+01) (33, 8.76085472106933593750e+00) (34, -6.77276706695556640625e+00) (35, -1.74559330940246582031e+00) (36, -7.41033315658569335938e+00) (37, 1.27798867225646972656e+00) (0, -5.25155735015869140625e+00) (1, 2.11382179260253906250e+01) (2, -4.88699674606323242188e-01) (3, 2.15514874458312988281e+00) (4, -1.58819189071655273438e+01) (5, -2.70982670783996582031e+00) (6, -2.53082537651062011719e+00) (7, 6.93765804171562194824e-02) (8, 2.11952543258666992188e+00) (9, -1.50000000000000000000e+03) (10, 3.37629661560058593750e+01) (11, -1.50000000000000000000e+03) (12, -1.50220565795898437500e+02) (13, 6.04480895996093750000e+01) (14, 7.91586923599243164062e+00) (15, -4.12899303436279296875e+00) (16, 1.42727941274642944336e-01) (17, -2.99904441833496093750e+00) (18, 6.56724870204925537109e-01) (19, 1.50000000000000000000e+03) (20, -8.85269546508789062500e+00) (21, 2.16181826591491699219e+00) (22, 5.24766445159912109375e+00) (23, 1.77205276489257812500e+00) (24, 1.50000000000000000000e+03) (25, 1.50000000000000000000e+03) (26, 2.96867251396179199219e+00) (27, -4.17083740234375000000e+00) (28, -2.71904850006103515625e+00) (29, -1.50000000000000000000e+03) (30, -5.13328647613525390625e+00) (31, -7.53506720066070556641e-01) (32, -5.29574537277221679688e+00) (33, -3.10396981239318847656e+00) (34, -3.73215246200561523438e+00) (35, 1.39983355998992919922e+00) (36, 2.18858289718627929688e+00) (37, 1.76199048757553100586e-01) (0, -3.66467170715332031250e+01) (1, -1.50000000000000000000e+03) (2, -8.68050479888916015625e+00) (3, 4.33438491821289062500e+00) (4, -8.79002571105957031250e+00) (5, -1.22497045993804931641e+00) (6, -2.21660213470458984375e+01) (7, 1.51851034164428710938e+00) (8, 6.95853195190429687500e+01) (9, -1.50000000000000000000e+03) (10, 4.66229217529296875000e+02) (11, -3.25954620361328125000e+02) (12, -1.50194992065429687500e+02) (13, 1.82162002563476562500e+02) (14, -4.05196456909179687500e+01) (15, 1.96803073883056640625e+01) (16, 8.51440620422363281250e+00) (17, 1.13009285926818847656e+00) (18, -4.94694366455078125000e+01) (19, 1.50000000000000000000e+03) (20, -6.60375738143920898438e+00) (21, -1.50528306961059570312e+01) (22, -9.49985580444335937500e+01) (23, -4.10541763305664062500e+01) (24, 1.50000000000000000000e+03) (25, 1.50000000000000000000e+03) (26, 3.76633644104003906250e+00) (27, 1.19398841857910156250e+01) (28, -1.97681295871734619141e+00) (29, -4.55564231872558593750e+01) (30, 1.97572154998779296875e+01) (31, 1.73841495513916015625e+01) (32, 6.03528327941894531250e+01) (33, -1.27549028396606445312e+01) (34, -1.82630100250244140625e+01) (35, -1.03497066497802734375e+01) (36, 2.36455516815185546875e+01) (37, 6.49587154388427734375e+00) (0, 2.92135753631591796875e+01) (1, -1.49573516845703125000e+01) (2, -1.66908609867095947266e+00) (3, 8.79417240619659423828e-01) (4, -1.04518260955810546875e+01) (5, 9.30443644523620605469e-01) (6, -1.87744176387786865234e+00) (7, 4.25384283065795898438e+00) (8, -2.96895847320556640625e+01) (9, -5.33090858459472656250e+01) (10, 1.50000000000000000000e+03) (11, -1.50000000000000000000e+03) (12, -1.50242660522460937500e+02) (13, 1.50000000000000000000e+03) (14, -2.29181804656982421875e+01) (15, -1.11658143997192382812e+01) (16, 3.75904035568237304688e+00) (17, 6.74720907211303710938e+00) (18, 9.61283683776855468750e+00) (19, 1.50000000000000000000e+03) (20, -1.43832236528396606445e-01) (21, 2.82564312219619750977e-01) (22, 9.77858638763427734375e+00) (23, -2.31695842742919921875e+01) (24, 1.50000000000000000000e+03) (25, 1.50000000000000000000e+03) (26, 8.47630405426025390625e+00) (27, 2.17002563476562500000e+01) (28, 1.65046253204345703125e+01) (29, 3.62896499633789062500e+01) (30, -7.00075960159301757812e+00) (31, -2.44038534164428710938e+00) (32, -2.21100921630859375000e+01) (33, -1.35784816741943359375e+01) (34, -9.70256195068359375000e+01) (35, 9.13551628589630126953e-01) (36, -2.51970005035400390625e+00) (37, 2.36970353126525878906e+00) (0, -2.09804553985595703125e+01) (1, 8.19189224243164062500e+01) (2, 8.98234307765960693359e-01) (3, 3.15253078937530517578e-01) (4, 6.44227409362792968750e+00) (5, 4.29775142669677734375e+00) (6, 1.08597269058227539062e+01) (7, -4.09443664550781250000e+00) (8, -1.03772497177124023438e+01) (9, 7.16532714843750000000e+02) (10, -1.00634094238281250000e+02) (11, 6.28785095214843750000e+02) (12, -1.50307968139648437500e+02) (13, 1.81104263305664062500e+02) (14, 2.08384246826171875000e+01) (15, 1.24851713180541992188e+01) (16, 7.66153454780578613281e-01) (17, -1.89263927936553955078e+00) (18, 3.04621553421020507812e+00) (19, 1.50000000000000000000e+03) (20, -1.09085726737976074219e+00) (21, 8.58667269349098205566e-02) (22, -3.60764765739440917969e+00) (23, 4.10651063919067382812e+00) (24, 1.50000000000000000000e+03) (25, 1.50000000000000000000e+03) (26, -1.55006504058837890625e+00) (27, -3.02341246604919433594e+00) (28, -4.01428677141666412354e-02) (29, 2.37634971737861633301e-01) (30, -8.44961032271385192871e-02) (31, 1.10645532608032226562e+00) (32, -1.50000000000000000000e+03) (33, 2.79188603162765502930e-01) (34, 4.54532051086425781250e+00) (35, -1.21193177998065948486e-01) (36, 3.43270683288574218750e+00) (37, -1.12072300910949707031e+00) (0, 8.00271701812744140625e+00) (1, -1.29299917221069335938e+01) (2, -9.97008264064788818359e-01) (3, -1.06117987632751464844e+00) (4, 5.98510322570800781250e+01) (5, 1.48179721832275390625e+00) (6, 7.48888063430786132812e+00) (7, 3.01694011688232421875e+00) (8, 2.30698394775390625000e+00) (9, -1.49968701171875000000e+03) (10, 1.50000000000000000000e+03) (11, -1.50000000000000000000e+03) (12, -1.50315689086914062500e+02) (13, 1.50000000000000000000e+03) (14, -4.27723455429077148438e+00) (15, 8.59890460968017578125e+00) (16, -6.74776375293731689453e-01) (17, 6.73202991485595703125e+00) (18, 1.17935502529144287109e+00) (19, 1.50000000000000000000e+03) (20, 3.20705947875976562500e+01) (21, -1.39523386955261230469e+00) (22, 2.56458396911621093750e+01) (23, 3.12068386077880859375e+01) (24, 1.50000000000000000000e+03) (25, 1.50000000000000000000e+03) (26, -1.26744031906127929688e+01) (27, 1.50000000000000000000e+03) (28, 2.49287776947021484375e+01) (29, -8.32882595062255859375e+00) (30, -2.15459918975830078125e+00) (31, -8.88731861114501953125e+00) (32, -3.51728248596191406250e+01) (33, 2.01083588600158691406e+00) (34, 8.57249319553375244141e-01) (35, 1.22637045383453369141e+00) (36, -5.22084569931030273438e+00) (37, -8.78058433532714843750e-01) (0, -1.50000000000000000000e+03) (1, -1.05992019653320312500e+02) (2, -2.94064784049987792969e+00) (3, 9.16866111755371093750e+00) (4, -1.07176284790039062500e+01) (5, 1.29821796417236328125e+01) (6, -5.60635223388671875000e+01) (7, 4.44176177978515625000e+01) (8, 7.06114959716796875000e+01) (9, -1.50000000000000000000e+03) (10, 1.50000000000000000000e+03) (11, 1.50000000000000000000e+03) (12, -1.50182113647460937500e+02) (13, 1.62766586303710937500e+02) (14, 1.50000000000000000000e+03) (15, -1.76971054077148437500e+01) (16, -2.23794116973876953125e+01) (17, 7.13301544189453125000e+01) (18, -6.37893981933593750000e+02) (19, 1.50000000000000000000e+03) (20, -3.67950363159179687500e+01) (21, 1.83036136627197265625e+01) (22, 3.15714244842529296875e+01) (23, 1.97691669464111328125e+01) (24, 1.50000000000000000000e+03) (25, 1.50000000000000000000e+03) (26, 3.83005261421203613281e+00) (27, -2.46086430549621582031e+00) (28, 2.00950946807861328125e+01) (29, 2.31346282958984375000e+01) (30, 3.33005523681640625000e+00) (31, 4.76503801345825195312e+00) (32, -1.86704671382904052734e+00) (33, 2.47117443084716796875e+01) (34, -1.68662869930267333984e+00) (35, 3.96687736511230468750e+01) (36, -2.77932554483413696289e-01) (37, 1.21820819377899169922e+00) (0, 1.46212968826293945312e+01) (1, -3.09812850952148437500e+01) (2, 2.46224179863929748535e-01) (3, -1.05741953849792480469e+00) (4, -1.64759755134582519531e+00) (5, -5.75684452056884765625e+00) (6, 2.02935481071472167969e+00) (7, 2.34478735923767089844e+00) (8, 2.65601992607116699219e+00) (9, -2.22000236511230468750e+01) (10, -4.96438026428222656250e+01) (11, 2.13647552490234375000e+02) (12, -1.50332199096679687500e+02) (13, 3.43043594360351562500e+01) (14, 1.39715921878814697266e+00) (15, -2.24112367630004882812e+00) (16, 1.96818396449089050293e-01) (17, 5.42343914508819580078e-01) (18, 1.14631676673889160156e+00) (19, 1.50000000000000000000e+03) (20, 4.89410877227783203125e-01) (21, -1.25155007839202880859e+00) (22, 8.90492439270019531250e-01) (23, -2.24536538124084472656e+00) (24, 1.50000000000000000000e+03) (25, 1.50000000000000000000e+03) (26, 3.30323719978332519531e+00) (27, 2.08176881074905395508e-01) (28, -8.91016781330108642578e-01) (29, 6.30751430988311767578e-01) (30, 5.20116615295410156250e+00) (31, -2.16136312484741210938e+00) (32, 1.06808004379272460938e+01) (33, 1.42289209365844726562e+00) (34, 8.61121082305908203125e+00) (35, 5.33537209033966064453e-01) (36, 3.88422703742980957031e+00) (37, -1.17998051643371582031e+00) (0, -1.04216651916503906250e+02) (1, 2.64385814666748046875e+01) (2, -2.34643220901489257812e+00) (3, 4.97618341445922851562e+00) (4, -2.74561481475830078125e+01) (5, 1.82857799530029296875e+01) (6, 1.82425289154052734375e+01) (7, -2.83973860740661621094e+00) (8, 1.27962245941162109375e+01) (9, -1.50000000000000000000e+03) (10, 1.50000000000000000000e+03) (11, -1.50000000000000000000e+03) (12, -1.50220932006835937500e+02) (13, 6.66454010009765625000e+01) (14, 1.50000000000000000000e+03) (15, -9.52752232551574707031e-01) (16, -5.89371204376220703125e-01) (17, 7.50532388687133789062e+00) (18, -1.32856101989746093750e+01) (19, 1.50000000000000000000e+03) (20, -8.99340063333511352539e-02) (21, 6.85532903671264648438e+00) (22, 2.95179319381713867188e+00) (23, 3.69335517883300781250e+01) (24, 1.50000000000000000000e+03) (25, 1.50000000000000000000e+03) (26, -3.80632853507995605469e+00) (27, -1.21111440658569335938e+01) (28, 6.94773406982421875000e+01) (29, -1.50000000000000000000e+03) (30, -2.01723728179931640625e+01) (31, 5.14358673095703125000e+01) (32, -1.96576271057128906250e+01) (33, 1.42308340072631835938e+01) (34, 3.38569793701171875000e+01) (35, -4.61125802993774414062e+00) (36, -7.45163345336914062500e+00) (37, -2.32734537124633789062e+00) (38, 9.24110591411590576172e-01) (39, 8.77062797546386718750e-01) (40, 3.29012250900268554688e+00) (41, 1.09151864051818847656e+00) (42, 8.18823218345642089844e-01) (43, 1.70026493072509765625e+00) (44, 9.20589745044708251953e-01) (45, 9.27339315414428710938e-01) (46, 9.06441152095794677734e-01) (47, 1.07562398910522460938e+00) (48, 1.53219151496887207031e+00) (49, 8.07513773441314697266e-01) (50, 6.44385635852813720703e-01) (51, 9.53568100929260253906e-01) (52, 1.28997659683227539062e+00) (53, 4.32776778936386108398e-01) (54, 1.59971463680267333984e+00) (55, 6.46720826625823974609e-01) (56, -6.31928622722625732422e-01) 
