FANN_FLO_2.1
num_layers=3
learning_rate=0.700000
connection_rate=1.000000
network_type=0
learning_momentum=0.000000
training_algorithm=2
train_error_function=1
train_stop_function=0
cascade_output_change_fraction=0.010000
quickprop_decay=-0.000100
quickprop_mu=1.750000
rprop_increase_factor=1.200000
rprop_decrease_factor=0.500000
rprop_delta_min=0.000000
rprop_delta_max=50.000000
rprop_delta_zero=0.100000
cascade_output_stagnation_epochs=12
cascade_candidate_change_fraction=0.010000
cascade_candidate_stagnation_epochs=12
cascade_max_out_epochs=150
cascade_max_cand_epochs=150
cascade_num_candidate_groups=2
bit_fail_limit=3.49999994039535522461e-01
cascade_candidate_limit=1.00000000000000000000e+03
cascade_weight_multiplier=4.00000005960464477539e-01
cascade_activation_functions_count=10
cascade_activation_functions=3 5 7 8 10 11 14 15 16 17 
cascade_activation_steepnesses_count=4
cascade_activation_steepnesses=2.50000000000000000000e-01 5.00000000000000000000e-01 7.50000000000000000000e-01 1.00000000000000000000e+00 
layer_sizes=38 19 2 
scale_included=0
neurons (num_inputs, activation_function, activation_steepness)=(0, 0, 0.00000000000000000000e+00) (0, 0, 0.00000000000000000000e+00) (0, 0, 0.00000000000000000000e+00) (0, 0, 0.00000000000000000000e+00) (0, 0, 0.00000000000000000000e+00) (0, 0, 0.00000000000000000000e+00) (0, 0, 0.00000000000000000000e+00) (0, 0, 0.00000000000000000000e+00) (0, 0, 0.00000000000000000000e+00) (0, 0, 0.00000000000000000000e+00) (0, 0, 0.00000000000000000000e+00) (0, 0, 0.00000000000000000000e+00) (0, 0, 0.00000000000000000000e+00) (0, 0, 0.00000000000000000000e+00) (0, 0, 0.00000000000000000000e+00) (0, 0, 0.00000000000000000000e+00) (0, 0, 0.00000000000000000000e+00) (0, 0, 0.00000000000000000000e+00) (0, 0, 0.00000000000000000000e+00) (0, 0, 0.00000000000000000000e+00) (0, 0, 0.00000000000000000000e+00) (0, 0, 0.00000000000000000000e+00) (0, 0, 0.00000000000000000000e+00) (0, 0, 0.00000000000000000000e+00) (0, 0, 0.00000000000000000000e+00) (0, 0, 0.00000000000000000000e+00) (0, 0, 0.00000000000000000000e+00) (0, 0, 0.00000000000000000000e+00) (0, 0, 0.00000000000000000000e+00) (0, 0, 0.00000000000000000000e+00) (0, 0, 0.00000000000000000000e+00) (0, 0, 0.00000000000000000000e+00) (0, 0, 0.00000000000000000000e+00) (0, 0, 0.00000000000000000000e+00) (0, 0, 0.00000000000000000000e+00) (0, 0, 0.00000000000000000000e+00) (0, 0, 0.00000000000000000000e+00) (0, 0, 0.00000000000000000000e+00) (38, 5, 5.00000000000000000000e-01) (38, 5, 5.00000000000000000000e-01) (38, 5, 5.00000000000000000000e-01) (38, 5, 5.00000000000000000000e-01) (38, 5, 5.00000000000000000000e-01) (38, 5, 5.00000000000000000000e-01) (38, 5, 5.00000000000000000000e-01) (38, 5, 5.00000000000000000000e-01) (38, 5, 5.00000000000000000000e-01) (38, 5, 5.00000000000000000000e-01) (38, 5, 5.00000000000000000000e-01) (38, 5, 5.00000000000000000000e-01) (38, 5, 5.00000000000000000000e-01) (38, 5, 5.00000000000000000000e-01) (38, 5, 5.00000000000000000000e-01) (38, 5, 5.00000000000000000000e-01) (38, 5, 5.00000000000000000000e-01) (38, 5, 5.00000000000000000000e-01) (0, 5, 0.00000000000000000000e+00) (19, 13, 5.00000000000000000000e-01) (0, 13, 0.00000000000000000000e+00) 
connections (connected_to_neuron, weight)=(0, -3.32923622131347656250e+01) (1, 1.50000000000000000000e+03) (2, 1.72408461570739746094e-01) (3, 1.07019610702991485596e-01) (4, 4.24559020996093750000e+00) (5, -5.11313247680664062500e+00) (6, 4.07294273376464843750e+00) (7, 1.86623084545135498047e+00) (8, 1.67704629898071289062e+00) (9, 1.29482971191406250000e+02) (10, 1.50000000000000000000e+03) (11, 3.31807632446289062500e+01) (12, 5.09837799072265625000e+02) (13, 6.44714403152465820312e+00) (14, 4.56865739822387695312e+00) (15, 7.59081482887268066406e-01) (16, 5.40880620479583740234e-01) (17, -1.59094858169555664062e+00) (18, 2.40990042686462402344e-01) (19, -6.71609938144683837891e-01) (20, 1.36869168281555175781e+00) (21, 4.41191703081130981445e-01) (22, 2.71752738952636718750e+00) (23, 1.95763540267944335938e+00) (24, 1.50000000000000000000e+03) (25, 1.50000000000000000000e+03) (26, 9.14592742919921875000e-02) (27, 1.50000000000000000000e+03) (28, 5.21291494369506835938e-02) (29, 1.50000000000000000000e+03) (30, -8.54132652282714843750e-01) (31, 9.74608719348907470703e-01) (32, 1.50000000000000000000e+03) (33, -2.26215100288391113281e+00) (34, -6.12034440040588378906e-01) (35, 8.57398137450218200684e-02) (36, 2.62698560953140258789e-01) (37, 7.32444643974304199219e-01) (0, 3.40926551818847656250e+00) (1, -2.69472694396972656250e+00) (2, 7.53994226455688476562e-01) (3, 1.03579199314117431641e+00) (4, -1.55018520355224609375e+00) (5, -9.00585711002349853516e-01) (6, 5.89492988586425781250e+00) (7, 1.14548094570636749268e-01) (8, -3.10919475555419921875e+00) (9, 2.97687072753906250000e+02) (10, -6.19809265136718750000e+02) (11, 1.50000000000000000000e+03) (12, -3.66249328613281250000e+02) (13, 2.16831741333007812500e+01) (14, 4.99432086944580078125e+00) (15, -2.13412928581237792969e+00) (16, -7.99081802368164062500e-01) (17, -3.91269862651824951172e-01) (18, 7.96143949031829833984e-01) (19, 2.49428701400756835938e+00) (20, -1.44688653945922851562e+00) (21, 4.89060223102569580078e-01) (22, -1.03979086875915527344e+00) (23, -1.99103224277496337891e+00) (24, 1.50000000000000000000e+03) (25, 1.50000000000000000000e+03) (26, 9.59605991840362548828e-01) (27, -1.87820374965667724609e+00) (28, -7.24182510375976562500e+00) (29, -7.52437667846679687500e+01) (30, -1.27139285206794738770e-01) (31, -2.39268326759338378906e+00) (32, 7.45584182739257812500e+01) (33, -7.64787852764129638672e-01) (34, 4.95666414499282836914e-01) (35, 7.74893760681152343750e-01) (36, 1.22458434104919433594e+00) (37, -2.91654784232378005981e-02) (0, -1.48133764648437500000e+03) (1, -8.20886657714843750000e+02) (2, -1.99363410472869873047e+00) (3, 2.27529954910278320312e+00) (4, -1.35884273052215576172e+00) (5, -4.24340438842773437500e+00) (6, -7.68622016906738281250e+00) (7, 5.03912866115570068359e-01) (8, -1.81557810306549072266e+00) (9, -1.50000000000000000000e+03) (10, 1.50000000000000000000e+03) (11, -4.53488883972167968750e+01) (12, 2.35869018554687500000e+02) (13, -1.50713090896606445312e+01) (14, -4.94547805786132812500e+01) (15, 3.14077019691467285156e-01) (16, -3.21574330329895019531e+00) (17, 1.20331893920898437500e+02) (18, -4.36126365661621093750e+01) (19, 1.07710189819335937500e+02) (20, -1.12366449832916259766e+00) (21, 4.37937450408935546875e+00) (22, 6.10810611397027969360e-03) (23, 1.28085410594940185547e+00) (24, 1.50000000000000000000e+03) (25, 1.50000000000000000000e+03) (26, -6.50096416473388671875e-01) (27, -6.43717861175537109375e+00) (28, -3.50695624947547912598e-02) (29, 2.44894313812255859375e+00) (30, 3.41198062896728515625e+00) (31, 3.47692060470581054688e+00) (32, 1.32045078277587890625e+01) (33, 8.11573219299316406250e+00) (34, 8.87477588653564453125e+00) (35, 5.20981669425964355469e-01) (36, 8.57573413848876953125e+00) (37, 7.12415575981140136719e-01) (0, 2.83597564697265625000e+00) (1, 1.71327857971191406250e+01) (2, -5.47923326492309570312e-01) (3, 1.73983001708984375000e+00) (4, 2.81592226028442382812e+00) (5, 6.32179450988769531250e+00) (6, 8.52397620677947998047e-01) (7, -6.77047312259674072266e-01) (8, -1.50334978103637695312e+00) (9, -2.45263488769531250000e+02) (10, -1.50000000000000000000e+03) (11, 1.50000000000000000000e+03) (12, 4.00610656738281250000e+01) (13, -9.59410552978515625000e+01) (14, -3.52980136871337890625e+00) (15, -2.67462062835693359375e+00) (16, -1.68227541446685791016e+00) (17, 2.15916085243225097656e+00) (18, 5.07665491104125976562e+00) (19, 6.18142652511596679688e+00) (20, 2.45565459132194519043e-01) (21, -7.01786339282989501953e-01) (22, -5.99499642848968505859e-01) (23, -5.22811293601989746094e-01) (24, 1.50000000000000000000e+03) (25, 1.50000000000000000000e+03) (26, -3.94144511222839355469e+00) (27, 1.58171069622039794922e+00) (28, -1.38437581062316894531e+00) (29, -4.59272336959838867188e+00) (30, -2.53125429153442382812e+00) (31, 1.50000000000000000000e+03) (32, 2.11549925804138183594e+00) (33, 1.32680881023406982422e+00) (34, -2.62278819084167480469e+00) (35, 3.32991749048233032227e-01) (36, -1.30751037597656250000e+00) (37, -3.21711242198944091797e-01) (0, 6.75812053680419921875e+00) (1, 9.33982849121093750000e+00) (2, 3.53340297937393188477e-01) (3, 4.15641695261001586914e-01) (4, -1.82280743122100830078e+00) (5, -1.38684761524200439453e+00) (6, -7.96208620071411132812e+00) (7, -1.07430323958396911621e-01) (8, 5.01517236232757568359e-01) (9, -1.50000000000000000000e+03) (10, 4.16941871643066406250e+01) (11, -1.15526425838470458984e+00) (12, 1.17529747009277343750e+02) (13, 9.49873046875000000000e+01) (14, -2.31171846389770507812e+00) (15, -9.06229078769683837891e-01) (16, 1.15358924865722656250e+00) (17, -5.76355981826782226562e+00) (18, -1.17068042755126953125e+01) (19, 9.51055717468261718750e+00) (20, -5.86141443252563476562e+00) (21, 1.82061624526977539062e+00) (22, -1.39921411871910095215e-01) (23, 1.58026838302612304688e+00) (24, 1.50000000000000000000e+03) (25, 1.50000000000000000000e+03) (26, 8.68679523468017578125e-01) (27, -3.34527063369750976562e+00) (28, 2.98205375671386718750e+00) (29, 2.50186890363693237305e-01) (30, 7.99201965332031250000e-01) (31, -1.15140032768249511719e+00) (32, 1.26861214637756347656e+00) (33, -1.97855496406555175781e+00) (34, -2.21937489509582519531e+00) (35, 1.40689325332641601562e+00) (36, 1.54992771148681640625e+00) (37, 2.73419708013534545898e-01) (0, -3.92684960365295410156e+00) (1, 3.29592490196228027344e+00) (2, 4.18319493532180786133e-01) (3, -1.11469411849975585938e+00) (4, 1.06970584392547607422e+00) (5, -6.23972713947296142578e-01) (6, 1.48639023303985595703e+00) (7, 8.24162662029266357422e-01) (8, 4.76158666610717773438e+00) (9, -6.24054260253906250000e+01) (10, -6.59889526367187500000e+01) (11, -4.30914649963378906250e+01) (12, 3.54919204711914062500e+01) (13, -4.50822448730468750000e+01) (14, 1.31345806121826171875e+01) (15, -4.27738316357135772705e-02) (16, 8.42091202735900878906e-01) (17, 7.26310238242149353027e-02) (18, 5.03148078918457031250e-01) (19, -8.77377033233642578125e-01) (20, 3.70341598987579345703e-01) (21, -4.17814880609512329102e-01) (22, 1.41112655401229858398e-01) (23, 2.59398627281188964844e+00) (24, 1.50000000000000000000e+03) (25, 1.50000000000000000000e+03) (26, -1.67915892601013183594e+00) (27, 1.65167617797851562500e+00) (28, 3.03832828998565673828e-01) (29, -2.09433674812316894531e+00) (30, -6.76248610019683837891e-01) (31, 1.51814305782318115234e+00) (32, -1.18872404098510742188e+01) (33, -4.22064155340194702148e-01) (34, 1.97835302352905273438e+00) (35, -1.59641182422637939453e+00) (36, -1.00851237773895263672e+00) (37, 8.31064403057098388672e-01) (0, -1.10117664337158203125e+01) (1, 6.49810552597045898438e+00) (2, 2.24632668495178222656e+00) (3, 6.53104066848754882812e-01) (4, 9.85385119915008544922e-01) (5, -6.41633415222167968750e+00) (6, -1.74977087974548339844e+00) (7, -2.10817027091979980469e+00) (8, -3.72907638549804687500e+00) (9, -1.87193241119384765625e+01) (10, 7.71911849975585937500e+01) (11, 8.39769287109375000000e+02) (12, 2.72066436767578125000e+02) (13, 2.13018250465393066406e+00) (14, -5.98512458801269531250e+01) (15, -1.02856919169425964355e-01) (16, 5.96620321273803710938e-01) (17, -1.95285570621490478516e+00) (18, 3.92174935340881347656e+00) (19, -6.63554906845092773438e+00) (20, 8.04024159908294677734e-01) (21, -1.64622211456298828125e+00) (22, 2.46772821992635726929e-02) (23, -6.11710548400878906250e-01) (24, 1.50000000000000000000e+03) (25, 1.50000000000000000000e+03) (26, 1.10719928741455078125e+01) (27, -7.02642440795898437500e-01) (28, -1.25169157981872558594e+00) (29, 1.50000000000000000000e+03) (30, 4.27251148223876953125e+00) (31, 2.85230960845947265625e+01) (32, 1.50000000000000000000e+03) (33, 5.23961901664733886719e-01) (34, -3.26906800270080566406e+00) (35, 7.61167716979980468750e+00) (36, -2.71078795194625854492e-01) (37, 9.48162794113159179688e-01) (0, 1.45204079151153564453e+00) (1, 9.92880630493164062500e+01) (2, 6.67561650276184082031e-01) (3, -2.58538872003555297852e-01) (4, 6.37629890441894531250e+00) (5, -7.56333231925964355469e-01) (6, 9.58046615123748779297e-01) (7, 1.41940206289291381836e-01) (8, 6.37048196792602539062e+00) (9, 2.50590866088867187500e+02) (10, 1.50000000000000000000e+03) (11, 1.50000000000000000000e+03) (12, 1.77583465576171875000e+02) (13, 1.01880310058593750000e+02) (14, 2.89315533638000488281e+00) (15, -1.32073664665222167969e+00) (16, -7.96479880809783935547e-01) (17, 4.96604263782501220703e-01) (18, 1.61578738689422607422e+00) (19, 1.26738238334655761719e+00) (20, 4.91432219743728637695e-01) (21, -1.36068487167358398438e+00) (22, 1.78406822681427001953e+00) (23, 8.79082560539245605469e-01) (24, 1.50000000000000000000e+03) (25, 1.50000000000000000000e+03) (26, -1.79447495937347412109e+00) (27, -8.10009539127349853516e-02) (28, -2.40330386161804199219e+00) (29, 1.01105058193206787109e+00) (30, -1.66872978210449218750e+00) (31, 1.02053225040435791016e+00) (32, 1.62675929069519042969e+00) (33, -4.24863696098327636719e-01) (34, -6.63655877113342285156e-01) (35, 1.93186974525451660156e+00) (36, -2.25120115280151367188e+00) (37, -1.04360021650791168213e-01) (0, -3.28906974792480468750e+01) (1, -2.72745265960693359375e+01) (2, 3.20901751518249511719e+00) (3, -1.54269859194755554199e-01) (4, 1.37719964981079101562e+01) (5, 4.62909907102584838867e-01) (6, -4.58860337734222412109e-01) (7, -3.65072512626647949219e+00) (8, -8.56266498565673828125e+00) (9, -1.50000000000000000000e+03) (10, -3.09015228271484375000e+02) (11, -9.76970825195312500000e+02) (12, 6.43345413208007812500e+01) (13, -8.25471115112304687500e+01) (14, 1.50000000000000000000e+03) (15, 7.69823837280273437500e+00) (16, 4.42672729492187500000e+00) (17, -6.18028926849365234375e+00) (18, -3.06498312950134277344e+00) (19, 3.68201370239257812500e+01) (20, -1.75495970249176025391e+00) (21, -1.12387073040008544922e+00) (22, 8.54932117462158203125e+00) (23, 1.47374315261840820312e+01) (24, 1.50000000000000000000e+03) (25, 1.50000000000000000000e+03) (26, -6.92901563644409179688e+00) (27, -2.07387866973876953125e+01) (28, 3.70567131042480468750e+01) (29, 5.02315177917480468750e+01) (30, -7.95751523971557617188e+00) (31, 2.55669188499450683594e+00) (32, -9.82739830017089843750e+00) (33, -7.88748884201049804688e+00) (34, 3.96605377197265625000e+01) (35, -5.85202121734619140625e+00) (36, 1.11388759613037109375e+01) (37, -1.03487253189086914062e+00) (0, -3.19551229476928710938e+00) (1, -1.75461616516113281250e+01) (2, -3.53028953075408935547e-01) (3, 1.97830736637115478516e-01) (4, -1.96240651607513427734e+00) (5, 7.35940408706665039062e+00) (6, 2.91609454154968261719e+00) (7, -5.78941047191619873047e-01) (8, 1.84128704071044921875e+01) (9, 6.77348510742187500000e+02) (10, 4.18716659545898437500e+01) (11, 4.47498138427734375000e+02) (12, 4.90504684448242187500e+01) (13, -2.78069934844970703125e+01) (14, -5.27784287929534912109e-01) (15, 1.16145095825195312500e+01) (16, 1.22763264179229736328e+00) (17, -2.62604284286499023438e+00) (18, -2.76279926300048828125e+00) (19, 2.05649971961975097656e+00) (20, 1.54070532321929931641e+00) (21, -1.27183079719543457031e+00) (22, 1.23095273971557617188e+00) (23, 1.30140078067779541016e+00) (24, 1.50000000000000000000e+03) (25, 1.50000000000000000000e+03) (26, 2.34820866584777832031e+00) (27, -2.19134222716093063354e-02) (28, 1.59824931621551513672e+00) (29, -4.68164873123168945312e+00) (30, 1.32422351837158203125e+00) (31, 3.25376415252685546875e+00) (32, 4.24763947725296020508e-01) (33, -6.62995338439941406250e-01) (34, 2.75270175933837890625e+00) (35, -9.75842285156250000000e+00) (36, 8.63066971302032470703e-01) (37, 2.20534873008728027344e+00) (0, 2.01117849349975585938e+00) (1, -2.54419636726379394531e+00) (2, -1.11484837532043457031e+00) (3, 6.26385629177093505859e-01) (4, -1.04892551898956298828e+00) (5, 1.58242535591125488281e+00) (6, 5.86253547668457031250e+00) (7, -1.21693992614746093750e+00) (8, -5.48516941070556640625e+00) (9, -8.27076965332031250000e+02) (10, 1.50000000000000000000e+03) (11, 3.13231124877929687500e+01) (12, -5.79872070312500000000e+02) (13, 8.74203720092773437500e+01) (14, -1.40608263015747070312e+01) (15, 3.16455006599426269531e+00) (16, 8.32890748977661132812e-01) (17, 6.47850513458251953125e-01) (18, -9.82128262519836425781e-01) (19, -3.32635593414306640625e+00) (20, 3.65662962198257446289e-01) (21, -2.55989789962768554688e-01) (22, 9.29257202148437500000e+00) (23, -1.92467093467712402344e+00) (24, 1.50000000000000000000e+03) (25, 1.50000000000000000000e+03) (26, -2.79470419883728027344e+00) (27, -7.62749612331390380859e-01) (28, 8.08042943477630615234e-01) (29, 1.50000000000000000000e+03) (30, -3.15913110971450805664e-01) (31, -4.92985785007476806641e-01) (32, 1.83595216274261474609e+00) (33, 5.44989645481109619141e-01) (34, -1.37836103439331054688e+01) (35, -1.28983870148658752441e-01) (36, 1.15138363838195800781e+00) (37, 1.01450696587562561035e-01) (0, 1.96969032287597656250e+01) (1, -1.33763580322265625000e+01) (2, -1.25053870677947998047e+00) (3, 8.13232004642486572266e-01) (4, -2.75891876220703125000e+00) (5, 1.86832678318023681641e+00) (6, -2.70737361907958984375e+01) (7, 7.60277569293975830078e-01) (8, 1.04465150833129882812e+01) (9, 1.00179907226562500000e+03) (10, 1.50000000000000000000e+03) (11, 1.50000000000000000000e+03) (12, 2.89585227966308593750e+01) (13, -4.78087738037109375000e+02) (14, 2.15768146514892578125e+01) (15, -9.17934417724609375000e+00) (16, 3.01428222656250000000e+00) (17, 7.49203145503997802734e-01) (18, -5.05111122131347656250e+00) (19, 7.03828632831573486328e-01) (20, -6.64629101753234863281e-01) (21, 4.66866731643676757812e+00) (22, -1.30507135391235351562e+01) (23, -1.62933623790740966797e+00) (24, 1.50000000000000000000e+03) (25, 1.50000000000000000000e+03) (26, -1.92677593231201171875e+00) (27, -1.65450668334960937500e+00) (28, 1.15104131698608398438e+01) (29, -7.06052350997924804688e+00) (30, 1.16892385482788085938e+01) (31, 1.50000000000000000000e+03) (32, -2.34993572235107421875e+01) (33, -1.92268416285514831543e-02) (34, -7.45587158203125000000e+00) (35, -1.12160134315490722656e+00) (36, 1.84504699707031250000e+00) (37, 2.76760995388031005859e-01) (0, -9.86229515075683593750e+00) (1, -3.86801223754882812500e+01) (2, -2.46302321553230285645e-01) (3, -6.73295915126800537109e-01) (4, -1.15173292160034179688e+01) (5, -2.45913839340209960938e+00) (6, -7.99391925334930419922e-01) (7, -3.39535474777221679688e-01) (8, -8.52574288845062255859e-01) (9, 5.66891326904296875000e+01) (10, 6.42232835292816162109e-01) (11, -6.42929611206054687500e+01) (12, 3.96161529541015625000e+02) (13, 4.55713701248168945312e+00) (14, 2.79930979013442993164e-01) (15, 2.00686526298522949219e+00) (16, 2.34249129891395568848e-01) (17, 6.19413077831268310547e-01) (18, -3.41111683845520019531e+00) (19, 8.13453769683837890625e+00) (20, -7.96025276184082031250e-01) (21, 1.45576250553131103516e+00) (22, 7.13049829006195068359e-01) (23, 1.20313370227813720703e+00) (24, 1.50000000000000000000e+03) (25, 1.50000000000000000000e+03) (26, 2.63387966156005859375e+00) (27, 3.67280334234237670898e-01) (28, 7.76034593582153320312e-01) (29, 1.53515681624412536621e-01) (30, 1.87730288505554199219e+00) (31, -6.26364827156066894531e-01) (32, -3.69607758522033691406e+00) (33, -2.76255875825881958008e-01) (34, 9.38671886920928955078e-01) (35, 4.19562816619873046875e-01) (36, 1.78613924980163574219e+00) (37, 4.15403872728347778320e-01) (0, 8.33742809295654296875e+00) (1, 3.32746162414550781250e+01) (2, 9.37029004096984863281e-01) (3, 1.44788539409637451172e+00) (4, 1.05553359985351562500e+01) (5, -1.50529181957244873047e+00) (6, 4.72862243652343750000e+01) (7, -3.11443477869033813477e-01) (8, -9.05067846179008483887e-03) (9, -3.56689147949218750000e+02) (10, -1.36640075683593750000e+02) (11, 6.19859313964843750000e+02) (12, -1.17525032043457031250e+02) (13, 2.67968273162841796875e+00) (14, 1.97486007213592529297e+00) (15, 1.39359970092773437500e+01) (16, 1.84249266982078552246e-01) (17, -3.23636698722839355469e+00) (18, 5.72102606296539306641e-01) (19, 1.95176136493682861328e+00) (20, -1.17245173454284667969e+00) (21, -2.91710042953491210938e+00) (22, -6.22799158096313476562e+00) (23, -1.60407078266143798828e+00) (24, 1.50000000000000000000e+03) (25, 1.50000000000000000000e+03) (26, -1.24599969387054443359e+00) (27, 3.22002696990966796875e+00) (28, 3.15649318695068359375e+00) (29, -2.08239669799804687500e+01) (30, -1.11515605449676513672e+00) (31, 1.28729328513145446777e-01) (32, -4.71168279647827148438e+00) (33, -2.63665628433227539062e+00) (34, -3.62530469894409179688e+00) (35, 3.43797373771667480469e+00) (36, 2.08282089233398437500e+00) (37, 8.21807146072387695312e-01) (0, 8.81496524810791015625e+00) (1, -6.23614311218261718750e+00) (2, 1.02406704425811767578e+00) (3, 6.85839913785457611084e-03) (4, -3.39257073402404785156e+00) (5, -1.42049717903137207031e+00) (6, -4.66181427240371704102e-01) (7, 4.35210883617401123047e-01) (8, -2.25814163684844970703e-01) (9, 8.05843811035156250000e+02) (10, 1.50000000000000000000e+03) (11, -1.50000000000000000000e+03) (12, 5.03175888061523437500e+01) (13, 3.12045989990234375000e+02) (14, 2.94234418869018554688e+00) (15, -6.04633331298828125000e-01) (16, 5.40719255805015563965e-02) (17, 9.47969913482666015625e-01) (18, -1.93053837865591049194e-02) (19, -2.45001292228698730469e+00) (20, 9.83589515089988708496e-02) (21, 1.29307806491851806641e+00) (22, -4.04685926437377929688e+00) (23, 3.21523308753967285156e+00) (24, 1.50000000000000000000e+03) (25, 1.50000000000000000000e+03) (26, 1.97015631198883056641e+00) (27, 1.99494576454162597656e+00) (28, -4.24665594100952148438e+00) (29, 4.99529027938842773438e+00) (30, 3.98199820518493652344e+00) (31, -5.38546562194824218750e+00) (32, -5.39434146881103515625e+00) (33, 6.68517768383026123047e-01) (34, 9.10918903350830078125e+00) (35, -2.45559453964233398438e+00) (36, 7.13237810134887695312e+00) (37, -1.91799119114875793457e-01) (0, -2.39650802612304687500e+01) (1, 4.42640037536621093750e+01) (2, -2.59950852394104003906e+00) (3, 3.88777112960815429688e+00) (4, 4.32159662246704101562e+00) (5, -5.41242790222167968750e+00) (6, -8.67006301879882812500e+00) (7, -7.24070167541503906250e+00) (8, 8.12829399108886718750e+00) (9, 2.24948745727539062500e+02) (10, 5.53844787597656250000e+02) (11, 2.51887035369873046875e+01) (12, 7.13898559570312500000e+02) (13, -3.13862667083740234375e+01) (14, 1.50000000000000000000e+03) (15, 4.59528312683105468750e+01) (16, 4.72849225997924804688e+00) (17, -1.37926733493804931641e+00) (18, -1.77768383026123046875e+01) (19, 2.56818461418151855469e+00) (20, 6.34403991699218750000e+00) (21, 2.02815794944763183594e+00) (22, -1.02986013889312744141e+00) (23, 9.43677806854248046875e+00) (24, 1.50000000000000000000e+03) (25, 1.50000000000000000000e+03) (26, -6.07330703735351562500e+00) (27, -8.46276664733886718750e+00) (28, -5.16068792343139648438e+00) (29, 1.50000000000000000000e+03) (30, -1.86197032928466796875e+01) (31, -7.73095226287841796875e+00) (32, 3.99615001678466796875e+00) (33, 7.46925354003906250000e+00) (34, 3.03483810424804687500e+01) (35, 1.20753698348999023438e+01) (36, 1.95168912410736083984e+00) (37, -2.73496651649475097656e+00) (0, 4.45591688156127929688e+00) (1, 8.85180282592773437500e+01) (2, -1.27082359790802001953e+00) (3, 1.53229427337646484375e+00) (4, 1.39052438735961914062e+01) (5, -6.07376396656036376953e-01) (6, 1.15623645782470703125e+01) (7, 1.89316809177398681641e+00) (8, 4.50890111923217773438e+00) (9, -3.38338653564453125000e+02) (10, -2.75516265869140625000e+02) (11, 1.23328926086425781250e+02) (12, -2.54942398071289062500e+01) (13, -2.89767599105834960938e+00) (14, 3.34776735305786132812e+00) (15, 5.76838612556457519531e-01) (16, 2.03810960054397583008e-01) (17, -1.36250340938568115234e+00) (18, 6.49204075336456298828e-01) (19, -3.72716760635375976562e+00) (20, 2.84568643569946289062e+00) (21, -4.83806657791137695312e+00) (22, -4.65441846847534179688e+00) (23, -4.69440269470214843750e+00) (24, 1.50000000000000000000e+03) (25, 1.50000000000000000000e+03) (26, -9.25496995449066162109e-01) (27, 1.71685161590576171875e+01) (28, -7.22451359033584594727e-02) (29, 4.37958598136901855469e-01) (30, -1.05388164520263671875e+00) (31, -2.93967294692993164062e+00) (32, 4.50326108932495117188e+00) (33, -2.24853366613388061523e-01) (34, 1.00142378360033035278e-02) (35, -2.14694690704345703125e+00) (36, 3.46877723932266235352e-01) (37, 1.19388036429882049561e-01) (0, -1.14777910709381103516e+00) (1, -8.56532058715820312500e+01) (2, 8.82979869842529296875e-01) (3, -1.17075896263122558594e+00) (4, -7.93387794494628906250e+00) (5, -3.42251181602478027344e-01) (6, -1.82340126037597656250e+01) (7, 5.42472064495086669922e-01) (8, -1.87667524814605712891e+00) (9, 2.52522552490234375000e+02) (10, 1.50000000000000000000e+03) (11, -5.33517456054687500000e+02) (12, 6.82886657714843750000e+01) (13, -1.08616821289062500000e+02) (14, -2.51122593879699707031e+00) (15, 3.00435185432434082031e+00) (16, -4.80521142482757568359e-01) (17, -3.44236195087432861328e-01) (18, -7.56683397293090820312e+00) (19, 1.63557739257812500000e+01) (20, -1.30937755107879638672e+00) (21, 2.81114363670349121094e+00) (22, 1.93564248085021972656e+00) (23, -1.36990261077880859375e+00) (24, 1.50000000000000000000e+03) (25, 1.50000000000000000000e+03) (26, 2.70631790161132812500e+00) (27, -3.09451580047607421875e+00) (28, 1.08964371681213378906e+00) (29, 7.27852392196655273438e+00) (30, 1.31672298908233642578e+00) (31, 1.33887386322021484375e+00) (32, 7.41138029098510742188e+00) (33, -8.07358980178833007812e-01) (34, -2.84320145845413208008e-01) (35, 1.79230046272277832031e+00) (36, 5.39676129817962646484e-01) (37, 1.17321419715881347656e+00) (38, 1.15809547901153564453e+00) (39, 7.18407928943634033203e-01) (40, 5.02488732337951660156e-01) (41, 8.13704490661621093750e-01) (42, 7.04885900020599365234e-01) (43, 1.01731598377227783203e+00) (44, 4.14567410945892333984e-01) (45, 9.73622441291809082031e-01) (46, 2.91504532098770141602e-01) (47, 5.01835107803344726562e-01) (48, 5.60046672821044921875e-01) (49, 3.27428847551345825195e-01) (50, 1.35217070579528808594e+00) (51, 4.60588067770004272461e-01) (52, 7.44120657444000244141e-01) (53, 2.91739225387573242188e-01) (54, 7.40574359893798828125e-01) (55, 6.80989265441894531250e-01) (56, -4.37658905982971191406e-01) 
