FANN_FLO_2.1
num_layers=3
learning_rate=0.700000
connection_rate=1.000000
network_type=0
learning_momentum=0.000000
training_algorithm=2
train_error_function=1
train_stop_function=0
cascade_output_change_fraction=0.010000
quickprop_decay=-0.000100
quickprop_mu=1.750000
rprop_increase_factor=1.200000
rprop_decrease_factor=0.500000
rprop_delta_min=0.000000
rprop_delta_max=50.000000
rprop_delta_zero=0.100000
cascade_output_stagnation_epochs=12
cascade_candidate_change_fraction=0.010000
cascade_candidate_stagnation_epochs=12
cascade_max_out_epochs=150
cascade_min_out_epochs=50
cascade_max_cand_epochs=150
cascade_min_cand_epochs=50
cascade_num_candidate_groups=2
bit_fail_limit=3.49999994039535522461e-01
cascade_candidate_limit=1.00000000000000000000e+03
cascade_weight_multiplier=4.00000005960464477539e-01
cascade_activation_functions_count=10
cascade_activation_functions=3 5 7 8 10 11 14 15 16 17 
cascade_activation_steepnesses_count=4
cascade_activation_steepnesses=2.50000000000000000000e-01 5.00000000000000000000e-01 7.50000000000000000000e-01 1.00000000000000000000e+00 
layer_sizes=38 19 2 
scale_included=0
neurons (num_inputs, activation_function, activation_steepness)=(0, 0, 0.00000000000000000000e+00) (0, 0, 0.00000000000000000000e+00) (0, 0, 0.00000000000000000000e+00) (0, 0, 0.00000000000000000000e+00) (0, 0, 0.00000000000000000000e+00) (0, 0, 0.00000000000000000000e+00) (0, 0, 0.00000000000000000000e+00) (0, 0, 0.00000000000000000000e+00) (0, 0, 0.00000000000000000000e+00) (0, 0, 0.00000000000000000000e+00) (0, 0, 0.00000000000000000000e+00) (0, 0, 0.00000000000000000000e+00) (0, 0, 0.00000000000000000000e+00) (0, 0, 0.00000000000000000000e+00) (0, 0, 0.00000000000000000000e+00) (0, 0, 0.00000000000000000000e+00) (0, 0, 0.00000000000000000000e+00) (0, 0, 0.00000000000000000000e+00) (0, 0, 0.00000000000000000000e+00) (0, 0, 0.00000000000000000000e+00) (0, 0, 0.00000000000000000000e+00) (0, 0, 0.00000000000000000000e+00) (0, 0, 0.00000000000000000000e+00) (0, 0, 0.00000000000000000000e+00) (0, 0, 0.00000000000000000000e+00) (0, 0, 0.00000000000000000000e+00) (0, 0, 0.00000000000000000000e+00) (0, 0, 0.00000000000000000000e+00) (0, 0, 0.00000000000000000000e+00) (0, 0, 0.00000000000000000000e+00) (0, 0, 0.00000000000000000000e+00) (0, 0, 0.00000000000000000000e+00) (0, 0, 0.00000000000000000000e+00) (0, 0, 0.00000000000000000000e+00) (0, 0, 0.00000000000000000000e+00) (0, 0, 0.00000000000000000000e+00) (0, 0, 0.00000000000000000000e+00) (0, 0, 0.00000000000000000000e+00) (38, 5, 5.00000000000000000000e-01) (38, 5, 5.00000000000000000000e-01) (38, 5, 5.00000000000000000000e-01) (38, 5, 5.00000000000000000000e-01) (38, 5, 5.00000000000000000000e-01) (38, 5, 5.00000000000000000000e-01) (38, 5, 5.00000000000000000000e-01) (38, 5, 5.00000000000000000000e-01) (38, 5, 5.00000000000000000000e-01) (38, 5, 5.00000000000000000000e-01) (38, 5, 5.00000000000000000000e-01) (38, 5, 5.00000000000000000000e-01) (38, 5, 5.00000000000000000000e-01) (38, 5, 5.00000000000000000000e-01) (38, 5, 5.00000000000000000000e-01) (38, 5, 5.00000000000000000000e-01) (38, 5, 5.00000000000000000000e-01) (38, 5, 5.00000000000000000000e-01) (0, 5, 0.00000000000000000000e+00) (19, 13, 5.00000000000000000000e-01) (0, 13, 0.00000000000000000000e+00) 
connections (connected_to_neuron, weight)=(0, 2.78116846084594726562e+00) (1, 1.50851860046386718750e+01) (2, 9.20200586318969726562e-01) (3, 8.66651609539985656738e-02) (4, 1.15006599426269531250e+01) (5, -2.61544847488403320312e+00) (6, 8.83693027496337890625e+00) (7, 1.39338707923889160156e+00) (8, -3.19101953506469726562e+00) (9, 2.72845977783203125000e+02) (10, -4.86458063125610351562e-01) (11, 3.01013870239257812500e+01) (12, 2.93775299072265625000e+02) (13, 4.08588523864746093750e+01) (14, 2.60066461563110351562e+00) (15, 1.46650743484497070312e+00) (16, 4.18107165023684501648e-03) (17, -8.08646559715270996094e-01) (18, 8.51045370101928710938e-01) (19, 1.34904317855834960938e+01) (20, -1.95092298090457916260e-02) (21, -2.51305413246154785156e+00) (22, -1.22843718528747558594e+00) (23, -2.87917494773864746094e+00) (24, 1.50000000000000000000e+03) (25, 1.50000000000000000000e+03) (26, 1.75995564460754394531e+00) (27, -8.10874700546264648438e-01) (28, 2.26571649312973022461e-01) (29, 7.40034961700439453125e+00) (30, -4.13637685775756835938e+00) (31, 6.49103701114654541016e-01) (32, -1.48710644245147705078e+00) (33, 6.68312072753906250000e-01) (34, -6.27873706817626953125e+00) (35, 8.43917906284332275391e-01) (36, -1.58020210266113281250e+00) (37, -8.04432094097137451172e-01) (0, 7.88922071456909179688e+00) (1, -8.12963485717773437500e+00) (2, -3.69288653135299682617e-01) (3, 8.37221920490264892578e-01) (4, 6.16168451309204101562e+00) (5, 3.28001642227172851562e+00) (6, 6.60473251342773437500e+00) (7, 4.34520065784454345703e-01) (8, 1.10596168041229248047e+00) (9, -5.34061340332031250000e+02) (10, 4.10335464477539062500e+01) (11, -8.01036930084228515625e+00) (12, -1.13129248046875000000e+03) (13, -3.65967063903808593750e+01) (14, 7.70284748077392578125e+00) (15, 1.22430033981800079346e-01) (16, 5.87201714515686035156e-01) (17, -5.79606473445892333984e-01) (18, 1.12225222587585449219e+00) (19, 1.72719955444335937500e+01) (20, 1.60010635852813720703e-01) (21, -1.32822215557098388672e-01) (22, -1.14553523063659667969e+00) (23, 3.02624964714050292969e+00) (24, 1.50000000000000000000e+03) (25, 1.50000000000000000000e+03) (26, -4.62453126907348632812e+00) (27, 3.50004625320434570312e+00) (28, 6.60171985626220703125e+00) (29, -5.72496891021728515625e+00) (30, -1.10150739550590515137e-01) (31, -5.41104888916015625000e+00) (32, -9.87439727783203125000e+00) (33, -3.50722646713256835938e+00) (34, 1.38154268264770507812e+00) (35, 4.16668504476547241211e-01) (36, -7.70006954669952392578e-01) (37, -4.13428962230682373047e-01) (0, 7.35008239746093750000e+00) (1, -1.87059040069580078125e+01) (2, -1.24418067932128906250e+00) (3, 1.68098020553588867188e+00) (4, 3.06771445274353027344e+00) (5, 1.52298650741577148438e+01) (6, -2.40076904296875000000e+01) (7, -2.48724889755249023438e+00) (8, 4.31838846206665039062e+00) (9, -1.71375289916992187500e+02) (10, -4.22452621459960937500e+01) (11, 1.50000000000000000000e+03) (12, 3.37946624755859375000e+02) (13, 3.57515686035156250000e+02) (14, -3.11257019042968750000e+01) (15, -1.21788158416748046875e+01) (16, -4.35885250568389892578e-01) (17, 2.78669977188110351562e+00) (18, 5.67546367645263671875e+00) (19, -2.18857979774475097656e+00) (20, 6.75192058086395263672e-01) (21, -7.37503468990325927734e-01) (22, -5.12086534500122070312e+00) (23, 1.88296079635620117188e-01) (24, 1.50000000000000000000e+03) (25, 1.50000000000000000000e+03) (26, -4.99283647537231445312e+00) (27, -2.33455300331115722656e+00) (28, -5.13320970535278320312e+00) (29, 2.62780094146728515625e+00) (30, 1.63168926239013671875e+01) (31, -9.57528495788574218750e+00) (32, -1.66409225463867187500e+01) (33, 5.75550365447998046875e+00) (34, 1.58974695205688476562e+01) (35, -5.42669594287872314453e-01) (36, 3.37448549270629882812e+00) (37, -1.76630055904388427734e+00) (0, -3.34248948097229003906e+00) (1, -1.99935836791992187500e+01) (2, -4.73389118909835815430e-01) (3, 3.46077866852283477783e-02) (4, -3.13295865058898925781e+00) (5, 3.28770589828491210938e+00) (6, 3.32022833824157714844e+00) (7, 1.79456901550292968750e+00) (8, 8.40089607238769531250e+00) (9, -9.62631042480468750000e+02) (10, -2.84280212402343750000e+02) (11, -6.36235504150390625000e+01) (12, -1.00445343017578125000e+03) (13, -2.33958435058593750000e+02) (14, 5.82493829727172851562e+00) (15, -1.10407806932926177979e-01) (16, 1.71967077255249023438e+00) (17, -4.52510476112365722656e-01) (18, -2.91899824142456054688e+00) (19, -3.32004070281982421875e+00) (20, -3.28011751174926757812e-01) (21, 3.88547682762145996094e+00) (22, 4.53774356842041015625e+00) (23, 6.46181166172027587891e-01) (24, 1.50000000000000000000e+03) (25, 1.50000000000000000000e+03) (26, -6.51033341884613037109e-01) (27, -1.82497531175613403320e-01) (28, -7.48147726058959960938e+00) (29, -3.03769826889038085938e+00) (30, 4.74876546859741210938e+00) (31, 8.73183155059814453125e+00) (32, -1.20445423126220703125e+01) (33, -4.14753532409667968750e+00) (34, 2.60951304435729980469e+00) (35, -6.02688837051391601562e+00) (36, 5.45703506469726562500e+00) (37, 2.48669296503067016602e-01) (0, 4.85490036010742187500e+01) (1, 5.39664916992187500000e+01) (2, -1.05644977092742919922e+00) (3, 2.18518161773681640625e+00) (4, -3.67101097106933593750e+01) (5, -5.77547729015350341797e-01) (6, 1.75687370300292968750e+01) (7, -4.47107791900634765625e+00) (8, 5.87526035308837890625e+00) (9, -8.63595397949218750000e+02) (10, -8.22680740356445312500e+01) (11, 2.58677406311035156250e+01) (12, -3.35600921630859375000e+02) (13, 1.92821674346923828125e+01) (14, 1.27469244003295898438e+01) (15, -4.33304977416992187500e+00) (16, 3.21060991287231445312e+00) (17, -3.24098014831542968750e+00) (18, 8.29800796508789062500e+00) (19, 7.96653938293457031250e+00) (20, 2.23495531082153320312e+00) (21, -6.55961656570434570312e+00) (22, 9.66128587722778320312e-01) (23, 1.19292050600051879883e-01) (24, 1.50000000000000000000e+03) (25, 1.50000000000000000000e+03) (26, -1.58447515964508056641e+00) (27, 2.73666076660156250000e+01) (28, 5.22084474563598632812e+00) (29, 2.49488182067871093750e+01) (30, -1.18575420379638671875e+01) (31, 1.50000000000000000000e+03) (32, 3.28160591125488281250e+01) (33, 5.75884771347045898438e+00) (34, 6.10954236984252929688e+00) (35, 6.37301349639892578125e+00) (36, -1.47250568866729736328e+00) (37, 1.87136447429656982422e+00) (0, -5.27876281738281250000e+00) (1, 1.15810527801513671875e+01) (2, 1.64378464221954345703e+00) (3, -6.65887653827667236328e-01) (4, -1.29893751144409179688e+01) (5, -6.49554610252380371094e-01) (6, -8.85188281536102294922e-01) (7, 3.13676856458187103271e-02) (8, 3.01916522979736328125e+01) (9, 9.05933532714843750000e+02) (10, 2.89959777832031250000e+02) (11, -2.72207784652709960938e+00) (12, -1.07367089843750000000e+03) (13, -1.79104187011718750000e+02) (14, -7.27617788314819335938e+00) (15, 2.20235776901245117188e+00) (16, 8.18775177001953125000e-01) (17, -4.80166864395141601562e+00) (18, -3.98812413215637207031e+00) (19, 4.31596183776855468750e+00) (20, -4.40200716257095336914e-01) (21, 4.73915243148803710938e+00) (22, -1.77104878425598144531e+00) (23, 1.44327526092529296875e+01) (24, 1.50000000000000000000e+03) (25, 1.50000000000000000000e+03) (26, -3.39451384544372558594e+00) (27, -4.48427772521972656250e+00) (28, 2.80988723039627075195e-01) (29, -1.33620204925537109375e+01) (30, 2.69582009315490722656e+00) (31, -1.14207231998443603516e+00) (32, 4.06932830810546875000e+00) (33, -5.57709574699401855469e-01) (34, 7.55767762660980224609e-01) (35, -7.28709125518798828125e+00) (36, 6.24780321121215820312e+00) (37, 6.68205082416534423828e-01) (0, -1.03192434310913085938e+01) (1, 1.27181539535522460938e+01) (2, 1.75613749027252197266e+00) (3, -1.13800120353698730469e+00) (4, -1.86549949645996093750e+01) (5, -1.66861019134521484375e+01) (6, 1.61227054595947265625e+01) (7, 7.12318325042724609375e+00) (8, 1.80975494384765625000e+01) (9, -2.76329162597656250000e+02) (10, -5.89944343566894531250e+01) (11, 9.54811767578125000000e+02) (12, 3.74659210205078125000e+02) (13, -2.22301528930664062500e+02) (14, 9.60740089416503906250e+00) (15, -1.28908169269561767578e+00) (16, 6.34528100490570068359e-01) (17, -1.86080962419509887695e-01) (18, -4.74648237228393554688e+00) (19, -2.30209407806396484375e+01) (20, -9.87847447395324707031e-01) (21, 1.04289376735687255859e+00) (22, 6.13470935821533203125e+00) (23, -8.48691654205322265625e+00) (24, 1.50000000000000000000e+03) (25, 1.50000000000000000000e+03) (26, 8.24981498718261718750e+00) (27, -8.14366436004638671875e+00) (28, -1.09364633560180664062e+01) (29, 1.92282981872558593750e+01) (30, 1.54557886123657226562e+01) (31, 1.80191373825073242188e+00) (32, 2.29582214355468750000e+01) (33, 1.50626409053802490234e+00) (34, -5.15698528289794921875e+00) (35, 6.11473464965820312500e+00) (36, -2.35724163055419921875e+00) (37, 1.23999273777008056641e+00) (0, 7.31251144409179687500e+00) (1, -2.63213396072387695312e+00) (2, 7.60724321007728576660e-02) (3, -1.52556359767913818359e-01) (4, 9.25397336483001708984e-01) (5, -4.38089179992675781250e+00) (6, 6.46083021163940429688e+00) (7, -1.45633459091186523438e+00) (8, -1.21269655227661132812e+01) (9, 1.50000000000000000000e+03) (10, 6.75472717285156250000e+02) (11, -1.30146423339843750000e+02) (12, 3.44468475341796875000e+02) (13, 9.86942825317382812500e+01) (14, 2.28746376037597656250e+01) (15, 8.61885643005371093750e+00) (16, 3.76374870538711547852e-01) (17, -2.05025172233581542969e+00) (18, -1.91209912300109863281e+00) (19, 6.93064117431640625000e+00) (20, 4.45309698581695556641e-01) (21, -9.03857052326202392578e-01) (22, 1.90745502710342407227e-01) (23, 2.01469802856445312500e+00) (24, 1.50000000000000000000e+03) (25, 1.50000000000000000000e+03) (26, 2.31644916534423828125e+01) (27, -1.08844661712646484375e+00) (28, 5.86627769470214843750e+00) (29, 2.77909684181213378906e+00) (30, -1.03046283721923828125e+01) (31, -2.10416269302368164062e+00) (32, 4.98638248443603515625e+00) (33, 3.58918380737304687500e+00) (34, 3.58133840560913085938e+00) (35, 2.53703260421752929688e+00) (36, 5.82911920547485351562e+00) (37, -4.21375840902328491211e-01) (0, -8.18283939361572265625e+00) (1, -1.65549259185791015625e+01) (2, 2.11782860755920410156e+00) (3, -1.12294209003448486328e+00) (4, -2.41797971725463867188e+00) (5, -1.47444188594818115234e+00) (6, 7.18069887161254882812e+00) (7, -6.75658404827117919922e-01) (8, 1.33346128463745117188e+01) (9, 6.28209472656250000000e+02) (10, 1.17172996520996093750e+02) (11, 4.50756416320800781250e+01) (12, 4.01824493408203125000e+02) (13, -2.07763717651367187500e+02) (14, 7.17528295516967773438e+00) (15, -7.80044126510620117188e+00) (16, 1.45052433013916015625e+00) (17, -2.11931610107421875000e+00) (18, -1.09631767272949218750e+01) (19, 2.47840213775634765625e+00) (20, 3.03388881683349609375e+00) (21, -1.01289618015289306641e+00) (22, -4.38454389572143554688e-01) (23, -6.67217850685119628906e-01) (24, 1.50000000000000000000e+03) (25, 1.50000000000000000000e+03) (26, 1.28873002529144287109e+00) (27, 1.91220712661743164062e+00) (28, 2.78753232955932617188e+00) (29, 1.36974458694458007812e+01) (30, 3.61043143272399902344e+00) (31, 7.86180734634399414062e-01) (32, 2.75652790069580078125e+00) (33, -9.03722286224365234375e-01) (34, -1.12375128269195556641e+00) (35, 1.88164496421813964844e+00) (36, -1.21369338035583496094e+00) (37, 5.57632148265838623047e-01) (0, -1.07125473022460937500e+01) (1, -1.72047367095947265625e+01) (2, -5.10150551795959472656e-01) (3, -5.42798817157745361328e-01) (4, -1.78481273651123046875e+01) (5, 3.25436878204345703125e+00) (6, -9.05972576141357421875e+00) (7, -3.03346395492553710938e+00) (8, -8.18665695190429687500e+00) (9, -9.89492370605468750000e+02) (10, 4.72434051513671875000e+02) (11, 4.08869590759277343750e+01) (12, 6.65632568359375000000e+02) (13, 3.28979187011718750000e+02) (14, 1.14558029174804687500e+01) (15, -1.71181178092956542969e+00) (16, 5.42763948440551757812e-01) (17, 3.05395674705505371094e+00) (18, 6.10072040557861328125e+00) (19, 9.20831298828125000000e+00) (20, 2.92053110897541046143e-02) (21, -2.03141540288925170898e-01) (22, -3.36522140502929687500e+01) (23, -3.65898489952087402344e+00) (24, 1.50000000000000000000e+03) (25, 1.50000000000000000000e+03) (26, 2.64279770851135253906e+00) (27, 6.44044113159179687500e+00) (28, -3.94958645105361938477e-01) (29, -1.50000000000000000000e+03) (30, 3.18817591667175292969e+00) (31, -1.29931676387786865234e+00) (32, 1.24339175224304199219e+00) (33, -1.90497839450836181641e+00) (34, -9.29903984069824218750e+00) (35, 2.62027835845947265625e+00) (36, -7.22559452056884765625e+00) (37, 2.00500154495239257812e+00) (0, 8.74075984954833984375e+00) (1, -3.81181884765625000000e+02) (2, -2.84349489212036132812e+00) (3, 1.39523160457611083984e+00) (4, -4.38505592346191406250e+01) (5, 9.99847233295440673828e-01) (6, -2.30203962326049804688e+00) (7, -4.60963487625122070312e+00) (8, 7.54910087585449218750e+00) (9, 1.13363439941406250000e+03) (10, 2.06064438819885253906e+00) (11, 1.17387023925781250000e+03) (12, 1.02626171875000000000e+03) (13, 5.09345130920410156250e+01) (14, 1.50000000000000000000e+03) (15, -2.71522235870361328125e+00) (16, 4.04863357543945312500e+00) (17, -4.91052865982055664062e+00) (18, -1.10440473556518554688e+01) (19, 1.01727668762207031250e+02) (20, 3.95650219917297363281e+00) (21, 1.82911415100097656250e+01) (22, 1.59365129470825195312e+01) (23, 2.42187709808349609375e+01) (24, 1.50000000000000000000e+03) (25, 1.50000000000000000000e+03) (26, -8.95748519897460937500e+00) (27, -1.00899181365966796875e+01) (28, 1.77589302062988281250e+01) (29, -1.50000000000000000000e+03) (30, 4.56532001495361328125e+00) (31, -7.92892122268676757812e+00) (32, -1.17055988311767578125e+01) (33, -3.59970903396606445312e+00) (34, 4.65318107604980468750e+01) (35, -8.85620594024658203125e-01) (36, 1.30187487602233886719e+00) (37, -8.53550493717193603516e-01) (0, -9.92550781250000000000e+02) (1, 1.30907568359375000000e+03) (2, -1.54498996734619140625e+01) (3, 2.37133541107177734375e+01) (4, 2.15483436584472656250e+01) (5, 6.49628143310546875000e+01) (6, 4.48964920043945312500e+01) (7, -5.78948783874511718750e+00) (8, 6.52714416503906250000e+02) (9, 1.50000000000000000000e+03) (10, 8.30494018554687500000e+02) (11, -6.21798645019531250000e+02) (12, 5.18722595214843750000e+02) (13, 1.25756896972656250000e+03) (14, -2.51449737548828125000e+02) (15, 1.75644474029541015625e+01) (16, 8.67467212677001953125e+00) (17, 8.56919784545898437500e+01) (18, -1.50000000000000000000e+03) (19, 2.77204437255859375000e+01) (20, -2.76650657653808593750e+01) (21, 6.29526138305664062500e+00) (22, -1.65636169433593750000e+02) (23, 1.19763565063476562500e+01) (24, 1.50000000000000000000e+03) (25, 1.50000000000000000000e+03) (26, 1.70002777099609375000e+02) (27, -2.97987079620361328125e+01) (28, 8.29407196044921875000e+01) (29, -1.50000000000000000000e+03) (30, 7.00506652832031250000e+02) (31, 9.63632354736328125000e+01) (32, -6.07620910644531250000e+02) (33, -4.23272323608398437500e+01) (34, 4.58613983154296875000e+02) (35, 3.42079696655273437500e+01) (36, 2.60981998443603515625e+01) (37, 8.07749557495117187500e+00) (0, 1.59301748275756835938e+01) (1, 2.79231204986572265625e+01) (2, -8.81006598472595214844e-01) (3, 3.48622202873229980469e-01) (4, -1.95334732532501220703e-01) (5, -2.23787856101989746094e+00) (6, -7.32804107666015625000e+00) (7, 1.18253922462463378906e+00) (8, -8.54185199737548828125e+00) (9, 1.50000000000000000000e+03) (10, 1.85791870117187500000e+02) (11, 3.10581760406494140625e+01) (12, 5.67194335937500000000e+02) (13, 9.89679336547851562500e+01) (14, -5.26142787933349609375e+00) (15, 1.88639247417449951172e+00) (16, -8.22115421295166015625e-01) (17, -1.66729137301445007324e-01) (18, 2.02087074518203735352e-01) (19, 5.35237550735473632812e+00) (20, -9.18188035488128662109e-01) (21, 8.57233524322509765625e-01) (22, 1.60890221595764160156e+00) (23, 6.85095071792602539062e-01) (24, 1.50000000000000000000e+03) (25, 1.50000000000000000000e+03) (26, 5.01049518585205078125e-01) (27, -4.30576443672180175781e-01) (28, 7.63098821043968200684e-02) (29, 5.17113208770751953125e+00) (30, -2.22408100962638854980e-01) (31, -1.42768085002899169922e-01) (32, -1.90451920032501220703e+00) (33, 3.66727173328399658203e-01) (34, -7.47299432754516601562e-01) (35, 3.49042624235153198242e-01) (36, 2.05123257637023925781e+00) (37, -7.70895242691040039062e-01) (0, 1.18760742187500000000e+02) (1, -5.70538513183593750000e+02) (2, -1.65723025798797607422e+00) (3, 9.11620998382568359375e+00) (4, 2.16052112579345703125e+01) (5, -1.15285396575927734375e+01) (6, -3.19377231597900390625e+01) (7, -4.14428138732910156250e+00) (8, 1.17487792968750000000e+02) (9, -1.48333850097656250000e+03) (10, -9.72700195312500000000e+01) (11, 8.38120422363281250000e+01) (12, 2.63562042236328125000e+02) (13, -1.50000000000000000000e+03) (14, -2.59768466949462890625e+01) (15, 1.11844701766967773438e+01) (16, -1.46963453292846679688e+00) (17, -1.58675813674926757812e+01) (18, 9.88371849060058593750e-01) (19, -8.54704093933105468750e+00) (20, 1.30901813507080078125e-01) (21, 1.88663921356201171875e+01) (22, 1.92775459289550781250e+01) (23, -6.12970733642578125000e+00) (24, 1.50000000000000000000e+03) (25, 1.50000000000000000000e+03) (26, -4.91038990020751953125e+00) (27, 2.04245257377624511719e+00) (28, -1.55665183067321777344e+00) (29, -1.34242095947265625000e+02) (30, -5.99450073242187500000e+01) (31, 1.50000000000000000000e+03) (32, -1.27945995330810546875e+01) (33, -7.97962676733732223511e-03) (34, -1.07258920669555664062e+01) (35, 9.12394905090332031250e+00) (36, 4.91742286682128906250e+01) (37, 9.91047322750091552734e-01) (0, -1.28690204620361328125e+01) (1, -3.55286674499511718750e+01) (2, 2.02046900987625122070e-01) (3, -4.25181436538696289062e+00) (4, -5.71436614990234375000e+01) (5, 2.65045547485351562500e+00) (6, 3.38496017456054687500e+01) (7, -3.87195444107055664062e+00) (8, 4.44166259765625000000e+01) (9, 1.50000000000000000000e+03) (10, 2.89259399414062500000e+02) (11, 8.66249877929687500000e+02) (12, 6.34068115234375000000e+02) (13, 2.16260848999023437500e+02) (14, 7.06964035034179687500e+01) (15, 9.88816738128662109375e+00) (16, 2.72002243995666503906e+00) (17, -5.43598556518554687500e+00) (18, 3.62776684761047363281e+00) (19, 6.30977296829223632812e+00) (20, -7.35934686660766601562e+00) (21, -1.79308433532714843750e+01) (22, 5.85467386245727539062e+00) (23, 1.10616385936737060547e+00) (24, 1.50000000000000000000e+03) (25, 1.50000000000000000000e+03) (26, -9.50602149963378906250e+00) (27, 3.29834079742431640625e+00) (28, 3.04587390273809432983e-02) (29, -7.08337306976318359375e+00) (30, 2.59361476898193359375e+01) (31, 8.66851234436035156250e+00) (32, 4.28234138488769531250e+01) (33, 6.11827945709228515625e+00) (34, -6.50617170333862304688e+00) (35, -1.26287736892700195312e+01) (36, -2.40243959426879882812e+00) (37, 2.04512023925781250000e+00) (0, -9.69279479980468750000e+00) (1, 3.20030578613281250000e+02) (2, -1.29727870225906372070e-01) (3, 6.76486372947692871094e-01) (4, 4.85953617095947265625e+00) (5, -7.66736698150634765625e+00) (6, -4.70208024978637695312e+00) (7, 1.91739785671234130859e+00) (8, -7.79855728149414062500e-01) (9, -1.24410072326660156250e+02) (10, -1.86860656738281250000e+02) (11, -8.23451919555664062500e+01) (12, 2.71162078857421875000e+02) (13, -4.43349981307983398438e+00) (14, -2.05800628662109375000e+00) (15, 1.70641791820526123047e+00) (16, -6.90269529819488525391e-01) (17, -5.25226891040802001953e-01) (18, 1.31433701515197753906e+00) (19, 8.13431549072265625000e+00) (20, 1.05643510818481445312e+00) (21, 2.94576930999755859375e+00) (22, 9.77780151367187500000e+00) (23, 4.02826976776123046875e+00) (24, 1.50000000000000000000e+03) (25, 1.50000000000000000000e+03) (26, -9.65109467506408691406e-01) (27, -4.45117741823196411133e-01) (28, 1.50000000000000000000e+03) (29, -2.06598682403564453125e+01) (30, -8.38400959968566894531e-01) (31, -5.11569976806640625000e-01) (32, 4.31715059280395507812e+00) (33, -5.40211439132690429688e-01) (34, 2.21208000183105468750e+00) (35, 1.98525035381317138672e+00) (36, 2.81711268424987792969e+00) (37, 1.14036357402801513672e+00) (0, -7.63692092895507812500e+00) (1, 5.37139663696289062500e+01) (2, -2.55221068859100341797e-01) (3, 8.52966129779815673828e-01) (4, 2.16967153549194335938e+00) (5, 2.25760006904602050781e+00) (6, 9.29503536224365234375e+00) (7, -4.90286707878112792969e-01) (8, 2.51777744293212890625e+00) (9, -2.16450622558593750000e+02) (10, -1.50000000000000000000e+03) (11, -2.12770019531250000000e+02) (12, -3.96683319091796875000e+02) (13, -1.91327152252197265625e+01) (14, 4.20175170898437500000e+00) (15, 1.65345401763916015625e+01) (16, 7.16124296188354492188e-01) (17, -1.66134095191955566406e+00) (18, -5.57471513748168945312e+00) (19, -2.21362781524658203125e+01) (20, -5.04261076450347900391e-01) (21, -5.22203743457794189453e-01) (22, -1.68344438076019287109e-01) (23, 1.40099123120307922363e-01) (24, 1.50000000000000000000e+03) (25, 1.50000000000000000000e+03) (26, 7.17463374137878417969e-01) (27, -2.21322372555732727051e-01) (28, -1.86662316322326660156e+00) (29, 1.47962341308593750000e+01) (30, 8.17206054925918579102e-02) (31, 1.50000000000000000000e+03) (32, 1.84889197349548339844e-01) (33, -1.04526460170745849609e+00) (34, 1.31638765335083007812e+00) (35, 3.76958623528480529785e-02) (36, -1.67165958881378173828e+00) (37, 2.64538556337356567383e-01) (0, -4.61439281702041625977e-01) (1, -9.14389343261718750000e+01) (2, 4.27937895059585571289e-01) (3, -1.67819380760192871094e-01) (4, 6.48770952224731445312e+00) (5, 6.30853271484375000000e+00) (6, 4.19785928726196289062e+00) (7, -2.24031138420104980469e+00) (8, 1.63086605072021484375e+00) (9, 4.17208137512207031250e+01) (10, -2.34009819030761718750e+01) (11, -4.81654968261718750000e+02) (12, 7.76218383789062500000e+02) (13, 3.27598915100097656250e+01) (14, 7.08798885345458984375e-01) (15, 8.17248284816741943359e-01) (16, 7.78738856315612792969e-01) (17, -2.31775958091020584106e-02) (18, 1.06729054450988769531e+00) (19, 1.59313640594482421875e+01) (20, -4.03596073389053344727e-01) (21, -1.51388013362884521484e+00) (22, -3.99544787406921386719e+00) (23, -7.34979915618896484375e+00) (24, 1.50000000000000000000e+03) (25, 1.50000000000000000000e+03) (26, -3.31531214714050292969e+00) (27, -2.26570940017700195312e+00) (28, -5.66198205947875976562e+00) (29, -9.86196613311767578125e+00) (30, -1.88038229942321777344e+00) (31, 1.80989515781402587891e+00) (32, 1.40243101119995117188e+01) (33, -9.33397412300109863281e-01) (34, 4.35895061492919921875e+00) (35, -5.56248486042022705078e-01) (36, -1.15415906906127929688e+00) (37, -7.94393479824066162109e-01) (38, 7.25269675254821777344e-01) (39, 7.91006922721862792969e-01) (40, 3.94002944231033325195e-01) (41, 5.43978750705718994141e-01) (42, 3.60301375389099121094e-01) (43, 5.70073425769805908203e-01) (44, 6.92880809307098388672e-01) (45, 6.37488961219787597656e-01) (46, 7.32290387153625488281e-01) (47, 7.00112521648406982422e-01) (48, 3.53650987148284912109e-01) (49, 2.87802636623382568359e-01) (50, 1.34042072296142578125e+00) (51, 3.67460697889328002930e-01) (52, 4.55410480499267578125e-01) (53, 1.33221936225891113281e+00) (54, 5.98247647285461425781e-01) (55, 7.65209734439849853516e-01) (56, -2.09864124655723571777e-01) 
