FANN_FLO_2.1
num_layers=3
learning_rate=0.700000
connection_rate=1.000000
network_type=0
learning_momentum=0.000000
training_algorithm=2
train_error_function=1
train_stop_function=0
cascade_output_change_fraction=0.010000
quickprop_decay=-0.000100
quickprop_mu=1.750000
rprop_increase_factor=1.200000
rprop_decrease_factor=0.500000
rprop_delta_min=0.000000
rprop_delta_max=50.000000
rprop_delta_zero=0.100000
cascade_output_stagnation_epochs=12
cascade_candidate_change_fraction=0.010000
cascade_candidate_stagnation_epochs=12
cascade_max_out_epochs=150
cascade_max_cand_epochs=150
cascade_num_candidate_groups=2
bit_fail_limit=3.49999994039535522461e-01
cascade_candidate_limit=1.00000000000000000000e+03
cascade_weight_multiplier=4.00000005960464477539e-01
cascade_activation_functions_count=10
cascade_activation_functions=3 5 7 8 10 11 14 15 16 17 
cascade_activation_steepnesses_count=4
cascade_activation_steepnesses=2.50000000000000000000e-01 5.00000000000000000000e-01 7.50000000000000000000e-01 1.00000000000000000000e+00 
layer_sizes=38 19 2 
scale_included=0
neurons (num_inputs, activation_function, activation_steepness)=(0, 0, 0.00000000000000000000e+00) (0, 0, 0.00000000000000000000e+00) (0, 0, 0.00000000000000000000e+00) (0, 0, 0.00000000000000000000e+00) (0, 0, 0.00000000000000000000e+00) (0, 0, 0.00000000000000000000e+00) (0, 0, 0.00000000000000000000e+00) (0, 0, 0.00000000000000000000e+00) (0, 0, 0.00000000000000000000e+00) (0, 0, 0.00000000000000000000e+00) (0, 0, 0.00000000000000000000e+00) (0, 0, 0.00000000000000000000e+00) (0, 0, 0.00000000000000000000e+00) (0, 0, 0.00000000000000000000e+00) (0, 0, 0.00000000000000000000e+00) (0, 0, 0.00000000000000000000e+00) (0, 0, 0.00000000000000000000e+00) (0, 0, 0.00000000000000000000e+00) (0, 0, 0.00000000000000000000e+00) (0, 0, 0.00000000000000000000e+00) (0, 0, 0.00000000000000000000e+00) (0, 0, 0.00000000000000000000e+00) (0, 0, 0.00000000000000000000e+00) (0, 0, 0.00000000000000000000e+00) (0, 0, 0.00000000000000000000e+00) (0, 0, 0.00000000000000000000e+00) (0, 0, 0.00000000000000000000e+00) (0, 0, 0.00000000000000000000e+00) (0, 0, 0.00000000000000000000e+00) (0, 0, 0.00000000000000000000e+00) (0, 0, 0.00000000000000000000e+00) (0, 0, 0.00000000000000000000e+00) (0, 0, 0.00000000000000000000e+00) (0, 0, 0.00000000000000000000e+00) (0, 0, 0.00000000000000000000e+00) (0, 0, 0.00000000000000000000e+00) (0, 0, 0.00000000000000000000e+00) (0, 0, 0.00000000000000000000e+00) (38, 5, 5.00000000000000000000e-01) (38, 5, 5.00000000000000000000e-01) (38, 5, 5.00000000000000000000e-01) (38, 5, 5.00000000000000000000e-01) (38, 5, 5.00000000000000000000e-01) (38, 5, 5.00000000000000000000e-01) (38, 5, 5.00000000000000000000e-01) (38, 5, 5.00000000000000000000e-01) (38, 5, 5.00000000000000000000e-01) (38, 5, 5.00000000000000000000e-01) (38, 5, 5.00000000000000000000e-01) (38, 5, 5.00000000000000000000e-01) (38, 5, 5.00000000000000000000e-01) (38, 5, 5.00000000000000000000e-01) (38, 5, 5.00000000000000000000e-01) (38, 5, 5.00000000000000000000e-01) (38, 5, 5.00000000000000000000e-01) (38, 5, 5.00000000000000000000e-01) (0, 5, 0.00000000000000000000e+00) (19, 13, 5.00000000000000000000e-01) (0, 13, 0.00000000000000000000e+00) 
connections (connected_to_neuron, weight)=(0, -5.29558229446411132812e+00) (1, 6.25111846923828125000e+01) (2, 8.39933678507804870605e-02) (3, -1.77291774749755859375e+00) (4, -1.08373391628265380859e+00) (5, 8.16485309600830078125e+00) (6, -1.61585922241210937500e+01) (7, 3.11762750148773193359e-01) (8, -4.37584352493286132812e+00) (9, -1.17232470703125000000e+03) (10, -5.81333435058593750000e+02) (11, -5.63262329101562500000e+02) (12, 1.50000000000000000000e+03) (13, 3.42791862487792968750e+01) (14, 2.61786136627197265625e+01) (15, 3.79311847686767578125e+00) (16, -9.22656476497650146484e-01) (17, 1.33144795894622802734e-01) (18, -9.32954967021942138672e-01) (19, 5.52123069763183593750e+00) (20, 8.87719273567199707031e-01) (21, -3.98439466953277587891e-01) (22, 1.50000000000000000000e+03) (23, -2.79030799865722656250e+00) (24, 1.50000000000000000000e+03) (25, 1.50000000000000000000e+03) (26, 8.79142379760742187500e+00) (27, -3.10124337673187255859e-01) (28, -4.70454424619674682617e-01) (29, -2.09122490882873535156e+00) (30, -5.71991086006164550781e-01) (31, -1.51728057861328125000e+00) (32, 1.50000000000000000000e+03) (33, 3.49138855934143066406e+00) (34, -2.53196692466735839844e+00) (35, 1.00525930523872375488e-01) (36, -4.96088600158691406250e+00) (37, 3.17455083131790161133e-01) (0, 1.28141391277313232422e+00) (1, -1.00853424072265625000e+02) (2, 2.33863210678100585938e+00) (3, -1.49565473198890686035e-01) (4, -4.19182062149047851562e+00) (5, 7.15464067459106445312e+00) (6, 5.48521232604980468750e+00) (7, 6.98120713233947753906e-01) (8, 5.83259315490722656250e+01) (9, 4.00110260009765625000e+02) (10, -2.92398712158203125000e+02) (11, 1.56355331420898437500e+02) (12, 1.50000000000000000000e+03) (13, 3.08135101318359375000e+02) (14, 1.50000000000000000000e+03) (15, 8.76890029907226562500e+01) (16, 4.01691341400146484375e+00) (17, -1.17334043979644775391e+00) (18, 4.73619604110717773438e+00) (19, 9.15189552307128906250e+00) (20, -7.62282788753509521484e-01) (21, 2.30746626853942871094e+00) (22, -4.11139965057373046875e+00) (23, -9.07605946063995361328e-01) (24, 1.50000000000000000000e+03) (25, 1.50000000000000000000e+03) (26, 1.88869228363037109375e+01) (27, -8.26424658298492431641e-01) (28, 2.36071243286132812500e+01) (29, 1.85633277893066406250e+01) (30, 7.20038509368896484375e+00) (31, -8.94863891601562500000e+00) (32, 9.46749019622802734375e+00) (33, -4.85977630615234375000e+01) (34, 4.15529708862304687500e+01) (35, 1.03498210906982421875e+01) (36, 3.23823142051696777344e+00) (37, 3.69726866483688354492e-01) (0, -6.22453355789184570312e+00) (1, 2.17565521240234375000e+02) (2, -4.80081844329833984375e+00) (3, 2.84243434667587280273e-01) (4, 9.90079402923583984375e+00) (5, -1.27253663539886474609e+00) (6, -1.35646810531616210938e+01) (7, 1.41717538237571716309e-01) (8, 6.13131666183471679688e+00) (9, 1.44356262207031250000e+03) (10, -1.04730395507812500000e+03) (11, -2.59321777343750000000e+02) (12, 1.50000000000000000000e+03) (13, 3.14640075683593750000e+02) (14, 5.55807590484619140625e+00) (15, 1.16594161987304687500e+01) (16, -1.51561224460601806641e+00) (17, 3.94652199745178222656e+00) (18, 1.42670118808746337891e+00) (19, 2.85339307785034179688e+00) (20, 3.18362283706665039062e+00) (21, 1.20189762115478515625e+00) (22, -1.09017219543457031250e+01) (23, -6.24298334121704101562e+00) (24, 1.50000000000000000000e+03) (25, 1.50000000000000000000e+03) (26, 6.77791404724121093750e+00) (27, -1.26950871944427490234e+00) (28, 1.60370802879333496094e+00) (29, -8.18654251098632812500e+00) (30, -8.74110281467437744141e-01) (31, 2.71904945373535156250e+01) (32, 6.03268718719482421875e+00) (33, -1.28526866436004638672e+00) (34, 1.32988748550415039062e+01) (35, -3.73146653175354003906e-01) (36, 1.49713373184204101562e+00) (37, 2.31057390570640563965e-01) (0, 2.43675327301025390625e+00) (1, -3.13608062744140625000e+02) (2, 2.52670884132385253906e+00) (3, 8.09530496597290039062e-01) (4, -1.68232381343841552734e+00) (5, 2.61120080947875976562e-01) (6, 5.77380447387695312500e+01) (7, -3.17709110677242279053e-02) (8, 4.54293708801269531250e+01) (9, 1.44356262207031250000e+03) (10, 8.83767272949218750000e+02) (11, -1.77694747924804687500e+02) (12, 1.50000000000000000000e+03) (13, -4.16555862426757812500e+01) (14, 2.26844520568847656250e+01) (15, 5.53382062911987304688e+00) (16, 4.05505955219268798828e-01) (17, 2.05556488037109375000e+00) (18, -8.99141788482666015625e+00) (19, 7.13934020996093750000e+01) (20, -3.73331332206726074219e+00) (21, 1.66068136692047119141e-01) (22, -3.66869902610778808594e+00) (23, -1.67717285156250000000e+01) (24, 1.50000000000000000000e+03) (25, 1.50000000000000000000e+03) (26, -8.22498130798339843750e+00) (27, 1.75965385437011718750e+01) (28, 4.15027081966400146484e-01) (29, -1.50000000000000000000e+03) (30, -1.01964855194091796875e+01) (31, -3.86488914489746093750e+00) (32, 1.46493129730224609375e+01) (33, -5.25636970996856689453e-01) (34, 1.41987311840057373047e+00) (35, 1.89059090614318847656e+00) (36, 1.53418266773223876953e+00) (37, 6.65450841188430786133e-02) (0, -5.21845006942749023438e+00) (1, 2.67543582916259765625e+01) (2, -1.53123092651367187500e+00) (3, -3.41415905952453613281e+00) (4, 2.85791683197021484375e+00) (5, 1.39065921306610107422e-01) (6, -8.99097251892089843750e+00) (7, 6.51659846305847167969e-01) (8, 2.91870450973510742188e+00) (9, 1.48455358886718750000e+03) (10, 8.99190673828125000000e+02) (11, 5.35310859680175781250e+01) (12, 1.50000000000000000000e+03) (13, 9.58420349121093750000e+02) (14, 2.23478565216064453125e+01) (15, -1.27099621295928955078e+00) (16, 6.12637937068939208984e-01) (17, -6.49192512035369873047e-01) (18, 2.61878311634063720703e-01) (19, 1.23099107742309570312e+01) (20, 6.71726465225219726562e-01) (21, -1.68158745765686035156e+00) (22, -1.81303218007087707520e-01) (23, 1.81995403766632080078e+00) (24, 1.50000000000000000000e+03) (25, 1.50000000000000000000e+03) (26, 1.56278486251831054688e+01) (27, -3.23362462222576141357e-02) (28, 6.77710592746734619141e-01) (29, -1.50000000000000000000e+03) (30, 8.08345496654510498047e-01) (31, 1.41075044870376586914e-01) (32, -2.04502658843994140625e+01) (33, -6.03254497051239013672e-01) (34, -1.44378938674926757812e+01) (35, 4.19609785079956054688e-01) (36, -8.98773729801177978516e-01) (37, 1.55055254697799682617e-01) (0, 5.72750520706176757812e+00) (1, -2.54811191558837890625e+01) (2, -2.32239127159118652344e+00) (3, 2.45730257034301757812e+00) (4, 1.87188494205474853516e+00) (5, -3.47198367118835449219e+00) (6, -1.21993627548217773438e+01) (7, 4.38208878040313720703e-01) (8, 1.00452871322631835938e+01) (9, 1.44356262207031250000e+03) (10, 7.18461227416992187500e+00) (11, -3.71909103393554687500e+01) (12, 1.50000000000000000000e+03) (13, -1.56931106567382812500e+02) (14, 3.76737594604492187500e+01) (15, 3.97858200073242187500e+01) (16, 3.05049538612365722656e-01) (17, -1.22227334976196289062e+00) (18, 9.24339199066162109375e+00) (19, -5.03656327724456787109e-01) (20, 3.96882987022399902344e+00) (21, -1.92462539672851562500e+00) (22, -2.43926787376403808594e+00) (23, -6.00273561477661132812e+00) (24, 1.50000000000000000000e+03) (25, 1.50000000000000000000e+03) (26, 3.00627136230468750000e+00) (27, 1.25755465030670166016e+00) (28, -4.66914951801300048828e-01) (29, 2.15945987701416015625e+01) (30, -4.72128343582153320312e+00) (31, 2.28935375213623046875e+01) (32, -1.68418121337890625000e+01) (33, 8.92805680632591247559e-03) (34, 1.77023124694824218750e+00) (35, -3.83745932579040527344e+00) (36, 3.48667597770690917969e+00) (37, 3.29211115837097167969e-01) (0, -2.00991940498352050781e+00) (1, 1.81498737335205078125e+01) (2, -5.71147918701171875000e-01) (3, 1.98882627487182617188e+00) (4, 1.42153587341308593750e+01) (5, -2.21768856048583984375e+00) (6, 3.29959058761596679688e+00) (7, -3.05364668369293212891e-01) (8, -1.09689915180206298828e+00) (9, 1.16013867187500000000e+03) (10, -4.35468254089355468750e+01) (11, -9.50201568603515625000e+01) (12, 1.50000000000000000000e+03) (13, 8.47399978637695312500e+01) (14, 1.02300548553466796875e+01) (15, -2.72333812713623046875e+00) (16, 2.82337605953216552734e-01) (17, -3.59361052513122558594e+00) (18, -8.11883449554443359375e+00) (19, 5.36593675613403320312e-01) (20, -1.84660935401916503906e+00) (21, -2.28418469429016113281e-01) (22, -1.80982446670532226562e+00) (23, 4.48985004425048828125e+00) (24, 1.50000000000000000000e+03) (25, 1.50000000000000000000e+03) (26, -3.41400051116943359375e+00) (27, -7.90660762786865234375e+00) (28, -5.57388067245483398438e+00) (29, 1.81417810916900634766e+00) (30, -4.92088526487350463867e-01) (31, 3.90953779220581054688e+00) (32, -9.10016477108001708984e-01) (33, 1.16092956066131591797e+00) (34, 8.98453426361083984375e+00) (35, -6.01627111434936523438e-01) (36, 1.57884433865547180176e-01) (37, -3.15614253282546997070e-01) (0, -1.63065159320831298828e+00) (1, -9.70355510711669921875e+00) (2, 5.69567382335662841797e-01) (3, 4.43339139223098754883e-01) (4, -2.92135810852050781250e+00) (5, -2.55051851272583007812e+00) (6, -1.12390744686126708984e+00) (7, 5.39098501205444335938e-01) (8, -8.07632923126220703125e+00) (9, -3.17227172851562500000e+02) (10, 1.15545446777343750000e+03) (11, 3.82916450500488281250e+01) (12, 1.50000000000000000000e+03) (13, 4.77810401916503906250e+01) (14, 5.05642604827880859375e+00) (15, -2.18744818121194839478e-02) (16, -1.96379005908966064453e-01) (17, -1.03775167465209960938e+00) (18, -2.71410536766052246094e+00) (19, 6.58992588520050048828e-01) (20, -5.70035994052886962891e-01) (21, 2.47614666819572448730e-01) (22, 1.84217107295989990234e+00) (23, 3.21190810203552246094e+00) (24, 1.50000000000000000000e+03) (25, 1.50000000000000000000e+03) (26, 1.06263267993927001953e+00) (27, -6.11879646778106689453e-01) (28, -1.29450750350952148438e+00) (29, 4.03363227844238281250e+00) (30, -1.26547843217849731445e-01) (31, 1.29827773571014404297e+00) (32, -5.27819108963012695312e+00) (33, 1.86925494670867919922e+00) (34, -1.96910786628723144531e+00) (35, -8.84620130062103271484e-01) (36, -5.87259113788604736328e-01) (37, 2.00715929269790649414e-01) (0, 2.58263063430786132812e+00) (1, -1.34261102676391601562e+01) (2, 8.14421951770782470703e-01) (3, 4.24509137868881225586e-01) (4, -3.39492321014404296875e+00) (5, -8.71041491627693176270e-02) (6, 2.84476947784423828125e+00) (7, 3.94575446844100952148e-01) (8, -3.63346052169799804688e+00) (9, 1.48455358886718750000e+03) (10, -5.40268371582031250000e+02) (11, -4.09128646850585937500e+01) (12, 1.50000000000000000000e+03) (13, 1.97235488891601562500e+01) (14, 1.12707357406616210938e+01) (15, -1.40342116355895996094e+00) (16, -8.07160139083862304688e-01) (17, -6.43197059631347656250e-01) (18, 2.32376813888549804688e+00) (19, 7.03159904479980468750e+00) (20, -1.12484920024871826172e+00) (21, 8.02707299590110778809e-02) (22, 6.58537447452545166016e-01) (23, -5.27593016624450683594e-01) (24, 1.50000000000000000000e+03) (25, 1.50000000000000000000e+03) (26, 5.66239595413208007812e+00) (27, -7.54151940345764160156e-02) (28, 6.65827035903930664062e-01) (29, 5.34389448165893554688e+00) (30, -2.34111142158508300781e+00) (31, -4.07120175659656524658e-02) (32, -2.12307310104370117188e+00) (33, -6.30154132843017578125e-01) (34, 1.63491344451904296875e+00) (35, -4.49233382940292358398e-01) (36, 5.52350711822509765625e+00) (37, 3.02275985479354858398e-01) (0, 4.98679494857788085938e+00) (1, -8.80550861358642578125e+00) (2, 2.92784273624420166016e-01) (3, -1.92509025335311889648e-01) (4, -8.45111191272735595703e-01) (5, -4.45471495389938354492e-01) (6, 2.83801484107971191406e+00) (7, 7.69797665998339653015e-03) (8, 3.08060050010681152344e+00) (9, 1.44356262207031250000e+03) (10, 6.18500549316406250000e+02) (11, 3.37818717956542968750e+01) (12, 1.50000000000000000000e+03) (13, -6.63059875488281250000e+02) (14, -2.04949665069580078125e+00) (15, 1.16260123252868652344e+00) (16, -2.45102625340223312378e-02) (17, 7.11660563945770263672e-01) (18, 1.53774428367614746094e+00) (19, 4.63201475143432617188e+00) (20, -6.40056058764457702637e-02) (21, 1.10343880951404571533e-01) (22, 2.41761779785156250000e+00) (23, -1.76046693325042724609e+00) (24, 1.50000000000000000000e+03) (25, 1.50000000000000000000e+03) (26, -5.62634801864624023438e+00) (27, -4.05157178640365600586e-01) (28, 3.08916062116622924805e-01) (29, -1.50000000000000000000e+03) (30, -2.10227847099304199219e-01) (31, -8.27179670333862304688e-01) (32, 4.00111389160156250000e+00) (33, -8.28552663326263427734e-01) (34, -4.55176401138305664062e+00) (35, 5.19033908843994140625e-01) (36, 1.18341892957687377930e-01) (37, 5.86153082549571990967e-02) (0, 1.26832628250122070312e+00) (1, -5.54444789886474609375e+00) (2, 3.61779749393463134766e-01) (3, 1.69022250920534133911e-02) (4, 6.40505433082580566406e-01) (5, -1.21540534496307373047e+00) (6, 7.17179775238037109375e+00) (7, 3.38025897741317749023e-01) (8, 2.03178390860557556152e-01) (9, -7.34099365234375000000e+02) (10, -3.11666870117187500000e+02) (11, -2.16577892303466796875e+01) (12, 1.50000000000000000000e+03) (13, -2.46726932525634765625e+01) (14, 3.71322607994079589844e+00) (15, -1.43219575285911560059e-01) (16, 1.17721867561340332031e+00) (17, -6.76007568836212158203e-01) (18, -1.92961215972900390625e+00) (19, -5.54429292678833007812e+00) (20, 2.27323487401008605957e-01) (21, 9.68298614025115966797e-02) (22, -3.39873695373535156250e+00) (23, -3.01504921913146972656e+00) (24, 1.50000000000000000000e+03) (25, 1.50000000000000000000e+03) (26, -3.19062399864196777344e+00) (27, 8.10775607824325561523e-02) (28, -4.14071768522262573242e-01) (29, 1.01758785247802734375e+01) (30, 3.69880962371826171875e+00) (31, -9.35639023780822753906e-01) (32, -6.29506587982177734375e+00) (33, -6.17237806320190429688e-01) (34, 2.88656544685363769531e+00) (35, 3.39438885450363159180e-01) (36, 2.76671588420867919922e-01) (37, 2.21904173493385314941e-01) (0, -4.15055847167968750000e+01) (1, -5.73625366210937500000e+02) (2, -7.19949579238891601562e+00) (3, -1.80942809581756591797e+00) (4, 2.86238136291503906250e+01) (5, 2.60155410766601562500e+01) (6, -6.81725158691406250000e+01) (7, 3.35324704647064208984e-01) (8, 8.44273071289062500000e+01) (9, -3.98411499023437500000e+02) (10, -6.12296752929687500000e+02) (11, 1.50000000000000000000e+03) (12, 1.50000000000000000000e+03) (13, 7.73427612304687500000e+02) (14, 1.29654199218750000000e+03) (15, -4.66469717025756835938e+00) (16, -6.15435457229614257812e+00) (17, 1.29830513000488281250e+01) (18, -1.36274404525756835938e+01) (19, 3.14833526611328125000e+01) (20, 1.14820055663585662842e-01) (21, -1.54177069664001464844e-01) (22, -4.33651351928710937500e+01) (23, -1.81203854084014892578e+00) (24, 1.50000000000000000000e+03) (25, 1.50000000000000000000e+03) (26, -6.09104537963867187500e+00) (27, 3.41430217027664184570e-01) (28, 3.30700378417968750000e+01) (29, -2.48364925384521484375e+01) (30, 4.27217531204223632812e+00) (31, 1.91764411926269531250e+01) (32, 1.74294452667236328125e+01) (33, -1.40294580459594726562e+01) (34, 1.86557805538177490234e+00) (35, 2.76441603899002075195e-01) (36, 1.72283407300710678101e-02) (37, 4.16162550449371337891e-01) (0, -2.93309450149536132812e+00) (1, 5.58575096130371093750e+01) (2, -1.26463603973388671875e+00) (3, 3.97167205810546875000e-01) (4, 5.36554574966430664062e+00) (5, 4.77411478757858276367e-01) (6, 5.26936948299407958984e-01) (7, -3.66304516792297363281e-02) (8, 7.09356355667114257812e+00) (9, -4.67057434082031250000e+02) (10, -1.71712158203125000000e+02) (11, 2.55568962097167968750e+01) (12, 1.50000000000000000000e+03) (13, 9.87080841064453125000e+01) (14, -1.83189353942871093750e+01) (15, -1.48422992229461669922e+00) (16, -8.30639153718948364258e-02) (17, 3.78564983606338500977e-01) (18, 1.41356337070465087891e+00) (19, 6.06669855117797851562e+00) (20, -4.13612574338912963867e-02) (21, -1.37366548180580139160e-01) (22, 2.40514636039733886719e+00) (23, 5.92554626464843750000e+01) (24, 1.50000000000000000000e+03) (25, 1.50000000000000000000e+03) (26, 4.28818702697753906250e+00) (27, -3.63959002494812011719e+00) (28, -1.67658007144927978516e+00) (29, 1.28589808940887451172e-01) (30, 1.86725628376007080078e+00) (31, -1.45004200935363769531e+00) (32, -2.54296064376831054688e+00) (33, 2.18260973691940307617e-01) (34, 2.44779896736145019531e+00) (35, 2.02419400215148925781e-01) (36, -6.53501272201538085938e-01) (37, 1.21447175741195678711e-01) (0, -4.36303949356079101562e+00) (1, -3.85653648376464843750e+01) (2, -1.20315563678741455078e+00) (3, 7.16859483718872070312e+00) (4, -2.99552178382873535156e+00) (5, 4.76431369781494140625e-01) (6, 4.23039245605468750000e+01) (7, -4.61477726697921752930e-01) (8, -4.33968429565429687500e+01) (9, 1.44356262207031250000e+03) (10, -2.87685337066650390625e+01) (11, -2.47261924743652343750e+01) (12, 1.50000000000000000000e+03) (13, 1.50000000000000000000e+03) (14, -1.51493477821350097656e+00) (15, -3.76166152954101562500e+00) (16, -2.54698896408081054688e+00) (17, -2.48518943786621093750e+00) (18, -5.13282012939453125000e+00) (19, 4.90432596206665039062e+00) (20, 8.32546329498291015625e+00) (21, 1.38337719440460205078e+00) (22, 1.10810813903808593750e+01) (23, -2.27352676391601562500e+01) (24, 1.50000000000000000000e+03) (25, 1.50000000000000000000e+03) (26, 4.17072486877441406250e+01) (27, 5.45300979614257812500e+01) (28, -2.15436053276062011719e+00) (29, -1.49487963867187500000e+03) (30, -3.66493558883666992188e+00) (31, -2.64398264884948730469e+00) (32, 1.50000000000000000000e+03) (33, 4.96113866567611694336e-01) (34, 1.45915889739990234375e+00) (35, 1.03121006488800048828e+00) (36, 5.81285095214843750000e+00) (37, 1.77427619695663452148e-01) (0, 1.96313724517822265625e+01) (1, 6.98027648925781250000e+01) (2, 1.73238289356231689453e+00) (3, -6.29167222976684570312e+00) (4, -7.68991994857788085938e+00) (5, 8.55621457099914550781e-01) (6, -1.72560138702392578125e+01) (7, 2.23424911499023437500e-01) (8, 7.64218997955322265625e+00) (9, 1.44356262207031250000e+03) (10, 2.28275947570800781250e+01) (11, 8.96580505371093750000e+01) (12, 1.50000000000000000000e+03) (13, -2.33347956091165542603e-02) (14, -6.36866855621337890625e+00) (15, 3.43245458602905273438e+00) (16, -8.61472845077514648438e-01) (17, 4.64695811271667480469e-01) (18, -1.37058448791503906250e+00) (19, 5.41286230087280273438e+00) (20, -6.50299310684204101562e-01) (21, -1.80794751644134521484e+00) (22, 4.30134534835815429688e+00) (23, -2.98776078224182128906e+00) (24, 1.50000000000000000000e+03) (25, 1.50000000000000000000e+03) (26, -4.89713954925537109375e+00) (27, 1.50000000000000000000e+03) (28, -1.10767940059304237366e-02) (29, -3.66419124603271484375e+00) (30, -4.55353260040283203125e+00) (31, -1.01832523345947265625e+01) (32, 6.31966352462768554688e+00) (33, -2.06958150863647460938e+00) (34, -3.45010280609130859375e+00) (35, 7.83175110816955566406e-01) (36, 1.37182302474975585938e+01) (37, 2.96585530042648315430e-01) (0, 8.68884563446044921875e+00) (1, -4.01902532577514648438e+00) (2, 7.90422821044921875000e+00) (3, 5.73892474174499511719e-01) (4, -1.17663335800170898438e+01) (5, 1.12241482734680175781e+00) (6, 4.89232730865478515625e+00) (7, 4.03787270188331604004e-02) (8, -6.22846460342407226562e+00) (9, 1.44356262207031250000e+03) (10, 4.94093353271484375000e+02) (11, -1.51573806762695312500e+02) (12, 1.50000000000000000000e+03) (13, -1.15311840820312500000e+03) (14, -3.42378883361816406250e+01) (15, 4.80769109725952148438e+00) (16, 1.91501331329345703125e+00) (17, 4.90507459640502929688e+00) (18, 1.23584508895874023438e+00) (19, 2.06699028015136718750e+01) (20, 2.49231338500976562500e+00) (21, 1.16250067949295043945e-01) (22, -5.94857025146484375000e+00) (23, -8.08373069763183593750e+00) (24, 1.50000000000000000000e+03) (25, 1.50000000000000000000e+03) (26, 3.65947294235229492188e+00) (27, 3.45424675941467285156e+00) (28, -1.31727433204650878906e+00) (29, 2.42750096321105957031e+00) (30, 9.26149845123291015625e+00) (31, -3.32167005538940429688e+00) (32, -5.22615003585815429688e+00) (33, -4.23486769199371337891e-01) (34, 2.74820327758789062500e+01) (35, 1.97097468376159667969e+00) (36, -2.69216597080230712891e-01) (37, 1.25695899128913879395e-01) (0, 9.17034530639648437500e+00) (1, -1.04037656784057617188e+01) (2, 4.62688827514648437500e+00) (3, -1.57371509075164794922e+00) (4, -1.74989986419677734375e+01) (5, -9.40009474754333496094e-01) (6, -1.06848049163818359375e+00) (7, 1.23734332621097564697e-01) (8, 1.75979797363281250000e+02) (9, 1.44356262207031250000e+03) (10, -1.17462438964843750000e+03) (11, 1.50000000000000000000e+03) (12, 1.50000000000000000000e+03) (13, 1.50000000000000000000e+03) (14, 1.88657669067382812500e+02) (15, 9.14417207241058349609e-01) (16, -1.30164456367492675781e+00) (17, 3.16316580772399902344e+00) (18, 1.04919576644897460938e+00) (19, -5.90883016586303710938e+00) (20, 9.14735794067382812500e-01) (21, 1.18613100051879882812e+00) (22, -3.75358343124389648438e+00) (23, -1.19813137054443359375e+01) (24, 1.50000000000000000000e+03) (25, 1.50000000000000000000e+03) (26, -6.04621601104736328125e+00) (27, -1.25200128555297851562e+00) (28, 1.12371883392333984375e+01) (29, -2.70658326148986816406e+00) (30, -1.36651396751403808594e-01) (31, -3.91560053825378417969e+00) (32, -2.42004394531250000000e+00) (33, 3.13883614540100097656e+00) (34, 9.43605880737304687500e+01) (35, -2.47348427772521972656e+00) (36, 5.51497983932495117188e+00) (37, -1.11629828810691833496e-01) (0, -8.71892833709716796875e+00) (1, 2.20696754455566406250e+01) (2, -3.85008543729782104492e-01) (3, 1.31025314331054687500e+00) (4, -6.11645936965942382812e+00) (5, -7.62787282466888427734e-01) (6, 5.01206398010253906250e+00) (7, 3.05432140827178955078e-01) (8, -3.93023300170898437500e+00) (9, -1.10307716369628906250e+02) (10, 5.00850143432617187500e+01) (11, 1.60659732818603515625e+01) (12, 1.50000000000000000000e+03) (13, 2.47466773986816406250e+01) (14, -2.00636596679687500000e+01) (15, -1.51759538650512695312e+01) (16, 9.75754559040069580078e-01) (17, -1.86105382442474365234e+00) (18, -2.08962368965148925781e+00) (19, -1.02501735687255859375e+01) (20, -5.72969675064086914062e-01) (21, -8.74017030000686645508e-02) (22, 1.38546854257583618164e-01) (23, 3.55137848854064941406e+00) (24, 1.50000000000000000000e+03) (25, 1.50000000000000000000e+03) (26, -3.27478706836700439453e-01) (27, 3.56980800628662109375e-01) (28, -2.61207848787307739258e-01) (29, -1.50000000000000000000e+03) (30, 1.83830893039703369141e+00) (31, -1.39618694782257080078e+00) (32, 1.49905041503906250000e+03) (33, 1.59928634762763977051e-01) (34, -2.48352551460266113281e+00) (35, 3.85952770709991455078e-01) (36, 4.17815707623958587646e-02) (37, 1.26962468028068542480e-01) (38, 6.74714326858520507812e-01) (39, 4.35082197189331054688e-01) (40, 7.52295076847076416016e-01) (41, 7.75425255298614501953e-01) (42, 9.18886542320251464844e-01) (43, 5.97471892833709716797e-01) (44, 1.28989124298095703125e+00) (45, 1.89980685710906982422e+00) (46, 1.08782243728637695312e+00) (47, 1.18586444854736328125e+00) (48, 1.23978853225708007812e+00) (49, 4.64241415262222290039e-01) (50, 1.17559635639190673828e+00) (51, 5.72866380214691162109e-01) (52, 8.58366787433624267578e-01) (53, 7.76501297950744628906e-01) (54, 7.07731962203979492188e-01) (55, 1.55070161819458007812e+00) (56, 3.43522250652313232422e-01) 
