FANN_FLO_2.1
num_layers=3
learning_rate=0.700000
connection_rate=1.000000
network_type=0
learning_momentum=0.000000
training_algorithm=2
train_error_function=1
train_stop_function=0
cascade_output_change_fraction=0.010000
quickprop_decay=-0.000100
quickprop_mu=1.750000
rprop_increase_factor=1.200000
rprop_decrease_factor=0.500000
rprop_delta_min=0.000000
rprop_delta_max=50.000000
rprop_delta_zero=0.100000
cascade_output_stagnation_epochs=12
cascade_candidate_change_fraction=0.010000
cascade_candidate_stagnation_epochs=12
cascade_max_out_epochs=150
cascade_max_cand_epochs=150
cascade_num_candidate_groups=2
bit_fail_limit=3.49999994039535522461e-01
cascade_candidate_limit=1.00000000000000000000e+03
cascade_weight_multiplier=4.00000005960464477539e-01
cascade_activation_functions_count=10
cascade_activation_functions=3 5 7 8 10 11 14 15 16 17 
cascade_activation_steepnesses_count=4
cascade_activation_steepnesses=2.50000000000000000000e-01 5.00000000000000000000e-01 7.50000000000000000000e-01 1.00000000000000000000e+00 
layer_sizes=38 19 2 
scale_included=0
neurons (num_inputs, activation_function, activation_steepness)=(0, 0, 0.00000000000000000000e+00) (0, 0, 0.00000000000000000000e+00) (0, 0, 0.00000000000000000000e+00) (0, 0, 0.00000000000000000000e+00) (0, 0, 0.00000000000000000000e+00) (0, 0, 0.00000000000000000000e+00) (0, 0, 0.00000000000000000000e+00) (0, 0, 0.00000000000000000000e+00) (0, 0, 0.00000000000000000000e+00) (0, 0, 0.00000000000000000000e+00) (0, 0, 0.00000000000000000000e+00) (0, 0, 0.00000000000000000000e+00) (0, 0, 0.00000000000000000000e+00) (0, 0, 0.00000000000000000000e+00) (0, 0, 0.00000000000000000000e+00) (0, 0, 0.00000000000000000000e+00) (0, 0, 0.00000000000000000000e+00) (0, 0, 0.00000000000000000000e+00) (0, 0, 0.00000000000000000000e+00) (0, 0, 0.00000000000000000000e+00) (0, 0, 0.00000000000000000000e+00) (0, 0, 0.00000000000000000000e+00) (0, 0, 0.00000000000000000000e+00) (0, 0, 0.00000000000000000000e+00) (0, 0, 0.00000000000000000000e+00) (0, 0, 0.00000000000000000000e+00) (0, 0, 0.00000000000000000000e+00) (0, 0, 0.00000000000000000000e+00) (0, 0, 0.00000000000000000000e+00) (0, 0, 0.00000000000000000000e+00) (0, 0, 0.00000000000000000000e+00) (0, 0, 0.00000000000000000000e+00) (0, 0, 0.00000000000000000000e+00) (0, 0, 0.00000000000000000000e+00) (0, 0, 0.00000000000000000000e+00) (0, 0, 0.00000000000000000000e+00) (0, 0, 0.00000000000000000000e+00) (0, 0, 0.00000000000000000000e+00) (38, 5, 5.00000000000000000000e-01) (38, 5, 5.00000000000000000000e-01) (38, 5, 5.00000000000000000000e-01) (38, 5, 5.00000000000000000000e-01) (38, 5, 5.00000000000000000000e-01) (38, 5, 5.00000000000000000000e-01) (38, 5, 5.00000000000000000000e-01) (38, 5, 5.00000000000000000000e-01) (38, 5, 5.00000000000000000000e-01) (38, 5, 5.00000000000000000000e-01) (38, 5, 5.00000000000000000000e-01) (38, 5, 5.00000000000000000000e-01) (38, 5, 5.00000000000000000000e-01) (38, 5, 5.00000000000000000000e-01) (38, 5, 5.00000000000000000000e-01) (38, 5, 5.00000000000000000000e-01) (38, 5, 5.00000000000000000000e-01) (38, 5, 5.00000000000000000000e-01) (0, 5, 0.00000000000000000000e+00) (19, 13, 5.00000000000000000000e-01) (0, 13, 0.00000000000000000000e+00) 
connections (connected_to_neuron, weight)=(0, -4.45497751235961914062e+00) (1, -1.77324695587158203125e+01) (2, 5.38381636142730712891e-01) (3, 2.69637131690979003906e+00) (4, -1.06783914566040039062e+00) (5, 6.17146849632263183594e-01) (6, 1.61540145874023437500e+01) (7, 2.21307247877120971680e-01) (8, 8.53276062011718750000e+00) (9, 1.50000000000000000000e+03) (10, -6.20265846252441406250e+01) (11, -3.14212249755859375000e+02) (12, 1.50000000000000000000e+03) (13, 2.18923828125000000000e+02) (14, 5.02407951354980468750e+01) (15, -6.38993215560913085938e+00) (16, 2.94330239295959472656e-01) (17, 1.56037342548370361328e+00) (18, 2.44307339191436767578e-01) (19, 1.03370463848114013672e+00) (20, 1.31150615215301513672e+00) (21, -1.96419429779052734375e+00) (22, 1.22084236145019531250e+00) (23, 1.31117415428161621094e+00) (24, 1.50000000000000000000e+03) (25, 1.50000000000000000000e+03) (26, 2.45787546038627624512e-01) (27, 1.19313061237335205078e+00) (28, 4.35222625732421875000e-01) (29, -8.24255180358886718750e+00) (30, -3.81461954116821289062e+00) (31, -1.19746994972229003906e+00) (32, 2.13622684478759765625e+01) (33, 8.54393362998962402344e-01) (34, -3.16194748878479003906e+00) (35, -4.12681251764297485352e-01) (36, -2.67153310775756835938e+00) (37, 3.76766651868820190430e-01) (0, -1.44923293590545654297e+00) (1, 2.87302517890930175781e+00) (2, -1.28750121593475341797e+00) (3, 4.05164241790771484375e+00) (4, 5.82867527008056640625e+00) (5, 1.60421490669250488281e+00) (6, 5.57977409362792968750e+01) (7, 4.75694209337234497070e-01) (8, 5.68351507186889648438e+00) (9, 1.50000000000000000000e+03) (10, 5.59175376892089843750e+01) (11, -4.72980926513671875000e+02) (12, 1.50000000000000000000e+03) (13, -2.76796386718750000000e+02) (14, 1.95285446166992187500e+02) (15, 2.12234077453613281250e+01) (16, 2.98277759552001953125e+00) (17, -3.96087408065795898438e+00) (18, -1.79742031097412109375e+01) (19, 4.46785259246826171875e+00) (20, -1.76843062043190002441e-01) (21, -4.63623380661010742188e+00) (22, -4.64691543579101562500e+00) (23, -5.00942230224609375000e+00) (24, 1.50000000000000000000e+03) (25, 1.50000000000000000000e+03) (26, 4.91386747360229492188e+00) (27, -2.96026206016540527344e+00) (28, 2.35505032539367675781e+00) (29, -1.00852203369140625000e+01) (30, -2.97911453247070312500e+00) (31, 2.59183287620544433594e-01) (32, -2.25562119483947753906e+00) (33, 1.08036565780639648438e+00) (34, -4.39898103475570678711e-01) (35, -1.29897248744964599609e+00) (36, -8.44137907028198242188e-01) (37, 3.73267084360122680664e-01) (0, -1.79071187973022460938e-01) (1, -2.52230396270751953125e+01) (2, 4.45260763168334960938e-01) (3, -4.46787625551223754883e-01) (4, 1.12062044441699981689e-01) (5, 3.43452930450439453125e-01) (6, 4.95017862319946289062e+00) (7, -2.88080666214227676392e-02) (8, 2.96169304847717285156e+00) (9, 1.50000000000000000000e+03) (10, 3.16675376892089843750e+01) (11, -2.52898529052734375000e+02) (12, 1.50000000000000000000e+03) (13, 2.74344543457031250000e+02) (14, 5.26139402389526367188e+00) (15, 2.12355446815490722656e+00) (16, -2.23478510975837707520e-01) (17, -4.84744012355804443359e-01) (18, -9.80417504906654357910e-02) (19, 5.93077182769775390625e-01) (20, 3.99932920932769775391e-01) (21, -4.85288321971893310547e-01) (22, 1.16561867296695709229e-01) (23, 2.01209768652915954590e-01) (24, 1.50000000000000000000e+03) (25, 1.50000000000000000000e+03) (26, -1.88738018274307250977e-01) (27, -5.99896430969238281250e-01) (28, -1.82365596294403076172e-01) (29, -4.94556903839111328125e+00) (30, 1.54282435774803161621e-01) (31, -4.59060519933700561523e-01) (32, 1.94332866668701171875e+01) (33, -1.09447248280048370361e-01) (34, 3.20445394515991210938e+00) (35, -3.95120173692703247070e-01) (36, 4.13759112358093261719e-01) (37, 3.21854464709758758545e-02) (0, -1.33085775375366210938e+00) (1, -2.15579071044921875000e+01) (2, -1.51829153299331665039e-01) (3, 3.00036966800689697266e-01) (4, -4.98806565999984741211e-01) (5, -3.71135056018829345703e-01) (6, -4.91230869293212890625e+00) (7, -9.06155109405517578125e-02) (8, 3.58797264099121093750e+01) (9, 1.50000000000000000000e+03) (10, 1.60621978759765625000e+02) (11, -1.50000000000000000000e+03) (12, 1.50000000000000000000e+03) (13, 9.09245529174804687500e+01) (14, -9.00285780429840087891e-01) (15, 2.86725234985351562500e+00) (16, 2.69181460142135620117e-01) (17, -4.76646542549133300781e-01) (18, -5.13384103775024414062e-01) (19, 2.45332984924316406250e+01) (20, 1.34471371769905090332e-01) (21, 1.13706529140472412109e+00) (22, -1.43477118015289306641e+00) (23, 1.32224130630493164062e+00) (24, 1.50000000000000000000e+03) (25, 1.50000000000000000000e+03) (26, -2.14029622077941894531e+00) (27, 7.73870587348937988281e-01) (28, 5.03979325294494628906e-01) (29, -1.37935668945312500000e+03) (30, 2.07828700542449951172e-01) (31, 2.91789025068283081055e-01) (32, 1.50000000000000000000e+03) (33, -7.74719044566154479980e-02) (34, -8.22156727313995361328e-01) (35, 5.19786059856414794922e-01) (36, 1.22252357006072998047e+00) (37, 6.08538165688514709473e-02) (0, -1.03762827813625335693e-01) (1, -4.02823410034179687500e+01) (2, 1.36287009716033935547e+00) (3, -1.45047020912170410156e+00) (4, -4.61143970489501953125e+00) (5, -4.80208444595336914062e+00) (6, -1.70476474761962890625e+01) (7, 1.92843541502952575684e-01) (8, 5.72904510498046875000e+01) (9, 1.50000000000000000000e+03) (10, -5.00879486083984375000e+02) (11, 1.50000000000000000000e+03) (12, 1.50000000000000000000e+03) (13, 1.44337219238281250000e+02) (14, 3.42994537353515625000e+02) (15, 2.13375782966613769531e+00) (16, -2.09522068500518798828e-01) (17, -4.74634796380996704102e-01) (18, 2.45963841676712036133e-01) (19, -7.66429603099822998047e-02) (20, 5.86681127548217773438e-01) (21, 2.11104559898376464844e+00) (22, -5.26433646678924560547e-01) (23, 7.89755463600158691406e-01) (24, 1.50000000000000000000e+03) (25, 1.50000000000000000000e+03) (26, -7.85157012939453125000e+00) (27, 1.95663377642631530762e-01) (28, -2.46704041957855224609e-01) (29, -4.32055234909057617188e+00) (30, -1.18341004848480224609e+00) (31, 5.96839332580566406250e+00) (32, -5.00010871887207031250e+00) (33, 2.84303689002990722656e+00) (34, 2.31265068054199218750e+00) (35, 2.79128050804138183594e+00) (36, 2.48360678553581237793e-01) (37, 2.25845813751220703125e-01) (0, 2.13648939132690429688e+00) (1, 5.11313343048095703125e+00) (2, -1.17885208129882812500e+00) (3, 2.20563578605651855469e+00) (4, -9.15149974822998046875e+00) (5, -8.16485643386840820312e-01) (6, -8.49380493164062500000e+00) (7, 1.32713150978088378906e+00) (8, -1.47935323715209960938e+01) (9, 1.50000000000000000000e+03) (10, 1.49795373535156250000e+03) (11, -1.44896130371093750000e+03) (12, 1.50000000000000000000e+03) (13, -5.85313491821289062500e+01) (14, 1.85505809783935546875e+01) (15, -2.45757522583007812500e+01) (16, -8.36527228355407714844e-01) (17, -5.85581016540527343750e+00) (18, 3.44204044342041015625e+00) (19, 6.19227981567382812500e+00) (20, 1.68836650848388671875e+01) (21, 1.16826343536376953125e+01) (22, -1.62735784053802490234e+00) (23, 2.61915607452392578125e+01) (24, 1.50000000000000000000e+03) (25, 1.50000000000000000000e+03) (26, -4.90591764450073242188e+00) (27, 6.64919567108154296875e+00) (28, 6.78178358078002929688e+00) (29, 1.49529736328125000000e+03) (30, 1.10398352050781250000e+03) (31, 1.70373022556304931641e+00) (32, -5.39522767066955566406e-01) (33, 7.68794476985931396484e-01) (34, 5.77387142181396484375e+00) (35, 1.54526710510253906250e+01) (36, 7.91101741790771484375e+00) (37, 3.56835335493087768555e-01) (0, -2.81762570142745971680e-01) (1, 2.27107238769531250000e+00) (2, -2.74685800075531005859e-01) (3, 8.03520455956459045410e-02) (4, 7.73680627346038818359e-01) (5, 1.34735807776451110840e-01) (6, -3.75764966011047363281e-01) (7, 1.98413521051406860352e-01) (8, 1.36034095287322998047e+00) (9, 1.50000000000000000000e+03) (10, 2.24963226318359375000e+02) (11, -1.69380920410156250000e+02) (12, 1.50000000000000000000e+03) (13, 2.23563423156738281250e+01) (14, 9.55785369873046875000e+00) (15, 9.81277644634246826172e-01) (16, 3.84272605180740356445e-01) (17, -3.56759041547775268555e-01) (18, 3.98940682411193847656e-01) (19, 6.80884313583374023438e+00) (20, 1.26083925366401672363e-01) (21, -7.98849910497665405273e-02) (22, -7.59521186351776123047e-01) (23, -8.12230765819549560547e-01) (24, 1.50000000000000000000e+03) (25, 1.50000000000000000000e+03) (26, 1.32892102003097534180e-01) (27, -4.26370918750762939453e-01) (28, 1.75458610057830810547e-01) (29, -1.34539675712585449219e+00) (30, -2.79696512222290039062e+00) (31, 1.03797405958175659180e-01) (32, -8.94376873970031738281e-01) (33, -3.63867520354688167572e-03) (34, -1.12313532829284667969e+00) (35, 1.37717545032501220703e-01) (36, 4.66294437646865844727e-01) (37, 2.01053649187088012695e-01) (0, -2.40397319197654724121e-01) (1, 4.65071648359298706055e-01) (2, 1.42792046070098876953e+00) (3, 4.46455448865890502930e-01) (4, -2.66323029994964599609e-01) (5, -5.87123823165893554688e+00) (6, -2.18828940391540527344e+00) (7, 1.04011289775371551514e-01) (8, 2.48495635986328125000e+01) (9, 1.50000000000000000000e+03) (10, 1.81523529052734375000e+02) (11, 1.63364852905273437500e+02) (12, 1.50000000000000000000e+03) (13, -3.86773529052734375000e+01) (14, -1.10302467346191406250e+01) (15, -1.51140427589416503906e+00) (16, 3.58409821987152099609e-01) (17, -8.25896501541137695312e-01) (18, -3.58094185590744018555e-01) (19, 7.70127773284912109375e-01) (20, -4.78034466505050659180e-03) (21, 3.60561609268188476562e-01) (22, 3.21748304367065429688e+00) (23, 8.30181241035461425781e-01) (24, 1.50000000000000000000e+03) (25, 1.50000000000000000000e+03) (26, 1.19303154945373535156e+00) (27, -8.08490216732025146484e-01) (28, -6.92403376102447509766e-01) (29, 6.49803102016448974609e-01) (30, 3.76338934898376464844e+00) (31, -1.53145685195922851562e+01) (32, -1.50000000000000000000e+03) (33, -1.23125422000885009766e+00) (34, -1.93287078291177749634e-02) (35, -5.35915531218051910400e-02) (36, -1.26310849189758300781e+00) (37, 2.34742797911167144775e-02) (0, -5.70829689502716064453e-01) (1, -1.12904548645019531250e+02) (2, -9.88415181636810302734e-01) (3, -8.89283478260040283203e-01) (4, 3.03943252563476562500e+00) (5, -1.87023472785949707031e+00) (6, -2.11685142517089843750e+01) (7, 1.84058094024658203125e+00) (8, 4.63009786605834960938e+00) (9, 1.50000000000000000000e+03) (10, -4.18028335571289062500e+01) (11, 1.13389965820312500000e+03) (12, 1.50000000000000000000e+03) (13, 4.22774597167968750000e+02) (14, -6.38713073730468750000e+00) (15, 1.57119741439819335938e+01) (16, -5.16928195953369140625e-01) (17, -1.28478803634643554688e+01) (18, 1.84802460670471191406e+00) (19, 1.13851332664489746094e+00) (20, -1.63681936264038085938e+00) (21, -7.06499958038330078125e+00) (22, 3.26610922813415527344e+00) (23, 5.22167253494262695312e+00) (24, 1.50000000000000000000e+03) (25, 1.50000000000000000000e+03) (26, 2.43441009521484375000e+00) (27, -7.30257749557495117188e-01) (28, 9.99795019626617431641e-01) (29, 9.26765382289886474609e-01) (30, 4.62207889556884765625e+00) (31, 6.07953846454620361328e-01) (32, -1.50000000000000000000e+03) (33, -5.33280931413173675537e-02) (34, -2.11614418029785156250e+01) (35, -3.55073034763336181641e-01) (36, 2.90125083923339843750e+00) (37, 1.40646621584892272949e-01) (0, -4.57259321212768554688e+00) (1, -7.42511444091796875000e+01) (2, -3.21629136800765991211e-01) (3, -2.28240776062011718750e+00) (4, 6.03428411483764648438e+00) (5, 7.12026298046112060547e-01) (6, 7.02067995071411132812e+00) (7, -3.33239138126373291016e-02) (8, 1.39724111557006835938e+01) (9, 1.50000000000000000000e+03) (10, -9.45741729736328125000e+01) (11, -6.72764282226562500000e+02) (12, 1.50000000000000000000e+03) (13, -1.13329017639160156250e+02) (14, 2.83290119171142578125e+01) (15, 3.73067557811737060547e-01) (16, 7.79843389987945556641e-01) (17, 5.03032088279724121094e-01) (18, 2.85545557737350463867e-01) (19, 3.32348060607910156250e+01) (20, -2.83129763603210449219e+00) (21, 3.44495940208435058594e+00) (22, 2.59622502326965332031e+00) (23, 4.01289373636245727539e-01) (24, 1.50000000000000000000e+03) (25, 1.50000000000000000000e+03) (26, 5.75933218002319335938e-01) (27, -9.81082797050476074219e-01) (28, 5.03898382186889648438e-01) (29, -4.47410202026367187500e+00) (30, 3.10675048828125000000e+00) (31, -1.13866880536079406738e-01) (32, 2.02591371536254882812e+00) (33, -1.36963057518005371094e+00) (34, -2.14598789215087890625e+01) (35, 3.23024243116378784180e-01) (36, 4.36814874410629272461e-01) (37, -1.61852072924375534058e-02) (0, 9.83380317687988281250e+00) (1, 3.40826759338378906250e+01) (2, 1.41291773319244384766e+00) (3, -2.34372305870056152344e+00) (4, -1.95070040225982666016e+00) (5, 4.13335084915161132812e-01) (6, -8.44446277618408203125e+00) (7, -7.51503556966781616211e-02) (8, 3.78198361396789550781e+00) (9, 1.50000000000000000000e+03) (10, 1.49795373535156250000e+03) (11, -4.62980773925781250000e+02) (12, 1.50000000000000000000e+03) (13, 4.77976409912109375000e+02) (14, -2.71136684417724609375e+01) (15, -4.46005773544311523438e+00) (16, -2.68717765808105468750e+00) (17, 7.36244857311248779297e-01) (18, 5.39702081680297851562e+00) (19, 1.30559473037719726562e+01) (20, 2.21987152099609375000e+00) (21, 7.65986442565917968750e-02) (22, 6.69340372085571289062e-01) (23, 5.67850065231323242188e+00) (24, 1.50000000000000000000e+03) (25, 1.50000000000000000000e+03) (26, -9.00203895568847656250e+00) (27, -4.30584043264389038086e-01) (28, 7.26988525390625000000e+02) (29, 1.49529736328125000000e+03) (30, -7.72919058799743652344e-01) (31, 1.66713249683380126953e+00) (32, -8.81748485565185546875e+00) (33, -3.49753284454345703125e+00) (34, 2.13489990234375000000e+01) (35, 4.84337568283081054688e+00) (36, 6.69228982925415039062e+00) (37, -7.51638412475585937500e-02) (0, -6.44848346710205078125e-02) (1, 1.70306396484375000000e+01) (2, -5.04265427589416503906e-01) (3, -3.13782133162021636963e-02) (4, 1.70962250232696533203e+00) (5, 1.17864213883876800537e-01) (6, -5.52317678928375244141e-01) (7, 3.45481261610984802246e-02) (8, -1.19844322204589843750e+01) (9, 1.50000000000000000000e+03) (10, -4.16169548034667968750e+01) (11, 4.32631492614746093750e+01) (12, 1.50000000000000000000e+03) (13, -3.62788891792297363281e+00) (14, -5.17257995605468750000e+01) (15, 1.95995405316352844238e-01) (16, -5.17445802688598632812e-01) (17, -1.51895880699157714844e-01) (18, 5.32171353697776794434e-02) (19, 5.39838314056396484375e-01) (20, -6.04684591293334960938e-01) (21, 1.03388309478759765625e+00) (22, -4.10879254341125488281e-01) (23, 1.66263556480407714844e+00) (24, 1.50000000000000000000e+03) (25, 1.50000000000000000000e+03) (26, -7.55088388919830322266e-01) (27, -1.22594898566603660583e-02) (28, -8.98271083831787109375e-01) (29, 1.49529736328125000000e+03) (30, -1.02794313430786132812e+00) (31, 3.41009318828582763672e-01) (32, 6.77438545227050781250e+00) (33, -1.38775005936622619629e-01) (34, -6.33162140846252441406e-01) (35, 3.09431672096252441406e-01) (36, 7.31018066406250000000e-01) (37, -5.15490211546421051025e-02) (0, -7.54297780990600585938e+00) (1, -1.35993911743164062500e+02) (2, 3.09793925285339355469e+00) (3, -5.33450365066528320312e+00) (4, -2.30644798278808593750e+01) (5, -3.23571896553039550781e+00) (6, 3.64275050163269042969e+00) (7, 9.35688316822052001953e-01) (8, 1.62932109832763671875e+01) (9, 1.50000000000000000000e+03) (10, 4.22154174804687500000e+02) (11, 2.04896774291992187500e+02) (12, 1.50000000000000000000e+03) (13, 6.82281723022460937500e+01) (14, 5.63032448291778564453e-01) (15, 4.66227769851684570312e-01) (16, 6.32145106792449951172e-01) (17, -2.70621442794799804688e+00) (18, -1.50824129581451416016e+00) (19, 6.74073505401611328125e+00) (20, -3.14019441604614257812e+00) (21, 2.86308348178863525391e-01) (22, -6.11719512939453125000e+00) (23, -7.17802822589874267578e-01) (24, 1.50000000000000000000e+03) (25, 1.50000000000000000000e+03) (26, -9.33891236782073974609e-02) (27, 4.86013710498809814453e-01) (28, -3.67193102836608886719e-01) (29, 1.72363507747650146484e+00) (30, 6.25660943984985351562e+00) (31, -1.39602482318878173828e+00) (32, 2.77672886848449707031e+00) (33, 2.68533259630203247070e-01) (34, 9.31763648986816406250e-01) (35, 3.40751218795776367188e+00) (36, 5.09657812118530273438e+00) (37, 1.82080537080764770508e-01) (0, -8.68977665901184082031e-01) (1, -4.15448617935180664062e+00) (2, -9.86810982227325439453e-01) (3, 5.08748710155487060547e-01) (4, -1.51318097114562988281e+00) (5, 1.43345117568969726562e+00) (6, 9.28751373291015625000e+00) (7, 2.77284204959869384766e-01) (8, 3.03892440795898437500e+01) (9, 1.50000000000000000000e+03) (10, -4.25371284484863281250e+01) (11, 1.12340429687500000000e+03) (12, 1.50000000000000000000e+03) (13, -6.49841125488281250000e+02) (14, -7.04619789123535156250e+00) (15, 2.43739843368530273438e+00) (16, 2.57574796676635742188e+00) (17, -1.91523805260658264160e-02) (18, -2.31008553504943847656e+00) (19, 5.55709409713745117188e+00) (20, 2.14390140026807785034e-02) (21, -2.71764844655990600586e-01) (22, -2.18278789520263671875e+00) (23, 8.72156918048858642578e-02) (24, 1.50000000000000000000e+03) (25, 1.50000000000000000000e+03) (26, -7.39071369171142578125e-01) (27, 2.65062935650348663330e-02) (28, -1.75242602825164794922e+00) (29, -7.75633811950683593750e+00) (30, 2.89719295501708984375e+00) (31, 1.16078462600708007812e+01) (32, 2.89202833175659179688e+00) (33, -1.08928334712982177734e+00) (34, -2.41788506507873535156e+00) (35, 6.59573674201965332031e-01) (36, 1.60602641105651855469e+00) (37, 2.08648383617401123047e-01) (0, 2.62353343963623046875e+01) (1, 3.86620697021484375000e+02) (2, -1.51098215579986572266e+00) (3, 2.04497194290161132812e+00) (4, -3.73337364196777343750e+00) (5, -4.62818527221679687500e+00) (6, -2.06056073307991027832e-01) (7, 9.68207657337188720703e-01) (8, -6.79824638366699218750e+00) (9, 1.50000000000000000000e+03) (10, 1.49795373535156250000e+03) (11, 1.50000000000000000000e+03) (12, 1.50000000000000000000e+03) (13, 2.63767578125000000000e+02) (14, -1.35822925567626953125e+01) (15, -4.83171606063842773438e+00) (16, -4.73107099533081054688e-01) (17, -1.91453933715820312500e-01) (18, 5.45807838439941406250e-01) (19, -1.87184143066406250000e+00) (20, 1.87567234039306640625e+00) (21, 1.77203249931335449219e+00) (22, -5.15061044692993164062e+00) (23, -2.27734732627868652344e+00) (24, 1.50000000000000000000e+03) (25, 1.50000000000000000000e+03) (26, 1.22278904914855957031e+00) (27, 6.95426511764526367188e+00) (28, -2.91274261474609375000e+00) (29, 4.64639723300933837891e-01) (30, -8.72878646850585937500e+00) (31, -1.24166107177734375000e+00) (32, -6.61773586273193359375e+00) (33, 7.54828214645385742188e-01) (34, 2.80638122558593750000e+01) (35, 2.49742388725280761719e+00) (36, -3.44055199623107910156e+00) (37, 3.19004565477371215820e-01) (0, 2.83822708129882812500e+01) (1, 1.20120935440063476562e+01) (2, -1.37976622581481933594e+00) (3, 4.15618562698364257812e+00) (4, -2.98020172119140625000e+00) (5, 5.02248668670654296875e+00) (6, -2.77894744873046875000e+01) (7, -1.03072834014892578125e+00) (8, -2.26351165771484375000e+01) (9, 1.50000000000000000000e+03) (10, 1.49795373535156250000e+03) (11, 1.50000000000000000000e+03) (12, 1.50000000000000000000e+03) (13, 2.28093307495117187500e+02) (14, 2.12620372772216796875e+01) (15, 7.54901543259620666504e-02) (16, -2.80182957649230957031e-01) (17, 1.35999023914337158203e+00) (18, -2.53064894676208496094e+00) (19, 4.23409998416900634766e-01) (20, 8.11532139778137207031e-01) (21, -3.45545578002929687500e+00) (22, -4.50098067522048950195e-01) (23, -2.57591509819030761719e+00) (24, 1.50000000000000000000e+03) (25, 1.50000000000000000000e+03) (26, 7.67927932739257812500e+00) (27, -5.25483489036560058594e-01) (28, -1.07767629623413085938e+00) (29, 1.49529736328125000000e+03) (30, 1.10398352050781250000e+03) (31, -7.84789037704467773438e+00) (32, 5.56413841247558593750e+00) (33, 2.82902216911315917969e+00) (34, 8.89904880523681640625e+00) (35, 1.38595387339591979980e-01) (36, 1.28694343566894531250e+01) (37, -2.78688645362854003906e+00) (0, -1.76665039062500000000e+01) (1, -2.91081638336181640625e+01) (2, 1.79452061653137207031e-01) (3, 3.43866252899169921875e+00) (4, -2.72213625907897949219e+00) (5, -4.94136452674865722656e-01) (6, -1.83974778652191162109e+00) (7, 3.87420356273651123047e-02) (8, 4.17269439697265625000e+01) (9, 1.50000000000000000000e+03) (10, 1.12465600585937500000e+03) (11, 2.60073455810546875000e+02) (12, 1.50000000000000000000e+03) (13, -2.11720870971679687500e+02) (14, -6.53742170333862304688e+00) (15, 1.03561506271362304688e+01) (16, 4.74511235952377319336e-01) (17, -1.36148560047149658203e+00) (18, -2.89487123489379882812e+00) (19, 5.93255376815795898438e+00) (20, 1.42282831668853759766e+00) (21, 9.24892961978912353516e-01) (22, 1.05724501609802246094e+00) (23, -2.62746185064315795898e-01) (24, 1.50000000000000000000e+03) (25, 1.50000000000000000000e+03) (26, -3.35494041442871093750e+00) (27, 3.21503815939649939537e-04) (28, -3.21929454803466796875e-01) (29, 1.49529736328125000000e+03) (30, 7.99775123596191406250e+00) (31, -2.57213926315307617188e+00) (32, -2.39666342735290527344e+00) (33, 5.27803711593151092529e-02) (34, 4.95753616094589233398e-01) (35, -5.04986703395843505859e-01) (36, 8.86963188648223876953e-01) (37, 3.89511883258819580078e-02) (0, -5.35291528701782226562e+00) (1, 3.92970062255859375000e+02) (2, -1.28414273262023925781e+00) (3, 2.01745557785034179688e+00) (4, -3.10763865709304809570e-01) (5, -1.35673391819000244141e+00) (6, -1.03214187622070312500e+01) (7, 1.94793656468391418457e-01) (8, -2.34791851043701171875e+01) (9, 1.50000000000000000000e+03) (10, -1.40646655273437500000e+03) (11, -4.18683441162109375000e+02) (12, 1.50000000000000000000e+03) (13, 4.54217195510864257812e-03) (14, 4.11327590942382812500e+01) (15, -1.63870410919189453125e+01) (16, -2.19231963157653808594e+00) (17, 3.14374446868896484375e+00) (18, -2.02350473403930664062e+00) (19, 6.63325738906860351562e+00) (20, -2.02648550271987915039e-01) (21, -2.36346554756164550781e+00) (22, -5.32313108444213867188e+00) (23, 3.19889158010482788086e-01) (24, 1.50000000000000000000e+03) (25, 1.50000000000000000000e+03) (26, 9.58593010902404785156e-01) (27, -7.71144270896911621094e-01) (28, 4.69799101352691650391e-01) (29, -4.97980356216430664062e+00) (30, 1.10398352050781250000e+03) (31, 2.23524570465087890625e+01) (32, 2.78539333343505859375e+01) (33, 1.68321633338928222656e+00) (34, -9.33499526977539062500e+00) (35, -4.04829645156860351562e+00) (36, 2.14127349853515625000e+00) (37, 1.88175976276397705078e-01) (38, 7.53562569618225097656e-01) (39, 7.43101179599761962891e-01) (40, 1.40697908401489257812e+00) (41, -1.87369740009307861328e+00) (42, 9.82612907886505126953e-01) (43, 5.44605195522308349609e-01) (44, 1.31451714038848876953e+00) (45, 8.11073601245880126953e-01) (46, 7.72540390491485595703e-01) (47, 1.06245231628417968750e+00) (48, 9.34105694293975830078e-01) (49, 1.98791575431823730469e+00) (50, 1.12726712226867675781e+00) (51, 9.20589745044708251953e-01) (52, 1.29200363159179687500e+00) (53, 1.05224823951721191406e+00) (54, 8.97769749164581298828e-01) (55, 7.37823665142059326172e-01) (56, 2.42600068449974060059e-01) 
