FANN_FLO_2.1
num_layers=3
learning_rate=0.700000
connection_rate=1.000000
network_type=0
learning_momentum=0.000000
training_algorithm=2
train_error_function=1
train_stop_function=0
cascade_output_change_fraction=0.010000
quickprop_decay=-0.000100
quickprop_mu=1.750000
rprop_increase_factor=1.200000
rprop_decrease_factor=0.500000
rprop_delta_min=0.000000
rprop_delta_max=50.000000
rprop_delta_zero=0.100000
cascade_output_stagnation_epochs=12
cascade_candidate_change_fraction=0.010000
cascade_candidate_stagnation_epochs=12
cascade_max_out_epochs=150
cascade_max_cand_epochs=150
cascade_num_candidate_groups=2
bit_fail_limit=3.49999994039535522461e-01
cascade_candidate_limit=1.00000000000000000000e+03
cascade_weight_multiplier=4.00000005960464477539e-01
cascade_activation_functions_count=10
cascade_activation_functions=3 5 7 8 10 11 14 15 16 17 
cascade_activation_steepnesses_count=4
cascade_activation_steepnesses=2.50000000000000000000e-01 5.00000000000000000000e-01 7.50000000000000000000e-01 1.00000000000000000000e+00 
layer_sizes=38 19 2 
scale_included=0
neurons (num_inputs, activation_function, activation_steepness)=(0, 0, 0.00000000000000000000e+00) (0, 0, 0.00000000000000000000e+00) (0, 0, 0.00000000000000000000e+00) (0, 0, 0.00000000000000000000e+00) (0, 0, 0.00000000000000000000e+00) (0, 0, 0.00000000000000000000e+00) (0, 0, 0.00000000000000000000e+00) (0, 0, 0.00000000000000000000e+00) (0, 0, 0.00000000000000000000e+00) (0, 0, 0.00000000000000000000e+00) (0, 0, 0.00000000000000000000e+00) (0, 0, 0.00000000000000000000e+00) (0, 0, 0.00000000000000000000e+00) (0, 0, 0.00000000000000000000e+00) (0, 0, 0.00000000000000000000e+00) (0, 0, 0.00000000000000000000e+00) (0, 0, 0.00000000000000000000e+00) (0, 0, 0.00000000000000000000e+00) (0, 0, 0.00000000000000000000e+00) (0, 0, 0.00000000000000000000e+00) (0, 0, 0.00000000000000000000e+00) (0, 0, 0.00000000000000000000e+00) (0, 0, 0.00000000000000000000e+00) (0, 0, 0.00000000000000000000e+00) (0, 0, 0.00000000000000000000e+00) (0, 0, 0.00000000000000000000e+00) (0, 0, 0.00000000000000000000e+00) (0, 0, 0.00000000000000000000e+00) (0, 0, 0.00000000000000000000e+00) (0, 0, 0.00000000000000000000e+00) (0, 0, 0.00000000000000000000e+00) (0, 0, 0.00000000000000000000e+00) (0, 0, 0.00000000000000000000e+00) (0, 0, 0.00000000000000000000e+00) (0, 0, 0.00000000000000000000e+00) (0, 0, 0.00000000000000000000e+00) (0, 0, 0.00000000000000000000e+00) (0, 0, 0.00000000000000000000e+00) (38, 5, 5.00000000000000000000e-01) (38, 5, 5.00000000000000000000e-01) (38, 5, 5.00000000000000000000e-01) (38, 5, 5.00000000000000000000e-01) (38, 5, 5.00000000000000000000e-01) (38, 5, 5.00000000000000000000e-01) (38, 5, 5.00000000000000000000e-01) (38, 5, 5.00000000000000000000e-01) (38, 5, 5.00000000000000000000e-01) (38, 5, 5.00000000000000000000e-01) (38, 5, 5.00000000000000000000e-01) (38, 5, 5.00000000000000000000e-01) (38, 5, 5.00000000000000000000e-01) (38, 5, 5.00000000000000000000e-01) (38, 5, 5.00000000000000000000e-01) (38, 5, 5.00000000000000000000e-01) (38, 5, 5.00000000000000000000e-01) (38, 5, 5.00000000000000000000e-01) (0, 5, 0.00000000000000000000e+00) (19, 13, 5.00000000000000000000e-01) (0, 13, 0.00000000000000000000e+00) 
connections (connected_to_neuron, weight)=(0, -3.59043598175048828125e+00) (1, 2.46141929626464843750e+01) (2, -2.12109136581420898438e+00) (3, -1.50567263364791870117e-01) (4, -7.52356529235839843750e-01) (5, 3.08506083488464355469e+00) (6, -1.98909771442413330078e+00) (7, -4.92055952548980712891e-01) (8, -1.16253212094306945801e-01) (9, 7.80610580444335937500e+01) (10, 1.50000000000000000000e+03) (11, 1.44756494140625000000e+03) (12, -5.46138122558593750000e+02) (13, -3.95938224792480468750e+01) (14, -1.11563634872436523438e+01) (15, -1.04384660720825195312e+00) (16, -1.26648509502410888672e+00) (17, -4.05587100982666015625e+00) (18, -7.53973627090454101562e+00) (19, 1.50000000000000000000e+03) (20, -4.98577976226806640625e+00) (21, -2.11901757866144180298e-02) (22, 4.26254367828369140625e+00) (23, 1.51155006885528564453e+00) (24, 1.50000000000000000000e+03) (25, 1.50000000000000000000e+03) (26, 2.25340533256530761719e+00) (27, -4.80936002731323242188e+00) (28, -1.21210169792175292969e+00) (29, 9.22176265716552734375e+00) (30, 3.64672631025314331055e-01) (31, 8.97431001067161560059e-02) (32, -1.50000000000000000000e+03) (33, -2.08285331726074218750e+00) (34, 6.27356958389282226562e+00) (35, 3.75842070579528808594e+00) (36, -2.09581375122070312500e+00) (37, -2.74109601974487304688e-01) (0, -2.69350128173828125000e+01) (1, 8.84448013305664062500e+01) (2, -1.42408823966979980469e+00) (3, -3.08830738067626953125e+00) (4, 1.19333028793334960938e+00) (5, -3.38379311561584472656e+00) (6, -2.63224244117736816406e+00) (7, -4.29373550415039062500e+00) (8, -1.19983539581298828125e+01) (9, 9.39735046386718750000e+02) (10, -1.92549758911132812500e+02) (11, -1.50000000000000000000e+03) (12, -7.45336914062500000000e+02) (13, -5.21574829101562500000e+02) (14, 1.73763717651367187500e+02) (15, 2.17506771087646484375e+01) (16, 3.26429533958435058594e+00) (17, -8.36535990238189697266e-01) (18, 8.90710830688476562500e+00) (19, 1.50000000000000000000e+03) (20, -1.95080649852752685547e+00) (21, -1.27676761150360107422e+00) (22, -5.37010145187377929688e+00) (23, 1.32780361175537109375e+00) (24, 1.50000000000000000000e+03) (25, 1.50000000000000000000e+03) (26, 3.41484141349792480469e+00) (27, 1.67056298255920410156e+00) (28, -7.61320648193359375000e+01) (29, -1.50000000000000000000e+03) (30, -6.24227333068847656250e+00) (31, 3.37057209014892578125e+00) (32, 9.67213058471679687500e+00) (33, -7.33574676513671875000e+00) (34, 5.29896049499511718750e+01) (35, 2.73685961961746215820e-01) (36, 5.92301893234252929688e+00) (37, 1.31628632545471191406e+00) (0, -1.17006909847259521484e+00) (1, 6.52868041992187500000e+01) (2, -8.55057060718536376953e-01) (3, 3.86228990554809570312e+00) (4, -1.22262353897094726562e+01) (5, -2.09356307983398437500e+00) (6, -3.59009246826171875000e+01) (7, -2.42226910591125488281e+00) (8, 1.36869564652442932129e-01) (9, -3.72369201660156250000e+02) (10, 4.56605720520019531250e+01) (11, -2.68148193359375000000e+02) (12, -7.45435546875000000000e+02) (13, 1.63710937500000000000e+02) (14, -9.99599933624267578125e+00) (15, 1.23653678894042968750e+01) (16, -2.80140727758407592773e-01) (17, -6.47857093811035156250e+00) (18, -2.30559425354003906250e+01) (19, 1.50000000000000000000e+03) (20, -1.50000000000000000000e+03) (21, -3.49773669242858886719e+00) (22, -2.91066670417785644531e+00) (23, -3.94251155853271484375e+00) (24, 1.50000000000000000000e+03) (25, 1.50000000000000000000e+03) (26, 2.59359884262084960938e+00) (27, 3.47106528282165527344e+00) (28, -2.29762959480285644531e+00) (29, -1.50000000000000000000e+03) (30, -1.24592924118041992188e+01) (31, 1.20430791378021240234e+00) (32, -7.59675312042236328125e+00) (33, 1.18405513763427734375e+01) (34, 1.69613018035888671875e+01) (35, 2.88808250427246093750e+00) (36, 1.39870386123657226562e+01) (37, -1.21083188056945800781e+00) (0, 7.11823806762695312500e+01) (1, -7.93602142333984375000e+01) (2, 2.36886882781982421875e+00) (3, -2.16806977987289428711e-01) (4, 1.60620284080505371094e+00) (5, -6.66997766494750976562e+00) (6, 2.08331251144409179688e+00) (7, -3.36209654808044433594e-01) (8, 7.72728860378265380859e-01) (9, -1.07109863281250000000e+02) (10, -1.20571105957031250000e+02) (11, 4.70671730041503906250e+01) (12, -7.45382080078125000000e+02) (13, 2.67589683532714843750e+01) (14, 1.47424709796905517578e+00) (15, -2.71402859687805175781e+00) (16, 8.37342262268066406250e-01) (17, -3.08895063400268554688e+00) (18, -2.19418138265609741211e-01) (19, 1.50000000000000000000e+03) (20, 1.39781198501586914062e+01) (21, 1.41860210895538330078e+00) (22, -2.99923253059387207031e+00) (23, -1.27017068862915039062e+00) (24, 1.50000000000000000000e+03) (25, 1.50000000000000000000e+03) (26, 6.06483340263366699219e-01) (27, 3.01402974128723144531e+00) (28, 2.15653681755065917969e+00) (29, -1.40509498119354248047e+00) (30, 2.21852350234985351562e+00) (31, 2.39812716841697692871e-01) (32, 2.13798332214355468750e+00) (33, -3.12593197822570800781e+00) (34, 2.35878634452819824219e+00) (35, 3.79519760608673095703e-01) (36, 3.93378353118896484375e+00) (37, 7.86821186542510986328e-01) (0, 1.05838727951049804688e+01) (1, -2.03367263793945312500e+02) (2, -7.56749582290649414062e+00) (3, 2.74414467811584472656e+00) (4, -4.18031883239746093750e+01) (5, 1.36212098598480224609e+00) (6, 3.26447820663452148438e+00) (7, 9.11686229705810546875e+00) (8, 1.06803417205810546875e+01) (9, 6.04688835144042968750e+01) (10, 2.22656921386718750000e+02) (11, -1.50000000000000000000e+03) (12, -7.45329528808593750000e+02) (13, 1.13366546630859375000e+02) (14, 3.49314537048339843750e+01) (15, -5.11831092834472656250e+00) (16, -4.28189516067504882812e-01) (17, -4.55700111389160156250e+00) (18, -7.83030700683593750000e+00) (19, 1.50000000000000000000e+03) (20, -6.06774950027465820312e+00) (21, 4.51576900482177734375e+00) (22, -5.81176280975341796875e+00) (23, -1.46038837432861328125e+01) (24, 1.50000000000000000000e+03) (25, 1.50000000000000000000e+03) (26, 8.75640392303466796875e+00) (27, -7.15540981292724609375e+00) (28, -1.18552112579345703125e+01) (29, -3.00229339599609375000e+01) (30, -2.57385292053222656250e+01) (31, 9.48228931427001953125e+00) (32, 2.30617733001708984375e+01) (33, 5.54284429550170898438e+00) (34, 2.06581707000732421875e+01) (35, -6.33252286911010742188e+00) (36, 6.53433322906494140625e+00) (37, -1.04831957817077636719e+00) (0, 6.75374374389648437500e+01) (1, 8.92753677368164062500e+01) (2, -7.02193975448608398438e-01) (3, 1.94974374771118164062e+00) (4, 1.47009677886962890625e+01) (5, 1.92950522899627685547e+00) (6, 1.00060394287109375000e+02) (7, -5.09526300430297851562e+00) (8, -1.77881202697753906250e+01) (9, 1.50000000000000000000e+03) (10, -3.83647216796875000000e+02) (11, -1.88353729248046875000e+02) (12, -7.45326171875000000000e+02) (13, -1.50000000000000000000e+03) (14, -7.20546798706054687500e+01) (15, 1.12736282348632812500e+01) (16, -1.16855859756469726562e+00) (17, -4.92930316925048828125e+00) (18, -3.63858642578125000000e+01) (19, 1.50000000000000000000e+03) (20, 9.43007171154022216797e-01) (21, 9.82821345329284667969e-01) (22, -6.79059743881225585938e+00) (23, -4.84630203247070312500e+00) (24, 1.50000000000000000000e+03) (25, 1.50000000000000000000e+03) (26, 4.75499153137207031250e+00) (27, -1.74873888492584228516e-01) (28, -9.06373691558837890625e+00) (29, -6.87652130126953125000e+01) (30, 9.35978031158447265625e+00) (31, 1.13288650512695312500e+01) (32, 1.32090730667114257812e+01) (33, -6.53660821914672851562e+00) (34, 1.68168563842773437500e+01) (35, 8.99217033386230468750e+00) (36, -4.99426317214965820312e+00) (37, 3.12159729003906250000e+00) (0, -3.62345619201660156250e+01) (1, 3.95262527465820312500e+01) (2, 5.51033592224121093750e+00) (3, 1.05956602096557617188e+00) (4, -4.03380155563354492188e+00) (5, -1.19465370178222656250e+01) (6, -4.39707641601562500000e+01) (7, 6.58586215972900390625e+00) (8, 7.27484035491943359375e+00) (9, -8.49153747558593750000e+01) (10, 4.76731491088867187500e+01) (11, -1.26117346191406250000e+03) (12, -7.45243286132812500000e+02) (13, 1.50000000000000000000e+03) (14, 2.88354835510253906250e+01) (15, 2.20194864273071289062e+00) (16, 6.95577859878540039062e-01) (17, -1.61015939712524414062e+00) (18, -1.25497455596923828125e+01) (19, 1.50000000000000000000e+03) (20, -1.43803918361663818359e+00) (21, -9.03973579406738281250e-01) (22, 3.81329685449600219727e-01) (23, -4.65310859680175781250e+00) (24, 1.50000000000000000000e+03) (25, 1.50000000000000000000e+03) (26, 1.53447675704956054688e+00) (27, -1.92911672592163085938e+00) (28, 3.93866729736328125000e+00) (29, -1.50000000000000000000e+03) (30, -2.89958930015563964844e+00) (31, -4.11291503906250000000e+00) (32, -2.30589466094970703125e+01) (33, 4.22837209701538085938e+00) (34, 1.92447948455810546875e+00) (35, -3.82429420948028564453e-01) (36, -4.17354059219360351562e+00) (37, -8.22307884693145751953e-01) (0, -7.73614044189453125000e+01) (1, -3.47707824707031250000e+01) (2, 2.56976532936096191406e+00) (3, 1.68858015537261962891e+00) (4, -4.17893257141113281250e+01) (5, 1.04635038375854492188e+01) (6, 2.10805282592773437500e+01) (7, 6.52982807159423828125e+00) (8, -3.46882671117782592773e-01) (9, 1.50000000000000000000e+03) (10, 7.39114303588867187500e+01) (11, -1.23970239257812500000e+03) (12, -7.45392150878906250000e+02) (13, -3.99586914062500000000e+02) (14, 5.94974288940429687500e+01) (15, -1.42436676025390625000e+01) (16, 1.36729669570922851562e+01) (17, 6.47660732269287109375e+00) (18, 2.03292713165283203125e+01) (19, 1.50000000000000000000e+03) (20, -1.13032693862915039062e+01) (21, -8.57894229888916015625e+00) (22, -1.27473020553588867188e+01) (23, -7.01786375045776367188e+00) (24, 1.50000000000000000000e+03) (25, 1.50000000000000000000e+03) (26, 1.32561559677124023438e+01) (27, 1.75938816070556640625e+01) (28, -9.32371377944946289062e-01) (29, -1.50000000000000000000e+03) (30, 6.63892364501953125000e+00) (31, 1.22489662170410156250e+01) (32, -4.07692985534667968750e+01) (33, 1.46066465377807617188e+01) (34, -5.97885131835937500000e+01) (35, -1.52423763275146484375e+01) (36, 7.74075984954833984375e+00) (37, 4.73220443725585937500e+00) (0, 2.81474280357360839844e+00) (1, -2.69261871337890625000e+02) (2, 1.19722592830657958984e+00) (3, 4.54505205154418945312e+00) (4, -1.38907468318939208984e+00) (5, -1.49197971820831298828e+00) (6, -5.08071441650390625000e+01) (7, -9.64405536651611328125e+00) (8, 2.19254994392395019531e+00) (9, 1.50000000000000000000e+03) (10, 5.02824432373046875000e+02) (11, -1.10626121520996093750e+02) (12, -7.45290222167968750000e+02) (13, -1.78306976318359375000e+02) (14, -3.58697433471679687500e+01) (15, -2.87994360923767089844e+00) (16, 4.64084815979003906250e+00) (17, -2.84107894897460937500e+01) (18, 9.16160869598388671875e+00) (19, 1.50000000000000000000e+03) (20, -1.24395418167114257812e+00) (21, -1.34529380798339843750e+01) (22, 9.80547142028808593750e+00) (23, -1.91582813262939453125e+01) (24, 1.50000000000000000000e+03) (25, 1.50000000000000000000e+03) (26, 1.85054910182952880859e+00) (27, 7.96890068054199218750e+00) (28, -9.90229511260986328125e+00) (29, 1.21068477630615234375e+01) (30, -8.27280139923095703125e+00) (31, 1.02165737152099609375e+01) (32, 2.21602783203125000000e+01) (33, 8.89303588867187500000e+00) (34, -1.54429998397827148438e+01) (35, 1.64760379791259765625e+01) (36, 3.91825532913208007812e+00) (37, 4.79891359806060791016e-01) (0, 8.24001617431640625000e+01) (1, 1.50000000000000000000e+03) (2, 4.15310096740722656250e+00) (3, -1.61409492492675781250e+01) (4, 7.14236679077148437500e+01) (5, -3.58552634716033935547e-01) (6, 2.79636993408203125000e+01) (7, -6.27696514129638671875e-01) (8, 7.17020082473754882812e+00) (9, 1.50000000000000000000e+03) (10, -1.50000000000000000000e+03) (11, -1.50000000000000000000e+03) (12, -7.45365600585937500000e+02) (13, 1.50000000000000000000e+03) (14, 1.41645727157592773438e+01) (15, 3.11552238464355468750e+01) (16, 4.26577806472778320312e+00) (17, -3.13911318778991699219e+00) (18, 1.33230190277099609375e+01) (19, 1.50000000000000000000e+03) (20, 1.02394628524780273438e+01) (21, 3.72133064270019531250e+00) (22, -2.18990421295166015625e+01) (23, 1.50000000000000000000e+03) (24, 1.50000000000000000000e+03) (25, 1.50000000000000000000e+03) (26, -1.87226242065429687500e+02) (27, 1.50000000000000000000e+03) (28, 1.50000000000000000000e+03) (29, -1.86232391357421875000e+02) (30, -1.44225738525390625000e+02) (31, -1.57632736206054687500e+02) (32, 2.21465969085693359375e+01) (33, 1.53901596069335937500e+01) (34, 7.34109210968017578125e+00) (35, -6.98971366882324218750e+00) (36, 1.08637742996215820312e+01) (37, 1.22846084594726562500e+02) (0, 9.15614318847656250000e+00) (1, 6.05534744262695312500e+01) (2, -3.32653427124023437500e+00) (3, 5.19423913955688476562e+00) (4, 2.20115394592285156250e+01) (5, 6.38387346267700195312e+00) (6, 3.97995233535766601562e+00) (7, 5.63598918914794921875e+00) (8, 7.50658369064331054688e+00) (9, 1.03560986328125000000e+03) (10, 6.11330505371093750000e+02) (11, -5.56760559082031250000e+01) (12, -7.45316528320312500000e+02) (13, 1.50000000000000000000e+03) (14, 5.45733375549316406250e+01) (15, -1.73483681678771972656e+00) (16, 1.25276935100555419922e+00) (17, -2.42698907852172851562e+00) (18, -2.50813364982604980469e+00) (19, 1.50000000000000000000e+03) (20, -1.47356951236724853516e+00) (21, 4.65243721008300781250e+00) (22, 3.54827880859375000000e+01) (23, 2.10991740226745605469e+00) (24, 1.50000000000000000000e+03) (25, 1.50000000000000000000e+03) (26, 4.53240305185317993164e-01) (27, -6.48562850952148437500e+01) (28, -1.18424530029296875000e+01) (29, -2.93904647827148437500e+01) (30, 1.20088112354278564453e+00) (31, -2.00621700286865234375e+00) (32, -1.15157804489135742188e+01) (33, -8.13984584808349609375e+00) (34, -1.74721496582031250000e+02) (35, -1.28419475555419921875e+01) (36, 6.60089063644409179688e+00) (37, -3.72021198272705078125e-01) (0, 2.03328720092773437500e+02) (1, 1.50000000000000000000e+03) (2, 8.21442890167236328125e+00) (3, -1.19623303413391113281e+00) (4, 3.75430564880371093750e+01) (5, 2.84178495407104492188e+00) (6, -1.97237060546875000000e+02) (7, 2.38186430931091308594e+00) (8, 1.06407135009765625000e+02) (9, 1.50000000000000000000e+03) (10, -3.93205322265625000000e+02) (11, -5.25048034667968750000e+02) (12, -7.45347961425781250000e+02) (13, 1.50000000000000000000e+03) (14, -3.35850486755371093750e+01) (15, 2.31254482269287109375e+00) (16, -1.02329719066619873047e+00) (17, -4.20106964111328125000e+01) (18, 9.71370315551757812500e+01) (19, 1.50000000000000000000e+03) (20, 1.23999273777008056641e+00) (21, 4.61810073852539062500e+01) (22, 5.85356826782226562500e+01) (23, -6.76876640319824218750e+00) (24, 1.50000000000000000000e+03) (25, 1.50000000000000000000e+03) (26, 1.32999420166015625000e+01) (27, 1.05074720382690429688e+01) (28, 3.79456024169921875000e+01) (29, -3.72411003112792968750e+01) (30, -1.38524065017700195312e+01) (31, -7.02273464202880859375e+00) (32, 4.20645856857299804688e+00) (33, -5.43060398101806640625e+00) (34, -3.85022964477539062500e+01) (35, -5.33696222305297851562e+00) (36, -2.90063190460205078125e+00) (37, 6.58204793930053710938e-01) (0, 8.06487274169921875000e+01) (1, -3.56358299255371093750e+01) (2, 2.37149924039840698242e-01) (3, 1.27160310745239257812e+00) (4, 2.89231777191162109375e+01) (5, -8.28355789184570312500e+00) (6, -5.08785133361816406250e+01) (7, 3.68559455871582031250e+00) (8, 4.95707435607910156250e+01) (9, 1.50000000000000000000e+03) (10, 3.27501922607421875000e+02) (11, 4.54699462890625000000e+02) (12, -7.45343017578125000000e+02) (13, 2.84422332763671875000e+02) (14, -2.96717926025390625000e+02) (15, 3.03088169097900390625e+01) (16, -3.12295079231262207031e+00) (17, -1.96906871795654296875e+01) (18, -1.92878513336181640625e+01) (19, 1.50000000000000000000e+03) (20, 1.26872081756591796875e+01) (21, 1.13100662231445312500e+01) (22, -1.50000000000000000000e+03) (23, 2.89137783050537109375e+01) (24, 1.50000000000000000000e+03) (25, 1.50000000000000000000e+03) (26, -5.11528682708740234375e+00) (27, -1.23019390106201171875e+01) (28, -9.76461410522460937500e+00) (29, -2.86611442565917968750e+01) (30, -1.77178573608398437500e+01) (31, -5.75265789031982421875e+00) (32, 4.48642234802246093750e+01) (33, -1.07386474609375000000e+01) (34, -5.49919545650482177734e-01) (35, 1.06288757324218750000e+01) (36, 5.17928361892700195312e+00) (37, -1.01252355575561523438e+01) (0, 2.49160981178283691406e+00) (1, -2.07131748199462890625e+01) (2, -5.51589965820312500000e-01) (3, 2.67517387866973876953e-01) (4, 1.31588709354400634766e+00) (5, -6.41231775283813476562e-01) (6, 1.55006666183471679688e+01) (7, 4.89395201206207275391e-01) (8, -6.61279022693634033203e-01) (9, -3.03364135742187500000e+02) (10, -5.43566772460937500000e+02) (11, 5.89504394531250000000e+02) (12, -7.45322448730468750000e+02) (13, 1.73303661346435546875e+01) (14, 1.54213905334472656250e+01) (15, 1.11436665058135986328e+00) (16, 9.99273061752319335938e-01) (17, 3.83779859542846679688e+00) (18, 3.80519795417785644531e+00) (19, 1.50000000000000000000e+03) (20, 2.36707592010498046875e+00) (21, -2.98812776803970336914e-01) (22, -2.83910131454467773438e+00) (23, 9.27756500244140625000e+00) (24, 1.50000000000000000000e+03) (25, 1.50000000000000000000e+03) (26, -2.56482362747192382812e-01) (27, -7.46732652187347412109e-01) (28, -7.87853860855102539062e+00) (29, 3.19719576835632324219e+00) (30, 3.22739005088806152344e+00) (31, -3.78131246566772460938e+00) (32, -3.60243558883666992188e+00) (33, -1.84835863113403320312e+00) (34, -3.56814455986022949219e+00) (35, 3.99629402160644531250e+00) (36, -8.28553390502929687500e+00) (37, -7.04130947589874267578e-01) (0, -3.96298103332519531250e+01) (1, 1.19384933471679687500e+02) (2, 2.11138515472412109375e+01) (3, -1.87922267913818359375e+01) (4, -4.28791084289550781250e+01) (5, -6.40184497833251953125e+00) (6, 3.09049816131591796875e+01) (7, 8.98636937141418457031e-01) (8, -1.09684395790100097656e+00) (9, 1.50000000000000000000e+03) (10, -1.50000000000000000000e+03) (11, 4.08285797119140625000e+02) (12, -7.45417053222656250000e+02) (13, -3.54562377929687500000e+01) (14, 2.25324249267578125000e+01) (15, -8.09573769569396972656e-01) (16, -3.78120779991149902344e-01) (17, -8.63135719299316406250e+00) (18, 1.50057029724121093750e+01) (19, 1.50000000000000000000e+03) (20, -1.81797191500663757324e-01) (21, 3.28234410285949707031e+00) (22, 6.83121414184570312500e+01) (23, 5.14404392242431640625e+00) (24, 1.50000000000000000000e+03) (25, 1.50000000000000000000e+03) (26, -1.86480426788330078125e+01) (27, -1.08444499969482421875e+01) (28, 1.50000000000000000000e+03) (29, 1.63097248077392578125e+01) (30, 1.50000000000000000000e+03) (31, -1.19023618698120117188e+01) (32, -1.59636774063110351562e+01) (33, 3.27543330192565917969e+00) (34, 1.93188362121582031250e+01) (35, -1.18140506744384765625e+01) (36, 2.78143253326416015625e+01) (37, -9.96497809886932373047e-01) (0, 2.04216885566711425781e+00) (1, -4.74800453186035156250e+01) (2, 1.06772983074188232422e+00) (3, 1.31494116783142089844e+00) (4, 9.54681336879730224609e-01) (5, 2.78184204101562500000e+01) (6, 4.54859695434570312500e+01) (7, 1.46554350852966308594e+00) (8, -1.04345655441284179688e+01) (9, -3.39312377929687500000e+02) (10, -2.93996978759765625000e+02) (11, -1.50000000000000000000e+03) (12, -7.45347351074218750000e+02) (13, -1.14079235839843750000e+03) (14, -2.42295665740966796875e+01) (15, 1.64493408203125000000e+01) (16, -3.10723710060119628906e+00) (17, 1.62533092498779296875e+00) (18, -2.74431729316711425781e+00) (19, 1.50000000000000000000e+03) (20, -7.09889173507690429688e+00) (21, -7.83472239971160888672e-01) (22, -5.34428358078002929688e+00) (23, -7.22436618804931640625e+00) (24, 1.50000000000000000000e+03) (25, 1.50000000000000000000e+03) (26, -1.48946106433868408203e+00) (27, 1.42226238250732421875e+01) (28, 2.61194491386413574219e+00) (29, 1.85416698455810546875e+00) (30, 3.48539757728576660156e+00) (31, -1.88361060619354248047e+00) (32, 2.59446353912353515625e+01) (33, -1.15136253833770751953e+00) (34, -5.99126338958740234375e+00) (35, -4.78282499313354492188e+00) (36, -4.13011980056762695312e+00) (37, 7.44674384593963623047e-01) (0, 1.90346298217773437500e+01) (1, 4.04376708984375000000e+02) (2, -1.15401172637939453125e+01) (3, -3.23374867439270019531e+00) (4, -9.26562500000000000000e+00) (5, 3.28375015258789062500e+01) (6, -1.81293809413909912109e+00) (7, -1.38363971710205078125e+01) (8, -1.10718063354492187500e+02) (9, 2.36669357299804687500e+02) (10, -1.50000000000000000000e+03) (11, -6.59910964965820312500e+00) (12, -7.45357666015625000000e+02) (13, 1.50000000000000000000e+03) (14, 2.43593921661376953125e+01) (15, 2.16863384246826171875e+01) (16, -4.65256214141845703125e+00) (17, 1.56247758865356445312e+00) (18, -1.27463197708129882812e+01) (19, 1.50000000000000000000e+03) (20, 7.12268753051757812500e+01) (21, 1.11172544956207275391e+00) (22, 6.39630126953125000000e+00) (23, 1.14286842346191406250e+01) (24, 1.50000000000000000000e+03) (25, 1.50000000000000000000e+03) (26, -5.01142644882202148438e+00) (27, 2.02273387908935546875e+01) (28, 1.14218454360961914062e+01) (29, -1.50000000000000000000e+03) (30, 2.16044750213623046875e+01) (31, 2.31653904914855957031e+00) (32, 7.44279708862304687500e+01) (33, -1.37979669570922851562e+01) (34, -8.63205337524414062500e+01) (35, -1.23913936614990234375e+01) (36, 2.91625747680664062500e+01) (37, 3.97203230857849121094e+00) (0, -5.07093966007232666016e-01) (1, 1.61340835571289062500e+02) (2, -3.48405480384826660156e+00) (3, 2.10021648406982421875e+01) (4, -9.58255672454833984375e+00) (5, 5.73799324035644531250e+00) (6, -6.06020689010620117188e+00) (7, -2.44900643825531005859e-01) (8, 5.79652557373046875000e+01) (9, -3.24852203369140625000e+02) (10, -1.50000000000000000000e+03) (11, -1.50000000000000000000e+03) (12, -7.45326416015625000000e+02) (13, 1.23027221679687500000e+02) (14, 1.50000000000000000000e+03) (15, -5.37219858169555664062e+00) (16, 3.99058133363723754883e-01) (17, -2.54129943847656250000e+01) (18, -9.40171127319335937500e+01) (19, 1.50000000000000000000e+03) (20, 2.56210660934448242188e+00) (21, 6.93944406509399414062e+00) (22, 5.72438621520996093750e+00) (23, -8.22768249511718750000e+01) (24, 1.50000000000000000000e+03) (25, 1.50000000000000000000e+03) (26, -1.41518163681030273438e+01) (27, -1.45493850708007812500e+01) (28, 5.11772308349609375000e+01) (29, -4.02605400085449218750e+01) (30, -7.24115829467773437500e+01) (31, 6.20053062438964843750e+01) (32, -1.50409984588623046875e+01) (33, 2.76213550567626953125e+01) (34, 5.66865730285644531250e+00) (35, -8.59642791748046875000e+00) (36, 2.18744716644287109375e+01) (37, -1.21562700271606445312e+01) (38, 1.43613064289093017578e+00) (39, 4.65126276016235351562e-01) (40, 6.03497982025146484375e-01) (41, 1.50624358654022216797e+00) (42, 5.83513677120208740234e-01) (43, 5.75697660446166992188e-01) (44, 7.25913703441619873047e-01) (45, 4.84855771064758300781e-01) (46, 7.85831332206726074219e-01) (47, 4.81621861457824707031e-01) (48, 5.62766253948211669922e-01) (49, 7.32476711273193359375e-01) (50, 5.30182182788848876953e-01) (51, 1.05580019950866699219e+00) (52, 7.86591529846191406250e-01) (53, 5.75673282146453857422e-01) (54, 5.39367079734802246094e-01) (55, 7.10731387138366699219e-01) (56, 1.13336718082427978516e+00) 
