FANN_FLO_2.1
num_layers=3
learning_rate=0.700000
connection_rate=1.000000
network_type=0
learning_momentum=0.000000
training_algorithm=2
train_error_function=1
train_stop_function=0
cascade_output_change_fraction=0.010000
quickprop_decay=-0.000100
quickprop_mu=1.750000
rprop_increase_factor=1.200000
rprop_decrease_factor=0.500000
rprop_delta_min=0.000000
rprop_delta_max=50.000000
rprop_delta_zero=0.100000
cascade_output_stagnation_epochs=12
cascade_candidate_change_fraction=0.010000
cascade_candidate_stagnation_epochs=12
cascade_max_out_epochs=150
cascade_max_cand_epochs=150
cascade_num_candidate_groups=2
bit_fail_limit=3.49999994039535522461e-01
cascade_candidate_limit=1.00000000000000000000e+03
cascade_weight_multiplier=4.00000005960464477539e-01
cascade_activation_functions_count=10
cascade_activation_functions=3 5 7 8 10 11 14 15 16 17 
cascade_activation_steepnesses_count=4
cascade_activation_steepnesses=2.50000000000000000000e-01 5.00000000000000000000e-01 7.50000000000000000000e-01 1.00000000000000000000e+00 
layer_sizes=38 19 2 
scale_included=0
neurons (num_inputs, activation_function, activation_steepness)=(0, 0, 0.00000000000000000000e+00) (0, 0, 0.00000000000000000000e+00) (0, 0, 0.00000000000000000000e+00) (0, 0, 0.00000000000000000000e+00) (0, 0, 0.00000000000000000000e+00) (0, 0, 0.00000000000000000000e+00) (0, 0, 0.00000000000000000000e+00) (0, 0, 0.00000000000000000000e+00) (0, 0, 0.00000000000000000000e+00) (0, 0, 0.00000000000000000000e+00) (0, 0, 0.00000000000000000000e+00) (0, 0, 0.00000000000000000000e+00) (0, 0, 0.00000000000000000000e+00) (0, 0, 0.00000000000000000000e+00) (0, 0, 0.00000000000000000000e+00) (0, 0, 0.00000000000000000000e+00) (0, 0, 0.00000000000000000000e+00) (0, 0, 0.00000000000000000000e+00) (0, 0, 0.00000000000000000000e+00) (0, 0, 0.00000000000000000000e+00) (0, 0, 0.00000000000000000000e+00) (0, 0, 0.00000000000000000000e+00) (0, 0, 0.00000000000000000000e+00) (0, 0, 0.00000000000000000000e+00) (0, 0, 0.00000000000000000000e+00) (0, 0, 0.00000000000000000000e+00) (0, 0, 0.00000000000000000000e+00) (0, 0, 0.00000000000000000000e+00) (0, 0, 0.00000000000000000000e+00) (0, 0, 0.00000000000000000000e+00) (0, 0, 0.00000000000000000000e+00) (0, 0, 0.00000000000000000000e+00) (0, 0, 0.00000000000000000000e+00) (0, 0, 0.00000000000000000000e+00) (0, 0, 0.00000000000000000000e+00) (0, 0, 0.00000000000000000000e+00) (0, 0, 0.00000000000000000000e+00) (0, 0, 0.00000000000000000000e+00) (38, 5, 5.00000000000000000000e-01) (38, 5, 5.00000000000000000000e-01) (38, 5, 5.00000000000000000000e-01) (38, 5, 5.00000000000000000000e-01) (38, 5, 5.00000000000000000000e-01) (38, 5, 5.00000000000000000000e-01) (38, 5, 5.00000000000000000000e-01) (38, 5, 5.00000000000000000000e-01) (38, 5, 5.00000000000000000000e-01) (38, 5, 5.00000000000000000000e-01) (38, 5, 5.00000000000000000000e-01) (38, 5, 5.00000000000000000000e-01) (38, 5, 5.00000000000000000000e-01) (38, 5, 5.00000000000000000000e-01) (38, 5, 5.00000000000000000000e-01) (38, 5, 5.00000000000000000000e-01) (38, 5, 5.00000000000000000000e-01) (38, 5, 5.00000000000000000000e-01) (0, 5, 0.00000000000000000000e+00) (19, 13, 5.00000000000000000000e-01) (0, 13, 0.00000000000000000000e+00) 
connections (connected_to_neuron, weight)=(0, -6.09844131469726562500e+01) (1, 3.14492706298828125000e+02) (2, -1.16814680397510528564e-01) (3, 5.45110654830932617188e+00) (4, 8.35556106567382812500e+01) (5, -2.20137252807617187500e+01) (6, 3.39773178100585937500e+01) (7, -8.99284744262695312500e+00) (8, 1.50000000000000000000e+03) (9, 1.50000000000000000000e+03) (10, 1.50000000000000000000e+03) (11, -1.38914047241210937500e+02) (12, 1.50000000000000000000e+03) (13, 1.50000000000000000000e+03) (14, 4.93686027526855468750e+01) (15, -5.35429811477661132812e+00) (16, -1.14008271694183349609e+00) (17, 5.08143901824951171875e+00) (18, 1.52129449844360351562e+01) (19, -1.00243019104003906250e+02) (20, 1.50000000000000000000e+03) (21, 1.06970443725585937500e+01) (22, -2.22104048728942871094e+00) (23, 1.13058738708496093750e+01) (24, 1.50000000000000000000e+03) (25, 1.50000000000000000000e+03) (26, -6.12484025955200195312e+00) (27, 8.10933399200439453125e+00) (28, 1.80687665939331054688e+00) (29, -1.61979007720947265625e+01) (30, 1.59357843399047851562e+01) (31, -2.34307384490966796875e+01) (32, -1.86589944362640380859e+00) (33, 1.02058625221252441406e+00) (34, -2.38013687133789062500e+01) (35, 1.20525705814361572266e+00) (36, 1.37643499374389648438e+01) (37, 4.68964964151382446289e-01) (0, -2.51154327392578125000e+00) (1, 1.21280929565429687500e+02) (2, -6.18938021361827850342e-02) (3, -8.96824598312377929688e-01) (4, -4.54870700836181640625e+00) (5, -1.11355078220367431641e+00) (6, 1.04056673049926757812e+01) (7, -4.64698225259780883789e-01) (8, 9.13371181488037109375e+00) (9, 1.50000000000000000000e+03) (10, 1.50000000000000000000e+03) (11, 1.50000000000000000000e+03) (12, 1.50000000000000000000e+03) (13, 2.21127662658691406250e+01) (14, 7.60282135009765625000e+00) (15, -5.10429811477661132812e+00) (16, -3.75091576576232910156e+00) (17, 6.83141183853149414062e+00) (18, 3.93612480163574218750e+01) (19, -2.49705147743225097656e+00) (20, -1.15357518196105957031e+00) (21, -3.20787787437438964844e+00) (22, -5.24063646793365478516e-01) (23, -2.14936494827270507812e+00) (24, 1.50000000000000000000e+03) (25, 1.50000000000000000000e+03) (26, -3.37603020668029785156e+00) (27, -3.85686016082763671875e+00) (28, -2.33158016204833984375e+00) (29, -9.46192169189453125000e+00) (30, 1.07239522933959960938e+01) (31, 4.08542126417160034180e-01) (32, 8.55652427673339843750e+00) (33, -2.86525201797485351562e+00) (34, 8.08248817920684814453e-02) (35, 4.51641607284545898438e+00) (36, -1.45946502685546875000e-01) (37, 3.80530506372451782227e-02) (0, -1.36317886352539062500e+02) (1, 5.58775825500488281250e+01) (2, 1.38624353408813476562e+01) (3, -7.36036109924316406250e+00) (4, -3.29108772277832031250e+01) (5, 4.21888504028320312500e+01) (6, 4.01727485656738281250e+01) (7, -2.50577986240386962891e-01) (8, 2.31938186645507812500e+02) (9, 1.50000000000000000000e+03) (10, 1.50000000000000000000e+03) (11, 9.40114898681640625000e+01) (12, 1.50000000000000000000e+03) (13, -7.08296630859375000000e+02) (14, 6.00665473937988281250e+01) (15, 1.21971988677978515625e+01) (16, 9.66402149200439453125e+00) (17, -3.51591224670410156250e+01) (18, -3.11011169433593750000e+02) (19, -1.64614295959472656250e+01) (20, -5.31166763305664062500e+01) (21, -3.32867693901062011719e+00) (22, 8.85030822753906250000e+01) (23, 1.51437864303588867188e+01) (24, 1.50000000000000000000e+03) (25, 1.50000000000000000000e+03) (26, 1.05840053558349609375e+01) (27, -5.23149452209472656250e+01) (28, -4.16266098022460937500e+01) (29, -1.54985626220703125000e+02) (30, -3.25854492187500000000e+02) (31, 7.96745147705078125000e+01) (32, 2.66993408203125000000e+02) (33, -1.39149546623229980469e+00) (34, 3.11634407043457031250e+01) (35, 6.80409383773803710938e+00) (36, 2.30391864776611328125e+01) (37, -3.03070604801177978516e-01) (0, 4.34865665435791015625e+00) (1, 5.55455688476562500000e+02) (2, 9.78176534175872802734e-01) (3, 1.92386007308959960938e+00) (4, -4.96209526062011718750e+00) (5, 1.66937713623046875000e+01) (6, -3.58604168891906738281e+00) (7, 9.12718832492828369141e-01) (8, -8.24896335601806640625e+00) (9, 1.50000000000000000000e+03) (10, 1.50000000000000000000e+03) (11, 1.50000000000000000000e+03) (12, 1.50000000000000000000e+03) (13, -1.41482879638671875000e+02) (14, -1.55105865478515625000e+02) (15, -1.99766635894775390625e+00) (16, 1.45463120937347412109e+00) (17, -9.41469097137451171875e+00) (18, -8.80415153503417968750e+00) (19, -9.12107276916503906250e+00) (20, 1.62851917743682861328e+00) (21, 1.42713582515716552734e+00) (22, 7.64176797866821289062e+00) (23, 3.53080916404724121094e+00) (24, 1.50000000000000000000e+03) (25, 1.50000000000000000000e+03) (26, 7.95546770095825195312e+00) (27, 1.50000000000000000000e+03) (28, -9.10984230041503906250e+00) (29, 3.48291611671447753906e+00) (30, 6.25361013412475585938e+00) (31, 1.17119169235229492188e+01) (32, -2.73782997131347656250e+01) (33, 2.20523376464843750000e+01) (34, -8.49303531646728515625e+00) (35, -1.25341014862060546875e+01) (36, -3.98739650845527648926e-02) (37, 3.94024443626403808594e+00) (0, -1.27141606807708740234e+00) (1, 2.06982345581054687500e+01) (2, -1.03077149391174316406e+00) (3, 4.70136642456054687500e+00) (4, 1.60817260742187500000e+01) (5, -2.85825748443603515625e+01) (6, 1.09448301792144775391e+00) (7, 1.00184452533721923828e+00) (8, 2.09572944641113281250e+01) (9, 1.50000000000000000000e+03) (10, 1.50000000000000000000e+03) (11, -7.96104064941406250000e+02) (12, 1.50000000000000000000e+03) (13, -9.05140838623046875000e+01) (14, 5.11350097656250000000e+01) (15, 1.24739475250244140625e+01) (16, 3.19717812538146972656e+00) (17, -2.64168000221252441406e+00) (18, 3.29442710876464843750e+01) (19, 3.48025274276733398438e+00) (20, 9.08959770202636718750e+00) (21, 5.72046709060668945312e+00) (22, -7.51278543472290039062e+00) (23, 2.22567825317382812500e+01) (24, 1.50000000000000000000e+03) (25, 1.50000000000000000000e+03) (26, 1.82096111774444580078e+00) (27, 9.32101917266845703125e+00) (28, 2.73226499557495117188e-01) (29, 3.86372566223144531250e+01) (30, 2.55408325195312500000e+01) (31, 5.92335605621337890625e+00) (32, 7.43952703475952148438e+00) (33, -1.65220487117767333984e+00) (34, 2.94720840454101562500e+00) (35, -3.61030602455139160156e+00) (36, -4.46593809127807617188e+00) (37, 2.12318372726440429688e+00) (0, -1.50000000000000000000e+03) (1, -1.50000000000000000000e+03) (2, 3.57872894287109375000e+02) (3, -7.22581939697265625000e+01) (4, -3.35641143798828125000e+02) (5, 1.22588752746582031250e+02) (6, 1.50000000000000000000e+03) (7, -3.86463088989257812500e+01) (8, 1.50000000000000000000e+03) (9, 1.50000000000000000000e+03) (10, 1.50000000000000000000e+03) (11, 1.50000000000000000000e+03) (12, 1.50000000000000000000e+03) (13, 1.50000000000000000000e+03) (14, -3.76776306152343750000e+02) (15, -8.92366180419921875000e+01) (16, 2.68332702636718750000e+02) (17, -1.50000000000000000000e+03) (18, -1.50000000000000000000e+03) (19, -3.33297872543334960938e+00) (20, -3.44597991943359375000e+02) (21, -1.51510448455810546875e+01) (22, 2.74655120849609375000e+02) (23, -6.00713844299316406250e+01) (24, 1.50000000000000000000e+03) (25, 1.50000000000000000000e+03) (26, -1.03160163879394531250e+02) (27, 2.68312316894531250000e+02) (28, 9.09786987304687500000e+01) (29, -1.98159179687500000000e+02) (30, 9.25500610351562500000e+02) (31, -1.50000000000000000000e+03) (32, -1.50000000000000000000e+03) (33, -4.72283782958984375000e+02) (34, 1.91067352294921875000e+01) (35, -7.50537261962890625000e+01) (36, 1.84131652832031250000e+02) (37, -1.06545391082763671875e+01) (0, -4.93463821411132812500e+01) (1, 1.93254943847656250000e+02) (2, 2.68813878297805786133e-01) (3, 3.67807936668395996094e+00) (4, -1.44364028930664062500e+02) (5, -9.15548324584960937500e+00) (6, -1.46715988159179687500e+02) (7, 2.34366774559020996094e+00) (8, 3.23618865966796875000e+02) (9, 1.50000000000000000000e+03) (10, 1.50000000000000000000e+03) (11, -1.17286590576171875000e+02) (12, 1.50000000000000000000e+03) (13, -1.50000000000000000000e+03) (14, -5.35032691955566406250e+01) (15, -1.59808940887451171875e+01) (16, 2.61498355865478515625e+01) (17, -4.60649147033691406250e+01) (18, -2.94023990631103515625e+00) (19, -1.98905315399169921875e+01) (20, -7.44365119934082031250e+00) (21, -2.19977831840515136719e+00) (22, 8.53570938110351562500e+01) (23, 7.48121795654296875000e+01) (24, 1.50000000000000000000e+03) (25, 1.50000000000000000000e+03) (26, -3.33918380737304687500e+00) (27, 1.14168119430541992188e+01) (28, 1.60004959106445312500e+01) (29, -4.02316932678222656250e+01) (30, 1.03334407806396484375e+01) (31, 2.26374416351318359375e+01) (32, 4.77668418884277343750e+01) (33, -6.04806900024414062500e+00) (34, 2.84287796020507812500e+01) (35, -7.65453100204467773438e+00) (36, 9.17513656616210937500e+00) (37, 6.47442293167114257812e+00) (0, 2.28203048706054687500e+01) (1, -6.47417678833007812500e+01) (2, 2.56642431020736694336e-01) (3, 2.88268733024597167969e+00) (4, -3.51158356666564941406e+00) (5, -2.63824582099914550781e+00) (6, 1.23527133464813232422e+00) (7, 5.95753490924835205078e-01) (8, -2.14270324707031250000e+01) (9, 1.50000000000000000000e+03) (10, -8.37306518554687500000e+02) (11, 1.50000000000000000000e+03) (12, 1.50000000000000000000e+03) (13, 1.33894812011718750000e+03) (14, -1.87768012285232543945e-01) (15, 1.04355788230895996094e+00) (16, -3.95437866449356079102e-01) (17, 5.78661441802978515625e+00) (18, 8.52339553833007812500e+00) (19, -7.61966991424560546875e+00) (20, -2.75731503963470458984e-01) (21, 1.04643118381500244141e+00) (22, -4.46370315551757812500e+00) (23, -3.33998680114746093750e+00) (24, 1.50000000000000000000e+03) (25, 1.50000000000000000000e+03) (26, -3.19302022457122802734e-01) (27, 1.94091725349426269531e+00) (28, -6.45762741565704345703e-01) (29, -1.05340397357940673828e+00) (30, 2.15928497314453125000e+01) (31, 7.64504241943359375000e+00) (32, -7.30555725097656250000e+00) (33, -4.38813209533691406250e+00) (34, -2.59317815303802490234e-01) (35, 7.37286806106567382812e+00) (36, 8.38751792907714843750e-02) (37, 5.25045931339263916016e-01) (0, 2.89583611488342285156e+00) (1, -1.33330106735229492188e+01) (2, 3.96125823259353637695e-01) (3, -3.03083872795104980469e+00) (4, 5.72263526916503906250e+00) (5, -2.50954246520996093750e+00) (6, 8.44499683380126953125e+00) (7, 4.77386489510536193848e-02) (8, -4.18553466796875000000e+01) (9, 1.50000000000000000000e+03) (10, 1.50000000000000000000e+03) (11, -3.97432937622070312500e+01) (12, 1.50000000000000000000e+03) (13, 1.36524200439453125000e+02) (14, 9.02780914306640625000e+00) (15, -3.13359665870666503906e+00) (16, -1.39394715428352355957e-01) (17, 1.60714542865753173828e+00) (18, 1.16836185455322265625e+01) (19, -4.18363428115844726562e+00) (20, -1.87607491016387939453e+00) (21, -7.75437545776367187500e+00) (22, -1.82733745574951171875e+01) (23, -1.03877143859863281250e+01) (24, 1.50000000000000000000e+03) (25, 1.50000000000000000000e+03) (26, 1.21381034851074218750e+01) (27, 4.32554244995117187500e+00) (28, 2.23052358627319335938e+00) (29, 5.88086986541748046875e+00) (30, -3.03217101097106933594e+00) (31, -4.44941103458404541016e-01) (32, 5.23151922225952148438e+00) (33, 1.51474952697753906250e+00) (34, 8.07197952270507812500e+00) (35, -2.10978269577026367188e+00) (36, 6.66759490966796875000e+00) (37, 2.77938270568847656250e+00) (0, 2.98440055847167968750e+01) (1, -1.92596483230590820312e+00) (2, 3.67576777935028076172e-01) (3, 2.44483985900878906250e+01) (4, 1.04119476318359375000e+02) (5, -8.51821136474609375000e+01) (6, -1.73526058197021484375e+01) (7, 6.17907226085662841797e-01) (8, 1.50000000000000000000e+03) (9, 1.50000000000000000000e+03) (10, 1.50000000000000000000e+03) (11, 6.43004760742187500000e+02) (12, 1.50000000000000000000e+03) (13, 1.50000000000000000000e+03) (14, -3.62112693786621093750e+01) (15, 1.50000000000000000000e+03) (16, -3.15517425537109375000e+01) (17, 2.59285202026367187500e+01) (18, -1.06502199172973632812e+01) (19, -5.15751419067382812500e+01) (20, 1.33921451568603515625e+01) (21, -7.65424489974975585938e+00) (22, -8.52107772827148437500e+01) (23, -5.80415649414062500000e+01) (24, 1.50000000000000000000e+03) (25, 1.50000000000000000000e+03) (26, 2.48566627502441406250e+01) (27, -7.76691770553588867188e+00) (28, 3.52716903686523437500e+01) (29, -6.14427030086517333984e-01) (30, 5.01868629455566406250e+01) (31, -4.19832534790039062500e+01) (32, -1.35711685180664062500e+02) (33, -5.56954956054687500000e+00) (34, -6.89118728637695312500e+01) (35, 1.39891996383666992188e+01) (36, 7.75978660583496093750e+00) (37, 1.17931187152862548828e+00) (0, -1.49528131484985351562e+01) (1, 2.06642436981201171875e+01) (2, -4.88866388797760009766e-01) (3, -1.11325466632843017578e+00) (4, 9.48325061798095703125e+00) (5, -2.35437774658203125000e+00) (6, -1.64354686737060546875e+01) (7, -3.47440814971923828125e+00) (8, -1.61354598999023437500e+01) (9, 1.50000000000000000000e+03) (10, 1.50000000000000000000e+03) (11, 1.50000000000000000000e+03) (12, 1.50000000000000000000e+03) (13, 3.38970108032226562500e+01) (14, 1.54471073150634765625e+01) (15, -4.34674978256225585938e+00) (16, -1.64665114879608154297e+00) (17, 1.59123077392578125000e+01) (18, 9.89091777801513671875e+00) (19, 8.90270829200744628906e-01) (20, 1.94078087806701660156e+00) (21, 6.75840735435485839844e-01) (22, -4.66601800918579101562e+00) (23, 8.88282585144042968750e+00) (24, 1.50000000000000000000e+03) (25, 1.50000000000000000000e+03) (26, -6.04801559448242187500e+00) (27, -5.46890258789062500000e+00) (28, -3.62520456314086914062e+00) (29, -6.31310272216796875000e+00) (30, -5.91346931457519531250e+00) (31, -2.80348014831542968750e+00) (32, 1.11741247177124023438e+01) (33, -5.38754880428314208984e-01) (34, 1.45438442230224609375e+01) (35, 7.18730783462524414062e+00) (36, 6.71817255020141601562e+00) (37, -9.91035997867584228516e-01) (0, -6.09185119628906250000e+02) (1, 2.10536636352539062500e+02) (2, -7.83448600769042968750e+00) (3, 4.88765182495117187500e+01) (4, -1.25298156738281250000e+02) (5, 9.07243804931640625000e+01) (6, 1.50000000000000000000e+03) (7, -4.76833963394165039062e+00) (8, 1.50000000000000000000e+03) (9, 1.50000000000000000000e+03) (10, 1.50000000000000000000e+03) (11, 1.50000000000000000000e+03) (12, 1.50000000000000000000e+03) (13, 1.50000000000000000000e+03) (14, 1.49829772949218750000e+03) (15, 1.50000000000000000000e+03) (16, 1.80571304321289062500e+02) (17, -1.41979049682617187500e+02) (18, -1.50000000000000000000e+03) (19, -7.43193893432617187500e+01) (20, -6.41940879821777343750e+00) (21, -1.00864028930664062500e+00) (22, 1.40418060302734375000e+02) (23, 1.51588912963867187500e+02) (24, 1.50000000000000000000e+03) (25, 1.50000000000000000000e+03) (26, 1.56206542968750000000e+02) (27, 2.44774429321289062500e+02) (28, -9.95898895263671875000e+01) (29, -2.38475742340087890625e+01) (30, 2.35211296081542968750e+01) (31, -1.67796081542968750000e+02) (32, 3.97843750000000000000e+02) (33, -7.50115890502929687500e+01) (34, 5.41723632812500000000e+00) (35, -1.94449100494384765625e+01) (36, 3.75420608520507812500e+01) (37, 4.79167795181274414062e+00) (0, -1.94678325653076171875e+01) (1, -2.29404430389404296875e+01) (2, -8.13946723937988281250e-01) (3, 2.04269289970397949219e+00) (4, 7.06053781509399414062e+00) (5, 2.05259919166564941406e+00) (6, -8.44869518280029296875e+00) (7, 3.02341723442077636719e+00) (8, 4.61691055297851562500e+01) (9, 1.50000000000000000000e+03) (10, 1.40573760986328125000e+02) (11, 2.91302154541015625000e+02) (12, 1.50000000000000000000e+03) (13, -6.95093811035156250000e+02) (14, -1.62604808807373046875e+01) (15, -1.09413547515869140625e+01) (16, 1.11210393905639648438e+01) (17, 1.30435657501220703125e+01) (18, 2.41377277374267578125e+01) (19, 8.21154785156250000000e+00) (20, -1.33077430725097656250e+00) (21, 7.99570751190185546875e+00) (22, 4.58240747451782226562e+00) (23, -1.00172948837280273438e+01) (24, 1.50000000000000000000e+03) (25, 1.50000000000000000000e+03) (26, -9.77809309959411621094e-01) (27, -1.65105581283569335938e+00) (28, -2.72582364082336425781e+00) (29, -2.30825805664062500000e+00) (30, 1.06627511978149414062e+01) (31, 6.49692058563232421875e+00) (32, 1.60127048492431640625e+01) (33, -8.05493736267089843750e+00) (34, -6.95681715011596679688e+00) (35, -4.12754487991333007812e+00) (36, -2.77227830886840820312e+00) (37, 5.18595635890960693359e-01) (0, 1.44006419181823730469e+00) (1, 5.27685852050781250000e+01) (2, 7.93364667892456054688e+00) (3, -2.42930722236633300781e+00) (4, -2.06363010406494140625e+01) (5, 6.42904472351074218750e+00) (6, 1.81394958496093750000e+01) (7, -3.39601635932922363281e+00) (8, -3.57869796752929687500e+01) (9, 1.50000000000000000000e+03) (10, -8.04000854492187500000e+02) (11, 6.03899291992187500000e+02) (12, 1.50000000000000000000e+03) (13, 1.50000000000000000000e+03) (14, 1.24837011718750000000e+03) (15, 2.09157466888427734375e+01) (16, 1.92930817604064941406e-01) (17, -1.60592174530029296875e+01) (18, -6.17805442810058593750e+01) (19, -2.35902523994445800781e+00) (20, 4.99690103530883789062e+00) (21, 7.55826711654663085938e+00) (22, -1.53191983699798583984e+00) (23, 5.35626935958862304688e+00) (24, 1.50000000000000000000e+03) (25, 1.50000000000000000000e+03) (26, 1.07235841751098632812e+01) (27, 6.46522092819213867188e+00) (28, 2.25200614929199218750e+01) (29, 8.81050491333007812500e+00) (30, 9.15380573272705078125e+00) (31, 1.46248836517333984375e+01) (32, 6.55774688720703125000e+00) (33, -3.28329706192016601562e+00) (34, 1.30516052246093750000e+01) (35, -1.45121545791625976562e+01) (36, 6.46142578125000000000e+00) (37, 2.77805757522583007812e+00) (0, -1.50000000000000000000e+03) (1, -1.17546154785156250000e+03) (2, 2.66462826728820800781e+00) (3, -2.60509109497070312500e+01) (4, 7.37731018066406250000e+01) (5, 1.70773620605468750000e+02) (6, -1.92417602539062500000e+02) (7, 1.49306573867797851562e+01) (8, 1.50000000000000000000e+03) (9, 1.50000000000000000000e+03) (10, 1.50000000000000000000e+03) (11, 1.50000000000000000000e+03) (12, 1.50000000000000000000e+03) (13, 1.50000000000000000000e+03) (14, 8.80274581909179687500e+01) (15, -9.24883842468261718750e+00) (16, 3.64682769775390625000e+01) (17, 1.36817121505737304688e+01) (18, -1.50000000000000000000e+03) (19, -2.54052143096923828125e+01) (20, 1.12056159973144531250e+02) (21, -1.32966766357421875000e+01) (22, -9.47130126953125000000e+01) (23, 8.19754867553710937500e+01) (24, 1.50000000000000000000e+03) (25, 1.50000000000000000000e+03) (26, 1.20063148498535156250e+02) (27, 2.25183010101318359375e+01) (28, 5.96112585067749023438e+00) (29, -9.48396148681640625000e+01) (30, 6.70077133178710937500e+01) (31, 2.31399917602539062500e+02) (32, 7.57144012451171875000e+01) (33, -7.24299192428588867188e-01) (34, -4.52693061828613281250e+01) (35, -3.54528784751892089844e+00) (36, 1.14104337692260742188e+01) (37, 9.45976638793945312500e+00) (0, -1.50000000000000000000e+03) (1, -1.50000000000000000000e+03) (2, 3.27758622169494628906e+00) (3, -1.26439561843872070312e+01) (4, -6.13591957092285156250e+01) (5, 7.94435071945190429688e+00) (6, 4.39877700805664062500e+01) (7, 2.27147293090820312500e+01) (8, 3.06881815195083618164e-01) (9, 1.50000000000000000000e+03) (10, 1.50000000000000000000e+03) (11, 3.35232818603515625000e+02) (12, 1.50000000000000000000e+03) (13, 7.98981246948242187500e+01) (14, -1.17870773315429687500e+02) (15, 2.32602176666259765625e+01) (16, 7.52690649032592773438e+00) (17, 8.60857696533203125000e+01) (18, -1.50000000000000000000e+03) (19, -1.93145809173583984375e+01) (20, 3.52719140052795410156e+00) (21, -5.01508617401123046875e+00) (22, 5.81987419128417968750e+01) (23, 1.75944252014160156250e+01) (24, 1.50000000000000000000e+03) (25, 1.50000000000000000000e+03) (26, 1.67910308837890625000e+01) (27, -1.17808008193969726562e+01) (28, 2.17364597320556640625e+01) (29, -9.85480957031250000000e+01) (30, 2.37389469146728515625e+01) (31, 6.77366943359375000000e+01) (32, 1.91282329559326171875e+01) (33, 3.48333811759948730469e+00) (34, 4.56228971481323242188e+00) (35, 5.20091724395751953125e+00) (36, 2.24232673645019531250e+01) (37, 9.41626892089843750000e+01) (0, -1.49986010742187500000e+03) (1, 1.50000000000000000000e+03) (2, 8.89254379272460937500e+01) (3, 1.35287658691406250000e+02) (4, -1.40534252929687500000e+03) (5, 1.19110927581787109375e+01) (6, 2.23510147094726562500e+02) (7, 1.07800698280334472656e+00) (8, 2.76280761718750000000e+02) (9, 1.50000000000000000000e+03) (10, 1.50000000000000000000e+03) (11, 1.50000000000000000000e+03) (12, 1.50000000000000000000e+03) (13, 1.50000000000000000000e+03) (14, 3.32612304687500000000e+02) (15, 3.59837036132812500000e+02) (16, 5.68545532226562500000e+01) (17, -1.34994792938232421875e+01) (18, -5.62200469970703125000e+01) (19, 5.20967163085937500000e+02) (20, -2.54083347320556640625e+01) (21, -9.49293823242187500000e+01) (22, 1.84310943603515625000e+02) (23, -3.45700744628906250000e+02) (24, 1.50000000000000000000e+03) (25, 1.50000000000000000000e+03) (26, 3.03551177978515625000e+01) (27, 2.90297718048095703125e+01) (28, -1.15289123535156250000e+02) (29, 1.90833068847656250000e+02) (30, 5.54583168029785156250e+01) (31, -2.44468246459960937500e+02) (32, -3.90073638916015625000e+02) (33, -2.34258804321289062500e+01) (34, -4.39984191894531250000e+02) (35, 3.08071899414062500000e+01) (36, 7.87447967529296875000e+01) (37, 5.11336278915405273438e+00) (0, -1.50000000000000000000e+03) (1, -1.50000000000000000000e+03) (2, -7.06569099426269531250e+00) (3, -8.77553558349609375000e+00) (4, -3.12749099731445312500e+00) (5, 2.92728394269943237305e-01) (6, 3.21704040527343750000e+02) (7, 3.45808595418930053711e-01) (8, -5.95203208923339843750e+01) (9, 1.50000000000000000000e+03) (10, 1.50000000000000000000e+03) (11, 1.50000000000000000000e+03) (12, 1.50000000000000000000e+03) (13, 1.50000000000000000000e+03) (14, 1.50000000000000000000e+03) (15, -9.71506805419921875000e+01) (16, 6.29343795776367187500e+01) (17, 9.58761291503906250000e+01) (18, -1.50000000000000000000e+03) (19, -3.87378654479980468750e+01) (20, 2.77747821807861328125e+01) (21, 1.32905030250549316406e+00) (22, 4.77651298046112060547e-01) (23, 4.62859191894531250000e+01) (24, 1.50000000000000000000e+03) (25, 1.50000000000000000000e+03) (26, 5.81703071594238281250e+01) (27, 3.87749595642089843750e+01) (28, 1.89421508789062500000e+02) (29, -9.93586273193359375000e+01) (30, -3.63300514221191406250e+01) (31, 3.53228797912597656250e+01) (32, -2.37498340606689453125e+01) (33, -1.77014255523681640625e+01) (34, 9.04023437500000000000e+01) (35, 9.83253765106201171875e+00) (36, -2.24741435050964355469e+00) (37, 7.78928756713867187500e+01) (38, 8.65743219852447509766e-01) (39, 6.24941945075988769531e-01) (40, 7.33947694301605224609e-01) (41, 6.17678284645080566406e-01) (42, 6.61224186420440673828e-01) (43, 2.77380704879760742188e-01) (44, 8.49375009536743164062e-01) (45, 8.19357872009277343750e-01) (46, 5.71802318096160888672e-01) (47, 4.19696480035781860352e-01) (48, 8.10553431510925292969e-01) (49, 3.44491213560104370117e-01) (50, 6.76385164260864257812e-01) (51, 4.51936751604080200195e-01) (52, 1.90550163388252258301e-01) (53, 7.52075135707855224609e-01) (54, 9.18483138084411621094e-01) (55, 5.22105515003204345703e-01) (56, -9.96813237667083740234e-01) 
